booster[0]:
0:[f8<0.700000048] yes=1,no=2,missing=1
	1:[f134370<0.700000048] yes=3,no=4,missing=3
		3:[f92100<0.700000048] yes=7,no=8,missing=7
			7:[f62533<0.5] yes=15,no=16,missing=15
				15:leaf=2.20810318
				16:leaf=1.495
			8:[f134805<0.400000006] yes=17,no=18,missing=17
				17:leaf=1.64696026
				18:leaf=0.789375007
		4:[f133317<0.5] yes=9,no=10,missing=9
			9:[f116827<0.5] yes=19,no=20,missing=19
				19:leaf=0.721041679
				20:leaf=2.12842321
			10:[f109940<0.700000048] yes=21,no=22,missing=21
				21:leaf=1.87074649
				22:leaf=1.72139835
	2:[f134156<0.700000048] yes=5,no=6,missing=5
		5:[f67172<0.5] yes=11,no=12,missing=11
			11:[f164100<0.300000012] yes=23,no=24,missing=23
				23:leaf=0.697291672
				24:leaf=2.22228789
			12:leaf=0.653333366
		6:[f89157<0.100000001] yes=13,no=14,missing=13
			13:[f160861<0.700000048] yes=25,no=26,missing=25
				25:leaf=2.19175005
				26:leaf=1.33404088
			14:[f16675<0.400000006] yes=27,no=28,missing=27
				27:leaf=0.571250021
				28:leaf=2.04694557
booster[1]:
0:[f45<0.400000006] yes=1,no=2,missing=1
	1:[f134370<0.5] yes=3,no=4,missing=3
		3:[f15506<0.100000001] yes=7,no=8,missing=7
			7:[f129825<0.700000048] yes=15,no=16,missing=15
				15:leaf=0.721279025
				16:leaf=2.06995034
			8:[f91846<0.100000001] yes=17,no=18,missing=17
				17:leaf=1.15062094
				18:leaf=0.477481157
		4:[f133352<0.5] yes=9,no=10,missing=9
			9:[f19701<0.600000024] yes=19,no=20,missing=19
				19:leaf=0.413404942
				20:leaf=2.01563573
			10:[f154503<0.700000048] yes=21,no=22,missing=21
				21:leaf=1.75063193
				22:leaf=1.60883653
	2:[f134156<0.700000048] yes=5,no=6,missing=5
		5:[f6019<0.200000003] yes=11,no=12,missing=11
			11:[f67172<0.5] yes=23,no=24,missing=23
				23:leaf=2.05915356
				24:leaf=0.62611109
			12:leaf=0.624487996
		6:[f89154<0.700000048] yes=13,no=14,missing=13
			13:[f2499<0.600000024] yes=25,no=26,missing=25
				25:leaf=0.479157925
				26:leaf=1.93647468
			14:[f160861<0.700000048] yes=27,no=28,missing=27
				27:leaf=2.08440161
				28:leaf=1.24816823
booster[2]:
0:[f45<0.400000006] yes=1,no=2,missing=1
	1:[f134370<0.700000048] yes=3,no=4,missing=3
		3:[f175472<0.100000001] yes=7,no=8,missing=7
			7:[f3795<0.700000048] yes=15,no=16,missing=15
				15:leaf=0.23447156
				16:leaf=1.45899308
			8:[f91845<0.700000048] yes=17,no=18,missing=17
				17:leaf=0.536595345
				18:leaf=1.95083404
		4:[f133352<0.300000012] yes=9,no=10,missing=9
			9:[f137246<0.700000048] yes=19,no=20,missing=19
				19:leaf=0.5871225
				20:leaf=1.88422072
			10:[f109940<0.700000048] yes=21,no=22,missing=21
				21:leaf=1.64149606
				22:leaf=1.50735044
	2:[f134156<0.700000048] yes=5,no=6,missing=5
		5:[f168552<0.100000001] yes=11,no=12,missing=11
			11:leaf=0.550877392
			12:[f42031<0.100000001] yes=23,no=24,missing=23
				23:leaf=1.94280636
				24:leaf=0.287142456
		6:[f89154<0.700000048] yes=13,no=14,missing=13
			13:[f13471<0.400000006] yes=25,no=26,missing=25
				25:leaf=1.8077265
				26:leaf=0.445205599
			14:[f30499<0.700000048] yes=27,no=28,missing=27
				27:leaf=1.48975873
				28:leaf=1.1608696
booster[3]:
0:[f21<0.700000048] yes=1,no=2,missing=1
	1:[f134024<0.200000003] yes=3,no=4,missing=3
		3:[f15506<0.100000001] yes=7,no=8,missing=7
			7:[f175472<0.100000001] yes=15,no=16,missing=15
				15:leaf=1.3593241
				16:leaf=1.82895291
			8:[f18237<0.100000001] yes=17,no=18,missing=17
				17:leaf=0.95221442
				18:leaf=0.344755471
		4:[f154502<0.100000001] yes=9,no=10,missing=9
			9:[f166845<0.700000048] yes=19,no=20,missing=19
				19:leaf=1.77522337
				20:leaf=1.38526452
			10:[f152439<0.100000001] yes=21,no=22,missing=21
				21:leaf=1.44145131
				22:leaf=1.6705333
	2:[f134413<0.700000048] yes=5,no=6,missing=5
		5:[f67172<0.5] yes=11,no=12,missing=11
			11:[f164100<0.300000012] yes=23,no=24,missing=23
				23:leaf=0.530488074
				24:leaf=1.82016265
			12:leaf=0.51907289
		6:[f89157<0.100000001] yes=13,no=14,missing=13
			13:[f160861<0.700000048] yes=25,no=26,missing=25
				25:leaf=1.85313809
				26:leaf=1.09587967
			14:[f2499<0.600000024] yes=27,no=28,missing=27
				27:leaf=0.40769279
				28:leaf=1.69355345
booster[4]:
0:[f8<0.700000048] yes=1,no=2,missing=1
	1:[f134468<0.300000012] yes=3,no=4,missing=3
		3:[f15506<0.100000001] yes=7,no=8,missing=7
			7:[f132588<0.100000001] yes=15,no=16,missing=15
				15:leaf=1.71003211
				16:leaf=0.875941992
			8:[f4232<0.700000048] yes=17,no=18,missing=17
				17:leaf=1.39758158
				18:leaf=0.622101545
		4:[f133317<0.400000006] yes=9,no=10,missing=9
			9:[f136926<0.100000001] yes=19,no=20,missing=19
				19:leaf=1.65204489
				20:leaf=0.401799202
			10:[f168681<0.5] yes=21,no=22,missing=21
				21:leaf=1.26249099
				22:leaf=1.4352181
	2:[f134024<0.700000048] yes=5,no=6,missing=5
		5:[f38359<0.5] yes=11,no=12,missing=11
			11:leaf=0.435530454
			12:[f6019<0.200000003] yes=23,no=24,missing=23
				23:leaf=1.73868906
				24:leaf=0.456766516
		6:[f89157<0.100000001] yes=13,no=14,missing=13
			13:[f12073<0.700000048] yes=25,no=26,missing=25
				25:leaf=1.75013149
				26:leaf=1.0375576
			14:[f69439<0.400000006] yes=27,no=28,missing=27
				27:leaf=0.372353107
				28:leaf=1.60601568
booster[5]:
0:[f8<0.400000006] yes=1,no=2,missing=1
	1:[f134468<0.300000012] yes=3,no=4,missing=3
		3:[f62533<0.100000001] yes=7,no=8,missing=7
			7:[f175472<0.100000001] yes=15,no=16,missing=15
				15:leaf=1.12588859
				16:leaf=1.61723626
			8:[f153337<0.100000001] yes=17,no=18,missing=17
				17:leaf=1.04734445
				18:leaf=0.162092939
		4:[f133365<0.700000048] yes=9,no=10,missing=9
			9:[f116827<0.300000012] yes=19,no=20,missing=19
				19:leaf=0.416842461
				20:leaf=1.56899178
			10:[f5751<0.100000001] yes=21,no=22,missing=21
				21:leaf=1.2399267
				22:leaf=1.3592279
	2:[f133652<0.700000048] yes=5,no=6,missing=5
		5:[f38361<0.300000012] yes=11,no=12,missing=11
			11:[f164101<0.5] yes=23,no=24,missing=23
				23:leaf=1.62637818
				24:leaf=0.435939014
			12:leaf=0.417383343
		6:[f30499<0.700000048] yes=13,no=14,missing=13
			13:[f42139<0.700000048] yes=25,no=26,missing=25
				25:leaf=1.68487966
				26:leaf=0.959058881
			14:[f160861<0.700000048] yes=27,no=28,missing=27
				27:leaf=1.69310188
				28:leaf=0.952555358
booster[6]:
0:[f8<0.700000048] yes=1,no=2,missing=1
	1:[f134120<0.700000048] yes=3,no=4,missing=3
		3:[f138951<0.300000012] yes=7,no=8,missing=7
			7:[f132588<0.100000001] yes=15,no=16,missing=15
				15:leaf=1.50060678
				16:leaf=0.733299613
			8:[f65121<0.100000001] yes=17,no=18,missing=17
				17:leaf=0.861446083
				18:leaf=0.263068706
		4:[f133365<0.5] yes=9,no=10,missing=9
			9:[f138476<0.600000024] yes=19,no=20,missing=19
				19:leaf=0.505912721
				20:leaf=1.49087179
			10:[f168681<0.5] yes=21,no=22,missing=21
				21:leaf=1.10242879
				22:leaf=1.25793278
	2:[f134413<0.700000048] yes=5,no=6,missing=5
		5:[f140618<0.5] yes=11,no=12,missing=11
			11:[f2643<0.300000012] yes=23,no=24,missing=23
				23:leaf=0.628930688
				24:leaf=0.116130829
			12:[f166335<0.400000006] yes=25,no=26,missing=25
				25:leaf=1.55221725
				26:leaf=0.600618839
		6:[f30499<0.700000048] yes=13,no=14,missing=13
			13:[f42141<0.100000001] yes=27,no=28,missing=27
				27:leaf=0.888369024
				28:leaf=1.5888263
			14:[f162224<0.700000048] yes=29,no=30,missing=29
				29:leaf=1.58578122
				30:leaf=0.895034015
booster[7]:
0:[f21<0.700000048] yes=1,no=2,missing=1
	1:[f134468<0.700000048] yes=3,no=4,missing=3
		3:[f138951<0.100000001] yes=7,no=8,missing=7
			7:[f65469<0.700000048] yes=15,no=16,missing=15
				15:leaf=0.13733317
				16:leaf=1.40951157
			8:[f168690<0.700000048] yes=17,no=18,missing=17
				17:leaf=0.471539974
				18:leaf=1.02838886
		4:[f169893<0.700000048] yes=9,no=10,missing=9
			9:[f109940<0.100000001] yes=19,no=20,missing=19
				19:leaf=1.14586008
				20:leaf=1.41033268
			10:[f109938<0.100000001] yes=21,no=22,missing=21
				21:leaf=1.04200053
				22:leaf=1.39763474
	2:[f133652<0.700000048] yes=5,no=6,missing=5
		5:[f38359<0.5] yes=11,no=12,missing=11
			11:leaf=0.349007994
			12:[f42033<0.700000048] yes=23,no=24,missing=23
				23:leaf=0.11250174
				24:leaf=1.43644822
		6:[f89157<0.100000001] yes=13,no=14,missing=13
			13:[f160861<0.700000048] yes=25,no=26,missing=25
				25:leaf=1.45759857
				26:leaf=0.842559397
			14:[f16675<0.400000006] yes=27,no=28,missing=27
				27:leaf=0.230977327
				28:leaf=1.34146166
booster[8]:
0:[f45<0.400000006] yes=1,no=2,missing=1
	1:[f134468<0.300000012] yes=3,no=4,missing=3
		3:[f62533<0.100000001] yes=7,no=8,missing=7
			7:[f175472<0.300000012] yes=15,no=16,missing=15
				15:leaf=0.993991971
				16:leaf=1.32657945
			8:[f153337<0.100000001] yes=17,no=18,missing=17
				17:leaf=0.90263772
				18:leaf=0.0340841413
		4:[f133365<0.100000001] yes=9,no=10,missing=9
			9:[f116827<0.300000012] yes=19,no=20,missing=19
				19:leaf=0.301844031
				20:leaf=1.29528987
			10:[f5751<0.100000001] yes=21,no=22,missing=21
				21:leaf=1.02185225
				22:leaf=1.12424707
	2:[f134413<0.700000048] yes=5,no=6,missing=5
		5:[f164100<0.200000003] yes=11,no=12,missing=11
			11:leaf=0.293247163
			12:[f42031<0.100000001] yes=23,no=24,missing=23
				23:leaf=1.35433567
				24:leaf=0.10898605
		6:[f44563<0.700000048] yes=13,no=14,missing=13
			13:[f5751<0.700000048] yes=25,no=26,missing=25
				25:leaf=1.43213761
				26:leaf=0.690064967
			14:[f160861<0.700000048] yes=27,no=28,missing=27
				27:leaf=1.41558313
				28:leaf=0.796207368
booster[9]:
0:[f45<0.400000006] yes=1,no=2,missing=1
	1:[f134370<0.5] yes=3,no=4,missing=3
		3:[f15506<0.100000001] yes=7,no=8,missing=7
			7:[f130039<0.5] yes=15,no=16,missing=15
				15:leaf=0.125915572
				16:leaf=1.24129093
			8:[f23004<0.100000001] yes=17,no=18,missing=17
				17:leaf=0.340121925
				18:leaf=0.925565779
		4:[f109940<0.700000048] yes=9,no=10,missing=9
			9:[f109938<0.700000048] yes=19,no=20,missing=19
				19:leaf=1.24808681
				20:leaf=1.01541531
			10:[f169891<0.100000001] yes=21,no=22,missing=21
				21:leaf=0.898770213
				22:leaf=1.22297132
	2:[f134024<0.700000048] yes=5,no=6,missing=5
		5:[f67142<0.5] yes=11,no=12,missing=11
			11:leaf=0.222510949
			12:[f62534<0.700000048] yes=23,no=24,missing=23
				23:leaf=0.554846048
				24:leaf=1.27141869
		6:[f30499<0.700000048] yes=13,no=14,missing=13
			13:[f53714<0.700000048] yes=25,no=26,missing=25
				25:leaf=1.35731399
				26:leaf=0.736406803
			14:[f162104<0.700000048] yes=27,no=28,missing=27
				27:leaf=1.31805563
				28:leaf=0.733068407
booster[10]:
0:[f31<0.700000048] yes=1,no=2,missing=1
	1:[f134497<0.700000048] yes=3,no=4,missing=3
		3:[f172556<0.300000012] yes=7,no=8,missing=7
			7:[f168577<0.700000048] yes=15,no=16,missing=15
				15:leaf=0.809663713
				16:leaf=0.154844373
			8:[f15507<0.700000048] yes=17,no=18,missing=17
				17:leaf=0.371092111
				18:leaf=1.17819989
		4:[f133398<0.700000048] yes=9,no=10,missing=9
			9:[f132339<0.700000048] yes=19,no=20,missing=19
				19:leaf=0.0183637142
				20:leaf=1.15667415
			10:[f136476<0.200000003] yes=21,no=22,missing=21
				21:leaf=1.29728401
				22:leaf=0.952465057
	2:[f134503<0.700000048] yes=5,no=6,missing=5
		5:[f62534<0.300000012] yes=11,no=12,missing=11
			11:leaf=0.120170534
			12:[f67172<0.5] yes=23,no=24,missing=23
				23:leaf=1.16525173
				24:leaf=0.213239655
		6:[f30499<0.700000048] yes=13,no=14,missing=13
			13:[f53715<0.100000001] yes=25,no=26,missing=25
				25:leaf=0.685177684
				26:leaf=1.27893937
			14:[f162123<0.700000048] yes=27,no=28,missing=27
				27:leaf=1.24776423
				28:leaf=0.689153433
booster[11]:
0:[f45<0.400000006] yes=1,no=2,missing=1
	1:[f134359<0.700000048] yes=3,no=4,missing=3
		3:[f62533<0.100000001] yes=7,no=8,missing=7
			7:[f172556<0.300000012] yes=15,no=16,missing=15
				15:leaf=0.58210808
				16:leaf=1.09821904
			8:[f74953<0.700000048] yes=17,no=18,missing=17
				17:leaf=-0.0149878664
				18:leaf=0.744766653
		4:[f109940<0.700000048] yes=9,no=10,missing=9
			9:[f127221<0.100000001] yes=19,no=20,missing=19
				19:leaf=0.891190588
				20:leaf=1.12672603
			10:[f169891<0.100000001] yes=21,no=22,missing=21
				21:leaf=0.794340789
				22:leaf=1.11123431
	2:[f134156<0.700000048] yes=5,no=6,missing=5
		5:[f6019<0.200000003] yes=11,no=12,missing=11
			11:[f164100<0.300000012] yes=23,no=24,missing=23
				23:leaf=0.179500595
				24:leaf=1.10279894
			12:leaf=0.139212146
		6:[f89157<0.100000001] yes=13,no=14,missing=13
			13:[f30499<0.700000048] yes=25,no=26,missing=25
				25:leaf=0.887075007
				26:leaf=0.641871929
			14:[f2501<0.200000003] yes=27,no=28,missing=27
				27:leaf=1.09160602
				28:leaf=0.0932760239
booster[12]:
0:[f45<0.400000006] yes=1,no=2,missing=1
	1:[f134233<0.100000001] yes=3,no=4,missing=3
		3:[f62533<0.100000001] yes=7,no=8,missing=7
			7:[f175472<0.5] yes=15,no=16,missing=15
				15:leaf=0.753961623
				16:leaf=1.03932106
			8:[f38030<0.700000048] yes=17,no=18,missing=17
				17:leaf=0.00270432234
				18:leaf=0.68279922
		4:[f109940<0.700000048] yes=9,no=10,missing=9
			9:[f127221<0.100000001] yes=19,no=20,missing=19
				19:leaf=0.837433159
				20:leaf=1.05862963
			10:[f172275<0.700000048] yes=21,no=22,missing=21
				21:leaf=1.06248522
				22:leaf=0.741156459
	2:[f134413<0.700000048] yes=5,no=6,missing=5
		5:[f131510<0.300000012] yes=11,no=12,missing=11
			11:[f25304<0.400000006] yes=23,no=24,missing=23
				23:leaf=1.07906008
				24:leaf=0.124739848
			12:[f13945<0.100000001] yes=25,no=26,missing=25
				25:leaf=0.339799374
				26:leaf=0.0682006478
		6:[f131318<0.100000001] yes=13,no=14,missing=13
			13:[f131571<0.100000001] yes=27,no=28,missing=27
				27:leaf=1.05445027
				28:leaf=0.672084332
			14:[f51300<0.700000048] yes=29,no=30,missing=29
				29:leaf=1.12391388
				30:leaf=0.577809453
booster[13]:
0:[f8<0.700000048] yes=1,no=2,missing=1
	1:[f134370<0.700000048] yes=3,no=4,missing=3
		3:[f15506<0.100000001] yes=7,no=8,missing=7
			7:[f129948<0.700000048] yes=15,no=16,missing=15
				15:leaf=0.114472516
				16:leaf=0.961297154
			8:[f23005<0.700000048] yes=17,no=18,missing=17
				17:leaf=0.726778805
				18:leaf=0.192690805
		4:[f152439<0.100000001] yes=9,no=10,missing=9
			9:[f127221<0.100000001] yes=19,no=20,missing=19
				19:leaf=0.71704787
				20:leaf=1.01110458
			10:[f152438<0.100000001] yes=21,no=22,missing=21
				21:leaf=0.776152849
				22:leaf=1.03600013
	2:[f154502<0.100000001] yes=5,no=6,missing=5
		5:[f109938<0.100000001] yes=11,no=12,missing=11
			11:[f169891<0.100000001] yes=23,no=24,missing=23
				23:leaf=0.459249943
				24:leaf=0.901141942
			12:[f172910<0.400000006] yes=25,no=26,missing=25
				25:leaf=0.0469364114
				26:leaf=0.97468406
		6:[f109938<0.700000048] yes=13,no=14,missing=13
			13:[f134120<0.300000012] yes=27,no=28,missing=27
				27:leaf=0.910150945
				28:leaf=1.2240994
			14:[f12075<0.100000001] yes=29,no=30,missing=29
				29:leaf=0.61463058
				30:leaf=1.09364998
booster[14]:
0:[f8<0.700000048] yes=1,no=2,missing=1
	1:[f134400<0.700000048] yes=3,no=4,missing=3
		3:[f175472<0.100000001] yes=7,no=8,missing=7
			7:[f135241<0.400000006] yes=15,no=16,missing=15
				15:leaf=0.494895577
				16:leaf=0.970006824
			8:[f62534<0.5] yes=17,no=18,missing=17
				17:leaf=0.4274472
				18:leaf=0.906308591
		4:[f61309<0.100000001] yes=9,no=10,missing=9
			9:[f166843<0.100000001] yes=19,no=20,missing=19
				19:leaf=0.66201514
				20:leaf=0.960104942
			10:[f5749<0.700000048] yes=21,no=22,missing=21
				21:leaf=0.88233459
				22:leaf=0.692323029
	2:[f89157<0.100000001] yes=5,no=6,missing=5
		5:[f133478<0.5] yes=11,no=12,missing=11
			11:[f37809<0.5] yes=23,no=24,missing=23
				23:leaf=0.948694944
				24:leaf=0.474214643
			12:[f161247<0.700000048] yes=25,no=26,missing=25
				25:leaf=1.04701197
				26:leaf=0.534536719
		6:[f136076<0.400000006] yes=13,no=14,missing=13
			13:[f169268<0.400000006] yes=27,no=28,missing=27
				27:leaf=0.707508624
				28:leaf=0.29099685
			14:[f16675<0.400000006] yes=29,no=30,missing=29
				29:leaf=0.0421723723
				30:leaf=0.965142369
booster[15]:
0:[f8<0.700000048] yes=1,no=2,missing=1
	1:[f134370<0.700000048] yes=3,no=4,missing=3
		3:[f70992<0.400000006] yes=7,no=8,missing=7
			7:[f176305<0.700000048] yes=15,no=16,missing=15
				15:leaf=0.486751169
				16:leaf=0.845227897
			8:[f2569<0.100000001] yes=17,no=18,missing=17
				17:leaf=-0.112976909
				18:leaf=-0.0223889351
		4:[f5751<0.100000001] yes=9,no=10,missing=9
			9:[f109940<0.100000001] yes=19,no=20,missing=19
				19:leaf=0.618787229
				20:leaf=0.872771263
			10:[f152438<0.100000001] yes=21,no=22,missing=21
				21:leaf=0.681065679
				22:leaf=0.91066283
	2:[f154502<0.100000001] yes=5,no=6,missing=5
		5:[f109938<0.100000001] yes=11,no=12,missing=11
			11:[f5751<0.700000048] yes=23,no=24,missing=23
				23:leaf=0.82008183
				24:leaf=0.390181661
			12:[f127219<0.300000012] yes=25,no=26,missing=25
				25:leaf=1.1547519
				26:leaf=0.551894367
		6:[f109938<0.700000048] yes=13,no=14,missing=13
			13:[f134382<0.700000048] yes=27,no=28,missing=27
				27:leaf=0.831616044
				28:leaf=1.12875211
			14:[f160861<0.700000048] yes=29,no=30,missing=29
				29:leaf=1.03815019
				30:leaf=0.53331387
booster[16]:
0:[f8<0.700000048] yes=1,no=2,missing=1
	1:[f133321<0.700000048] yes=3,no=4,missing=3
		3:[f47892<0.100000001] yes=7,no=8,missing=7
			7:[f78128<0.700000048] yes=15,no=16,missing=15
				15:leaf=0.00792474765
				16:leaf=0.804754853
			8:[f137940<0.400000006] yes=17,no=18,missing=17
				17:leaf=0.00357736484
				18:leaf=0.685573101
		4:[f168681<0.5] yes=9,no=10,missing=9
			9:[f10314<0.300000012] yes=19,no=20,missing=19
				19:leaf=0.551048756
				20:leaf=-0.105228812
			10:[f61311<0.700000048] yes=21,no=22,missing=21
				21:leaf=0.722865582
				22:leaf=0.607398093
	2:[f134696<0.700000048] yes=5,no=6,missing=5
		5:[f6019<0.200000003] yes=11,no=12,missing=11
			11:[f62534<0.700000048] yes=23,no=24,missing=23
				23:leaf=0.324584395
				24:leaf=0.8810305
			12:[f1514<0.5] yes=25,no=26,missing=25
				25:leaf=0.00370955467
				26:leaf=0.025136143
		6:[f89157<0.100000001] yes=13,no=14,missing=13
			13:[f12075<0.100000001] yes=27,no=28,missing=27
				27:leaf=0.475382268
				28:leaf=0.974837363
			14:[f2502<0.700000048] yes=29,no=30,missing=29
				29:leaf=0.148955151
				30:leaf=0.853654802
booster[17]:
0:[f8<0.700000048] yes=1,no=2,missing=1
	1:[f134400<0.700000048] yes=3,no=4,missing=3
		3:[f132588<0.100000001] yes=7,no=8,missing=7
			7:[f138951<0.300000012] yes=15,no=16,missing=15
				15:leaf=0.748925745
				16:leaf=0.288754195
			8:[f140682<0.100000001] yes=17,no=18,missing=17
				17:leaf=-0.176195458
				18:leaf=0.426338524
		4:[f152438<0.700000048] yes=9,no=10,missing=9
			9:[f5749<0.100000001] yes=19,no=20,missing=19
				19:leaf=0.582013428
				20:leaf=0.808438957
			10:[f5749<0.5] yes=21,no=22,missing=21
				21:leaf=0.859594703
				22:leaf=0.534358799
	2:[f44563<0.700000048] yes=5,no=6,missing=5
		5:[f5749<0.100000001] yes=11,no=12,missing=11
			11:[f133323<0.400000006] yes=23,no=24,missing=23
				23:leaf=0.400876492
				24:leaf=-0.0370779932
			12:[f141157<0.300000012] yes=25,no=26,missing=25
				25:leaf=-0.0947118551
				26:leaf=0.946321249
		6:[f162123<0.700000048] yes=13,no=14,missing=13
			13:[f142182<0.700000048] yes=27,no=28,missing=27
				27:leaf=0.955342412
				28:leaf=0.0642740875
			14:[f133478<0.5] yes=29,no=30,missing=29
				29:leaf=0.772275388
				30:leaf=0.440920323
booster[18]:
0:[f8<0.400000006] yes=1,no=2,missing=1
	1:[f134400<0.700000048] yes=3,no=4,missing=3
		3:[f43215<0.100000001] yes=7,no=8,missing=7
			7:[f129822<0.100000001] yes=15,no=16,missing=15
				15:leaf=0.703395307
				16:leaf=-0.0702538118
			8:[f172346<0.700000048] yes=17,no=18,missing=17
				17:leaf=-0.265064269
				18:leaf=0.534315109
		4:[f168683<0.300000012] yes=9,no=10,missing=9
			9:[f154502<0.100000001] yes=19,no=20,missing=19
				19:leaf=0.513075829
				20:leaf=0.631695509
			10:[f130779<0.300000012] yes=21,no=22,missing=21
				21:leaf=0.481030881
				22:leaf=0.00265236548
	2:[f30499<0.700000048] yes=5,no=6,missing=5
		5:[f24482<0.700000048] yes=11,no=12,missing=11
			11:[f30381<0.700000048] yes=23,no=24,missing=23
				23:leaf=0.915695846
				24:leaf=-0.130243719
			12:[f166305<0.5] yes=25,no=26,missing=25
				25:leaf=0.366308004
				26:leaf=0.986862004
		6:[f134413<0.700000048] yes=13,no=14,missing=13
			13:[f62534<0.700000048] yes=27,no=28,missing=27
				27:leaf=0.0790031031
				28:leaf=0.750492036
			14:[f161732<0.700000048] yes=29,no=30,missing=29
				29:leaf=0.912981629
				30:leaf=0.400230199
booster[19]:
0:[f8<0.700000048] yes=1,no=2,missing=1
	1:[f134400<0.700000048] yes=3,no=4,missing=3
		3:[f109940<0.300000012] yes=7,no=8,missing=7
			7:[f114715<0.300000012] yes=15,no=16,missing=15
				15:leaf=0.243713081
				16:leaf=0.703836501
			8:[f132594<0.100000001] yes=17,no=18,missing=17
				17:leaf=0.604957163
				18:leaf=-0.143348917
		4:[f109938<0.100000001] yes=9,no=10,missing=9
			9:[f169891<0.100000001] yes=19,no=20,missing=19
				19:leaf=0.442642748
				20:leaf=0.691390872
			10:[f5751<0.100000001] yes=21,no=22,missing=21
				21:leaf=0.4910402
				22:leaf=0.639722764
	2:[f89157<0.100000001] yes=5,no=6,missing=5
		5:[f134413<0.700000048] yes=11,no=12,missing=11
			11:[f131508<0.600000024] yes=23,no=24,missing=23
				23:leaf=0.00456625223
				24:leaf=0.700904846
			12:[f12073<0.700000048] yes=25,no=26,missing=25
				25:leaf=0.837977469
				26:leaf=0.384812593
		6:[f89154<0.5] yes=13,no=14,missing=13
			13:[f2499<0.600000024] yes=27,no=28,missing=27
				27:leaf=-0.0556734204
				28:leaf=0.788866043
			14:[f130471<0.300000012] yes=29,no=30,missing=29
				29:leaf=0.364120632
				30:leaf=0.64598453
booster[20]:
0:[f21<0.700000048] yes=1,no=2,missing=1
	1:[f133922<0.5] yes=3,no=4,missing=3
		3:[f129825<0.700000048] yes=7,no=8,missing=7
			7:[f66193<0.600000024] yes=15,no=16,missing=15
				15:leaf=-0.0606415272
				16:leaf=-0.231946945
			8:[f176307<0.100000001] yes=17,no=18,missing=17
				17:leaf=0.620161653
				18:leaf=0.26758638
		4:[f109938<0.100000001] yes=9,no=10,missing=9
			9:[f172273<0.100000001] yes=19,no=20,missing=19
				19:leaf=0.428678542
				20:leaf=0.69904989
			10:[f127219<0.700000048] yes=21,no=22,missing=21
				21:leaf=0.670283198
				22:leaf=0.494612187
	2:[f154502<0.100000001] yes=5,no=6,missing=5
		5:[f166843<0.100000001] yes=11,no=12,missing=11
			11:[f16447<0.400000006] yes=23,no=24,missing=23
				23:leaf=0.907704651
				24:leaf=0.267116487
			12:[f131571<0.300000012] yes=25,no=26,missing=25
				25:leaf=0.675674319
				26:leaf=0.187416926
		6:[f109938<0.700000048] yes=13,no=14,missing=13
			13:[f134382<0.700000048] yes=27,no=28,missing=27
				27:leaf=0.579138398
				28:leaf=0.918493986
			14:[f67140<0.100000001] yes=29,no=30,missing=29
				29:leaf=0.418676406
				30:leaf=0.23807925
booster[21]:
0:[f31<0.700000048] yes=1,no=2,missing=1
	1:[f133321<0.700000048] yes=3,no=4,missing=3
		3:[f88227<0.100000001] yes=7,no=8,missing=7
			7:[f56514<0.100000001] yes=15,no=16,missing=15
				15:leaf=0.590809941
				16:leaf=-0.387452871
			8:[f133502<0.400000006] yes=17,no=18,missing=17
				17:leaf=0.478880048
				18:leaf=-0.0555664077
		4:[f136537<0.5] yes=9,no=10,missing=9
			9:[f38040<0.5] yes=19,no=20,missing=19
				19:leaf=0.205222249
				20:leaf=0.77624923
			10:[f136653<0.100000001] yes=21,no=22,missing=21
				21:leaf=0.280386835
				22:leaf=0.479487509
	2:[f172556<0.700000048] yes=5,no=6,missing=5
		5:[f53714<0.100000001] yes=11,no=12,missing=11
			11:[f77511<0.100000001] yes=23,no=24,missing=23
				23:leaf=0.363924563
				24:leaf=0.87756902
			12:[f165493<0.700000048] yes=25,no=26,missing=25
				25:leaf=0.178446665
				26:leaf=0.862766743
		6:[f114717<0.100000001] yes=13,no=14,missing=13
			13:[f51301<0.100000001] yes=27,no=28,missing=27
				27:leaf=0.307742894
				28:leaf=0.845367074
			14:[f68132<0.300000012] yes=29,no=30,missing=29
				29:leaf=0.933899879
				30:leaf=0.278483123
booster[22]:
0:[f45<0.400000006] yes=1,no=2,missing=1
	1:[f134400<0.700000048] yes=3,no=4,missing=3
		3:[f140610<0.700000048] yes=7,no=8,missing=7
			7:[f20931<0.100000001] yes=15,no=16,missing=15
				15:leaf=0.363037527
				16:leaf=-0.3154836
			8:[f154742<0.700000048] yes=17,no=18,missing=17
				17:leaf=-0.0953594819
				18:leaf=0.547321379
		4:[f131571<0.100000001] yes=9,no=10,missing=9
			9:[f67172<0.100000001] yes=19,no=20,missing=19
				19:leaf=0.461103857
				20:leaf=0.330297887
			10:[f168687<0.100000001] yes=21,no=22,missing=21
				21:leaf=0.199954212
				22:leaf=-0.272338867
	2:[f89157<0.100000001] yes=5,no=6,missing=5
		5:[f133478<0.700000048] yes=11,no=12,missing=11
			11:[f133356<0.700000048] yes=23,no=24,missing=23
				23:leaf=0.689796388
				24:leaf=0.502551019
			12:[f162175<0.700000048] yes=25,no=26,missing=25
				25:leaf=0.765078187
				26:leaf=0.316600293
		6:[f89157<0.5] yes=13,no=14,missing=13
			13:[f169239<0.5] yes=27,no=28,missing=27
				27:leaf=0.561903179
				28:leaf=0.0203342829
			14:[f16675<0.400000006] yes=29,no=30,missing=29
				29:leaf=-0.0939908028
				30:leaf=0.715087295
booster[23]:
0:[f8<0.400000006] yes=1,no=2,missing=1
	1:[f133398<0.700000048] yes=3,no=4,missing=3
		3:[f127221<0.300000012] yes=7,no=8,missing=7
			7:[f166483<0.100000001] yes=15,no=16,missing=15
				15:leaf=0.542983353
				16:leaf=-0.255372226
			8:[f137858<0.400000006] yes=17,no=18,missing=17
				17:leaf=0.465400398
				18:leaf=-0.0234719701
		4:[f154503<0.700000048] yes=9,no=10,missing=9
			9:[f109938<0.700000048] yes=19,no=20,missing=19
				19:leaf=0.559958696
				20:leaf=0.399425387
			10:[f61311<0.700000048] yes=21,no=22,missing=21
				21:leaf=0.58438611
				22:leaf=0.323160857
	2:[f30499<0.700000048] yes=5,no=6,missing=5
		5:[f67386<0.700000048] yes=11,no=12,missing=11
			11:[f3193<0.100000001] yes=23,no=24,missing=23
				23:leaf=0.743888974
				24:leaf=-0.205373615
			12:[f37807<0.700000048] yes=25,no=26,missing=25
				25:leaf=0.740758419
				26:leaf=0.241387114
		6:[f67905<0.700000048] yes=13,no=14,missing=13
			13:[f37807<0.700000048] yes=27,no=28,missing=27
				27:leaf=0.937002063
				28:leaf=0.49467963
			14:[f51301<0.100000001] yes=29,no=30,missing=29
				29:leaf=0.292157352
				30:leaf=0.72713089
booster[24]:
0:[f31<0.700000048] yes=1,no=2,missing=1
	1:[f133365<0.700000048] yes=3,no=4,missing=3
		3:[f88225<0.700000048] yes=7,no=8,missing=7
			7:[f58490<0.700000048] yes=15,no=16,missing=15
				15:leaf=-0.380625844
				16:leaf=0.359523475
			8:[f15506<0.100000001] yes=17,no=18,missing=17
				17:leaf=0.489444137
				18:leaf=-0.115342699
		4:[f50<0.700000048] yes=9,no=10,missing=9
			9:[f1263<0.100000001] yes=19,no=20,missing=19
				19:leaf=0.737413704
				20:leaf=0.101678014
			10:[f152439<0.100000001] yes=21,no=22,missing=21
				21:leaf=0.338498831
				22:leaf=0.415821284
	2:[f89157<0.100000001] yes=5,no=6,missing=5
		5:[f12073<0.700000048] yes=11,no=12,missing=11
			11:[f141159<0.400000006] yes=23,no=24,missing=23
				23:leaf=0.72482276
				24:leaf=-0.206929758
			12:[f160861<0.700000048] yes=25,no=26,missing=25
				25:leaf=0.678575575
				26:leaf=0.281599998
		6:[f169280<0.200000003] yes=13,no=14,missing=13
			13:[f172130<0.400000006] yes=27,no=28,missing=27
				27:leaf=0.00764222955
				28:leaf=0.587031484
			14:[f169273<0.200000003] yes=29,no=30,missing=29
				29:leaf=0.380144507
				30:leaf=0.0947122201
booster[25]:
0:[f45<0.400000006] yes=1,no=2,missing=1
	1:[f67172<0.100000001] yes=3,no=4,missing=3
		3:[f154503<0.700000048] yes=7,no=8,missing=7
			7:[f121004<0.700000048] yes=15,no=16,missing=15
				15:leaf=0.439795226
				16:leaf=0.293439955
			8:[f109938<0.300000012] yes=17,no=18,missing=17
				17:leaf=0.311337262
				18:leaf=0.479467601
		4:[f67129<0.300000012] yes=9,no=10,missing=9
			9:[f12253<0.400000006] yes=19,no=20,missing=19
				19:leaf=0.14058286
				20:leaf=0.705430746
			10:[f67172<0.700000048] yes=21,no=22,missing=21
				21:leaf=0.221128047
				22:leaf=0.331619114
	2:[f154502<0.100000001] yes=5,no=6,missing=5
		5:[f109938<0.100000001] yes=11,no=12,missing=11
			11:[f5749<0.100000001] yes=23,no=24,missing=23
				23:leaf=0.168280274
				24:leaf=0.510671258
			12:[f5749<0.600000024] yes=25,no=26,missing=25
				25:leaf=0.694681466
				26:leaf=0.145970628
		6:[f109940<0.100000001] yes=13,no=14,missing=13
			13:[f140682<0.700000048] yes=27,no=28,missing=27
				27:leaf=0.307133347
				28:leaf=0.157308951
			14:[f134377<0.400000006] yes=29,no=30,missing=29
				29:leaf=0.481640607
				30:leaf=0.763831735
booster[26]:
0:[f45<0.400000006] yes=1,no=2,missing=1
	1:[f133922<0.700000048] yes=3,no=4,missing=3
		3:[f176305<0.700000048] yes=7,no=8,missing=7
			7:[f5751<0.100000001] yes=15,no=16,missing=15
				15:leaf=0.435340911
				16:leaf=-0.0745466873
			8:[f114715<0.100000001] yes=17,no=18,missing=17
				17:leaf=-0.148756653
				18:leaf=0.429203272
		4:[f105231<0.100000001] yes=9,no=10,missing=9
			9:[f101480<0.100000001] yes=19,no=20,missing=19
				19:leaf=0.0729219839
				20:leaf=0.340477675
			10:[f21823<0.400000006] yes=21,no=22,missing=21
				21:leaf=-0.12745297
				22:leaf=0.532200217
	2:[f51301<0.100000001] yes=5,no=6,missing=5
		5:[f131318<0.100000001] yes=11,no=12,missing=11
			11:[f168555<0.700000048] yes=23,no=24,missing=23
				23:leaf=0.535687268
				24:leaf=0.289238781
			12:[f133398<0.700000048] yes=25,no=26,missing=25
				25:leaf=0.50388968
				26:leaf=0.212007552
		6:[f167101<0.300000012] yes=13,no=14,missing=13
			13:[f134899<0.400000006] yes=27,no=28,missing=27
				27:leaf=0.479949534
				28:leaf=0.737435281
			14:[f2499<0.700000048] yes=29,no=30,missing=29
				29:leaf=-0.2921803
				30:leaf=0.136259601
booster[27]:
0:[f8<0.700000048] yes=1,no=2,missing=1
	1:[f154503<0.700000048] yes=3,no=4,missing=3
		3:[f152438<0.700000048] yes=7,no=8,missing=7
			7:[f172383<0.300000012] yes=15,no=16,missing=15
				15:leaf=0.413058013
				16:leaf=0.174049899
			8:[f5749<0.5] yes=17,no=18,missing=17
				17:leaf=0.4809241
				18:leaf=0.286739618
		4:[f61311<0.700000048] yes=9,no=10,missing=9
			9:[f167583<0.100000001] yes=19,no=20,missing=19
				19:leaf=0.408215493
				20:leaf=-0.32841897
			10:[f152438<0.100000001] yes=21,no=22,missing=21
				21:leaf=0.230680436
				22:leaf=0.493592978
	2:[f61311<0.700000048] yes=5,no=6,missing=5
		5:[f61309<0.700000048] yes=11,no=12,missing=11
			11:[f133812<0.400000006] yes=23,no=24,missing=23
				23:leaf=0.711422324
				24:leaf=0.342611134
			12:[f140682<0.700000048] yes=25,no=26,missing=25
				25:leaf=0.272225738
				26:leaf=0.134751871
		6:[f166843<0.100000001] yes=13,no=14,missing=13
			13:[f51300<0.700000048] yes=27,no=28,missing=27
				27:leaf=0.640081525
				28:leaf=0.156670794
			14:[f168405<0.700000048] yes=29,no=30,missing=29
				29:leaf=0.047075469
				30:leaf=0.529830039
booster[28]:
0:[f31<0.700000048] yes=1,no=2,missing=1
	1:[f134400<0.700000048] yes=3,no=4,missing=3
		3:[f170553<0.700000048] yes=7,no=8,missing=7
			7:[f2803<0.100000001] yes=15,no=16,missing=15
				15:leaf=-0.463347912
				16:leaf=-0.0740537643
			8:[f174243<0.100000001] yes=17,no=18,missing=17
				17:leaf=0.372217774
				18:leaf=-0.0289771128
		4:[f136548<0.700000048] yes=9,no=10,missing=9
			9:[f167724<0.300000012] yes=19,no=20,missing=19
				19:leaf=-0.0435217619
				20:leaf=0.555648923
			10:[f136653<0.100000001] yes=21,no=22,missing=21
				21:leaf=0.139678165
				22:leaf=0.303388715
	2:[f162123<0.700000048] yes=5,no=6,missing=5
		5:[f16386<0.400000006] yes=11,no=12,missing=11
			11:[f131319<0.200000003] yes=23,no=24,missing=23
				23:leaf=-0.13998723
				24:leaf=0.00224280357
			12:[f164154<0.600000024] yes=25,no=26,missing=25
				25:leaf=0.654603422
				26:leaf=0.0307891965
		6:[f51301<0.100000001] yes=13,no=14,missing=13
			13:[f114696<0.100000001] yes=27,no=28,missing=27
				27:leaf=0.21919699
				28:leaf=0.83683002
			14:[f167101<0.300000012] yes=29,no=30,missing=29
				29:leaf=0.613331735
				30:leaf=-0.0563488305
booster[29]:
0:[f8<0.700000048] yes=1,no=2,missing=1
	1:[f61311<0.700000048] yes=3,no=4,missing=3
		3:[f5749<0.700000048] yes=7,no=8,missing=7
			7:[f168690<0.700000048] yes=15,no=16,missing=15
				15:leaf=0.099861823
				16:leaf=0.37404573
			8:[f131316<0.300000012] yes=17,no=18,missing=17
				17:leaf=0.27307111
				18:leaf=0.0649778619
		4:[f166843<0.300000012] yes=9,no=10,missing=9
			9:[f154503<0.700000048] yes=19,no=20,missing=19
				19:leaf=0.295849085
				20:leaf=0.205988362
			10:[f167348<0.700000048] yes=21,no=22,missing=21
				21:leaf=0.0760253966
				22:leaf=0.473243415
	2:[f155702<0.700000048] yes=5,no=6,missing=5
		5:[f164101<0.700000048] yes=11,no=12,missing=11
			11:[f162621<0.100000001] yes=23,no=24,missing=23
				23:leaf=0.705331743
				24:leaf=-0.0652043968
			12:[f155701<0.700000048] yes=25,no=26,missing=25
				25:leaf=0.606051505
				26:leaf=0.159900859
		6:[f164101<0.100000001] yes=13,no=14,missing=13
			13:[f133724<0.600000024] yes=27,no=28,missing=27
				27:leaf=0.43984133
				28:leaf=0.187631667
			14:[f131316<0.5] yes=29,no=30,missing=29
				29:leaf=-0.0205515921
				30:leaf=0.693264902
booster[30]:
0:[f45<0.400000006] yes=1,no=2,missing=1
	1:[f136580<0.700000048] yes=3,no=4,missing=3
		3:[f2940<0.200000003] yes=7,no=8,missing=7
			7:[f2502<0.700000048] yes=15,no=16,missing=15
				15:leaf=0.0570584536
				16:leaf=0.456439346
			8:leaf=-0.327288866
		4:[f50<0.100000001] yes=9,no=10,missing=9
			9:[f2221<0.100000001] yes=17,no=18,missing=17
				17:leaf=0.481483817
				18:leaf=-0.307093918
			10:[f133321<0.700000048] yes=19,no=20,missing=19
				19:leaf=0.319542319
				20:leaf=0.261820078
	2:[f13086<0.100000001] yes=5,no=6,missing=5
		5:[f44563<0.700000048] yes=11,no=12,missing=11
			11:[f656<0.700000048] yes=21,no=22,missing=21
				21:leaf=0.523193538
				22:leaf=0.198295325
			12:[f160861<0.700000048] yes=23,no=24,missing=23
				23:leaf=0.499839783
				24:leaf=0.185977623
		6:[f105229<0.200000003] yes=13,no=14,missing=13
			13:[f16344<0.400000006] yes=25,no=26,missing=25
				25:leaf=-0.142611653
				26:leaf=0.427840501
			14:[f25339<0.400000006] yes=27,no=28,missing=27
				27:leaf=0.748790264
				28:leaf=0.0014961561
booster[31]:
0:[f133616<0.700000048] yes=1,no=2,missing=1
	1:[f131508<0.5] yes=3,no=4,missing=3
		3:[f118429<0.100000001] yes=7,no=8,missing=7
			7:[f62534<0.5] yes=15,no=16,missing=15
				15:leaf=-0.223578736
				16:leaf=0.122429594
			8:leaf=-0.504716873
		4:[f165573<0.700000048] yes=9,no=10,missing=9
			9:[f109940<0.300000012] yes=17,no=18,missing=17
				17:leaf=0.367461294
				18:leaf=0.273117751
			10:[f177258<0.700000048] yes=19,no=20,missing=19
				19:leaf=0.423884183
				20:leaf=-0.0999455824
	2:[f57849<0.700000048] yes=5,no=6,missing=5
		5:[f13086<0.5] yes=11,no=12,missing=11
			11:[f14802<0.700000048] yes=21,no=22,missing=21
				21:leaf=0.139055297
				22:leaf=0.637941539
			12:[f25851<0.5] yes=23,no=24,missing=23
				23:leaf=0.384857416
				24:leaf=-0.0471422672
		6:[f30499<0.700000048] yes=13,no=14,missing=13
			13:[f166303<0.700000048] yes=25,no=26,missing=25
				25:leaf=0.529139936
				26:leaf=0.153627381
			14:[f21<0.400000006] yes=27,no=28,missing=27
				27:leaf=0.245606571
				28:leaf=0.170864061
booster[32]:
0:[f45<0.400000006] yes=1,no=2,missing=1
	1:[f175729<0.100000001] yes=3,no=4,missing=3
		3:[f154502<0.700000048] yes=7,no=8,missing=7
			7:[f15367<0.700000048] yes=15,no=16,missing=15
				15:leaf=0.0235809684
				16:leaf=0.321039915
			8:[f172350<0.100000001] yes=17,no=18,missing=17
				17:leaf=0.0282124169
				18:leaf=0.325125217
		4:[f67172<0.100000001] yes=9,no=10,missing=9
			9:[f166845<0.700000048] yes=19,no=20,missing=19
				19:leaf=0.287966371
				20:leaf=0.212095827
			10:[f172923<0.100000001] yes=21,no=22,missing=21
				21:leaf=-0.0545055233
				22:leaf=0.157441244
	2:[f51300<0.700000048] yes=5,no=6,missing=5
		5:[f134796<0.400000006] yes=11,no=12,missing=11
			11:[f24415<0.600000024] yes=23,no=24,missing=23
				23:leaf=0.00223207474
				24:leaf=0.354391277
			12:[f90835<0.5] yes=25,no=26,missing=25
				25:leaf=-0.0582525134
				26:leaf=0.574523747
		6:[f131318<0.100000001] yes=13,no=14,missing=13
			13:[f131571<0.100000001] yes=27,no=28,missing=27
				27:leaf=0.473170668
				28:leaf=0.184676588
			14:[f133398<0.700000048] yes=29,no=30,missing=29
				29:leaf=0.376056999
				30:leaf=0.139351264
booster[33]:
0:[f67140<0.100000001] yes=1,no=2,missing=1
	1:[f61309<0.100000001] yes=3,no=4,missing=3
		3:[f166843<0.100000001] yes=7,no=8,missing=7
			7:[f70088<0.700000048] yes=15,no=16,missing=15
				15:leaf=0.130729884
				16:leaf=-0.0326067135
			8:[f134318<0.400000006] yes=17,no=18,missing=17
				17:leaf=0.199437946
				18:leaf=0.427082956
		4:[f166843<0.700000048] yes=9,no=10,missing=9
			9:[f133659<0.300000012] yes=19,no=20,missing=19
				19:leaf=0.385595918
				20:leaf=0.248769969
			10:[f121002<0.100000001] yes=21,no=22,missing=21
				21:leaf=0.0902737007
				22:leaf=0.214604452
	2:[f60566<0.100000001] yes=5,no=6,missing=5
		5:[f77031<0.400000006] yes=11,no=12,missing=11
			11:[f67173<0.300000012] yes=23,no=24,missing=23
				23:leaf=0.513519704
				24:leaf=-0.151437819
			12:[f131318<0.300000012] yes=25,no=26,missing=25
				25:leaf=-0.157253653
				26:leaf=0.0449992493
		6:[f129990<0.700000048] yes=13,no=14,missing=13
			13:[f165193<0.600000024] yes=27,no=28,missing=27
				27:leaf=0.650981367
				28:leaf=0.0862207189
			14:[f130016<0.300000012] yes=29,no=30,missing=29
				29:leaf=0.356004983
				30:leaf=0.169209018
booster[34]:
0:[f133398<0.700000048] yes=1,no=2,missing=1
	1:[f62533<0.100000001] yes=3,no=4,missing=3
		3:[f133782<0.400000006] yes=7,no=8,missing=7
			7:[f154503<0.300000012] yes=15,no=16,missing=15
				15:leaf=0.277437836
				16:leaf=0.201860532
			8:[f36<0.400000006] yes=17,no=18,missing=17
				17:leaf=0.330957174
				18:leaf=0.596661508
		4:[f152438<0.100000001] yes=9,no=10,missing=9
			9:[f26<0.400000006] yes=19,no=20,missing=19
				19:leaf=0.440773785
				20:leaf=-0.157074332
			10:[f107324<0.600000024] yes=21,no=22,missing=21
				21:leaf=0.439833045
				22:leaf=-0.151089355
	2:[f57849<0.700000048] yes=5,no=6,missing=5
		5:[f13088<0.100000001] yes=11,no=12,missing=11
			11:[f16344<0.400000006] yes=23,no=24,missing=23
				23:leaf=-0.161242932
				24:leaf=0.3253012
			12:[f133809<0.400000006] yes=25,no=26,missing=25
				25:leaf=0.320124954
				26:leaf=0.558136225
		6:[f39571<0.700000048] yes=13,no=14,missing=13
			13:[f59569<0.5] yes=27,no=28,missing=27
				27:leaf=0.662606359
				28:leaf=0.378683448
			14:[f160869<0.700000048] yes=29,no=30,missing=29
				29:leaf=0.440588921
				30:leaf=0.155770779
booster[35]:
0:[f134497<0.700000048] yes=1,no=2,missing=1
	1:[f109940<0.5] yes=3,no=4,missing=3
		3:[f53311<0.5] yes=7,no=8,missing=7
			7:[f134877<0.400000006] yes=15,no=16,missing=15
				15:leaf=-0.0463507846
				16:leaf=0.455300182
			8:[f26<0.400000006] yes=17,no=18,missing=17
				17:leaf=0.264659613
				18:leaf=0.385658354
		4:[f176389<0.5] yes=9,no=10,missing=9
			9:[f127219<0.700000048] yes=19,no=20,missing=19
				19:leaf=-0.366573274
				20:leaf=0.125450581
			10:[f132894<0.700000048] yes=21,no=22,missing=21
				21:leaf=-0.147166416
				22:leaf=0.194516629
	2:[f161247<0.700000048] yes=5,no=6,missing=5
		5:[f159312<0.700000048] yes=11,no=12,missing=11
			11:[f161553<0.300000012] yes=23,no=24,missing=23
				23:leaf=0.416870326
				24:leaf=0.661031246
			12:[f38487<0.100000001] yes=25,no=26,missing=25
				25:leaf=-0.413304806
				26:leaf=-0.130246207
		6:[f39571<0.700000048] yes=13,no=14,missing=13
			13:[f154502<0.700000048] yes=27,no=28,missing=27
				27:leaf=0.236989394
				28:leaf=0.537198782
			14:[f67173<0.700000048] yes=29,no=30,missing=29
				29:leaf=0.0600739308
				30:leaf=0.158233181
booster[36]:
0:[f8<0.700000048] yes=1,no=2,missing=1
	1:[f154503<0.700000048] yes=3,no=4,missing=3
		3:[f152438<0.700000048] yes=7,no=8,missing=7
			7:[f172381<0.700000048] yes=15,no=16,missing=15
				15:leaf=0.0614674836
				16:leaf=0.254496843
			8:[f5749<0.5] yes=17,no=18,missing=17
				17:leaf=0.317656636
				18:leaf=0.151167482
		4:[f169891<0.100000001] yes=9,no=10,missing=9
			9:[f172273<0.100000001] yes=19,no=20,missing=19
				19:leaf=0.110572524
				20:leaf=0.369638622
			10:[f47894<0.700000048] yes=21,no=22,missing=21
				21:leaf=0.0953254551
				22:leaf=0.279447019
	2:[f89157<0.100000001] yes=5,no=6,missing=5
		5:[f114696<0.100000001] yes=11,no=12,missing=11
			11:[f51301<0.100000001] yes=23,no=24,missing=23
				23:leaf=0.117326349
				24:leaf=0.435008168
			12:[f160857<0.400000006] yes=25,no=26,missing=25
				25:leaf=0.285434723
				26:leaf=0.815362096
		6:[f130473<0.5] yes=13,no=14,missing=13
			13:[f30501<0.100000001] yes=27,no=28,missing=27
				27:leaf=0.416496217
				28:leaf=0.252712637
			14:[f1797<0.5] yes=29,no=30,missing=29
				29:leaf=-0.162285864
				30:leaf=0.202153131
booster[37]:
0:[f154502<0.100000001] yes=1,no=2,missing=1
	1:[f169891<0.100000001] yes=3,no=4,missing=3
		3:[f5749<0.100000001] yes=7,no=8,missing=7
			7:[f109938<0.100000001] yes=15,no=16,missing=15
				15:leaf=0.0649610981
				16:leaf=0.266373873
			8:[f63109<0.700000048] yes=17,no=18,missing=17
				17:leaf=-0.159467489
				18:leaf=0.361944675
		4:[f133562<0.400000006] yes=9,no=10,missing=9
			9:[f16596<0.100000001] yes=19,no=20,missing=19
				19:leaf=0.320015162
				20:leaf=-0.460845828
			10:[f140610<0.700000048] yes=21,no=22,missing=21
				21:leaf=-0.352733523
				22:leaf=0.142396748
	2:[f152438<0.700000048] yes=5,no=6,missing=5
		5:[f5749<0.100000001] yes=11,no=12,missing=11
			11:[f109938<0.700000048] yes=23,no=24,missing=23
				23:leaf=0.282005072
				24:leaf=0.141177461
			12:[f31<0.100000001] yes=25,no=26,missing=25
				25:leaf=0.26339516
				26:leaf=0.468476385
		6:[f44565<0.100000001] yes=13,no=14,missing=13
			13:[f172183<0.100000001] yes=27,no=28,missing=27
				27:leaf=0.0431192257
				28:leaf=0.141716704
			14:[f141159<0.5] yes=29,no=30,missing=29
				29:leaf=0.4098773
				30:leaf=-0.298212409
booster[38]:
0:[f45<0.400000006] yes=1,no=2,missing=1
	1:[f114715<0.100000001] yes=3,no=4,missing=3
		3:[f132727<0.700000048] yes=7,no=8,missing=7
			7:leaf=0.402966052
			8:[f131042<0.700000048] yes=15,no=16,missing=15
				15:leaf=0.45309785
				16:leaf=-0.0897095874
		4:[f175729<0.100000001] yes=9,no=10,missing=9
			9:[f154502<0.700000048] yes=17,no=18,missing=17
				17:leaf=0.202720404
				18:leaf=0.0163980797
			10:[f109940<0.5] yes=19,no=20,missing=19
				19:leaf=0.194363445
				20:leaf=0.142273352
	2:[f154502<0.100000001] yes=5,no=6,missing=5
		5:[f109938<0.100000001] yes=11,no=12,missing=11
			11:[f367<0.400000006] yes=21,no=22,missing=21
				21:leaf=0.805552959
				22:leaf=0.0345224403
			12:[f169891<0.300000012] yes=23,no=24,missing=23
				23:leaf=0.684672475
				24:leaf=0.146504045
		6:[f109938<0.700000048] yes=13,no=14,missing=13
			13:[f134382<0.700000048] yes=25,no=26,missing=25
				25:leaf=0.2179465
				26:leaf=0.575884044
			14:[f172185<0.5] yes=27,no=28,missing=27
				27:leaf=0.128399462
				28:leaf=0.0126204453
booster[39]:
0:[f67140<0.100000001] yes=1,no=2,missing=1
	1:[f61311<0.700000048] yes=3,no=4,missing=3
		3:[f166845<0.100000001] yes=7,no=8,missing=7
			7:[f172183<0.100000001] yes=15,no=16,missing=15
				15:leaf=0.0528102629
				16:leaf=0.146431044
			8:[f134379<0.100000001] yes=17,no=18,missing=17
				17:leaf=0.293047041
				18:leaf=0.183291659
		4:[f166845<0.5] yes=9,no=10,missing=9
			9:[f134318<0.400000006] yes=19,no=20,missing=19
				19:leaf=0.19354175
				20:leaf=0.456367821
			10:[f70086<0.100000001] yes=21,no=22,missing=21
				21:leaf=-0.100974903
				22:leaf=0.0796164647
	2:[f76983<0.400000006] yes=5,no=6,missing=5
		5:[f36978<0.400000006] yes=11,no=12,missing=11
			11:leaf=-0.1655581
			12:[f9157<0.700000048] yes=23,no=24,missing=23
				23:leaf=0.661386251
				24:leaf=0.249655843
		6:[f131318<0.300000012] yes=13,no=14,missing=13
			13:[f177475<0.100000001] yes=25,no=26,missing=25
				25:leaf=-0.221248865
				26:leaf=0.0519053414
			14:[f165195<0.200000003] yes=27,no=28,missing=27
				27:leaf=0.0301321335
				28:leaf=0.567182064
booster[40]:
0:[f96955<0.700000048] yes=1,no=2,missing=1
	1:[f96955<0.5] yes=3,no=4,missing=3
		3:[f8953<0.300000012] yes=7,no=8,missing=7
			7:[f47677<0.600000024] yes=15,no=16,missing=15
				15:leaf=0.191821516
				16:leaf=-0.164849773
			8:[f249<0.100000001] yes=17,no=18,missing=17
				17:leaf=0.24052465
				18:leaf=-0.534910142
		4:[f8<0.400000006] yes=9,no=10,missing=9
			9:[f2565<0.700000048] yes=19,no=20,missing=19
				19:leaf=-0.369860768
				20:leaf=0.35814786
			10:[f656<0.300000012] yes=21,no=22,missing=21
				21:leaf=-0.0732655525
				22:leaf=0.654015839
	2:[f57847<0.100000001] yes=5,no=6,missing=5
		5:[f65839<0.700000048] yes=11,no=12,missing=11
			11:[f8<0.400000006] yes=23,no=24,missing=23
				23:leaf=0.232900515
				24:leaf=0.502486527
			12:[f31<0.5] yes=25,no=26,missing=25
				25:leaf=0.14489913
				26:leaf=0.0939060003
		6:[f122725<0.700000048] yes=13,no=14,missing=13
			13:leaf=0.673440754
			14:[f13086<0.700000048] yes=27,no=28,missing=27
				27:leaf=0.356023788
				28:leaf=0.237437576
booster[41]:
0:[f160905<0.700000048] yes=1,no=2,missing=1
	1:[f140682<0.400000006] yes=3,no=4,missing=3
		3:[f161959<0.400000006] yes=7,no=8,missing=7
			7:[f161611<0.400000006] yes=15,no=16,missing=15
				15:leaf=0.368415028
				16:leaf=0.0260222442
			8:[f89154<0.400000006] yes=17,no=18,missing=17
				17:leaf=0.271795541
				18:leaf=0.548877418
		4:[f131367<0.300000012] yes=9,no=10,missing=9
			9:leaf=-0.251122534
			10:[f16386<0.400000006] yes=19,no=20,missing=19
				19:leaf=-0.0472475886
				20:leaf=0.0513339825
	2:[f21<0.700000048] yes=5,no=6,missing=5
		5:[f130779<0.300000012] yes=11,no=12,missing=11
			11:[f172383<0.300000012] yes=21,no=22,missing=21
				21:leaf=0.146777198
				22:leaf=-0.00672598695
			12:[f656<0.300000012] yes=23,no=24,missing=23
				23:leaf=-0.354689479
				24:leaf=0.35641861
		6:[f12073<0.700000048] yes=13,no=14,missing=13
			13:[f161732<0.5] yes=25,no=26,missing=25
				25:leaf=-0.174159795
				26:leaf=0.375871062
			14:[f155701<0.100000001] yes=27,no=28,missing=27
				27:leaf=0.0771758705
				28:leaf=0.178473949
booster[42]:
0:[f67140<0.100000001] yes=1,no=2,missing=1
	1:[f162109<0.700000048] yes=3,no=4,missing=3
		3:[f136004<0.700000048] yes=7,no=8,missing=7
			7:[f55393<0.400000006] yes=15,no=16,missing=15
				15:leaf=-0.0127642751
				16:leaf=-0.338457882
			8:[f162090<0.400000006] yes=17,no=18,missing=17
				17:leaf=0.442317188
				18:leaf=0.10901241
		4:[f154503<0.700000048] yes=9,no=10,missing=9
			9:[f109938<0.700000048] yes=19,no=20,missing=19
				19:leaf=0.202851579
				20:leaf=0.114032432
			10:[f109938<0.100000001] yes=21,no=22,missing=21
				21:leaf=0.0545740724
				22:leaf=0.183552414
	2:[f78085<0.700000048] yes=5,no=6,missing=5
		5:[f177465<0.200000003] yes=11,no=12,missing=11
			11:[f129990<0.700000048] yes=23,no=24,missing=23
				23:leaf=0.225034088
				24:leaf=0.746268392
			12:[f3733<0.400000006] yes=25,no=26,missing=25
				25:leaf=0.0967639089
				26:leaf=-0.24094291
		6:[f131318<0.300000012] yes=13,no=14,missing=13
			13:[f169244<0.300000012] yes=27,no=28,missing=27
				27:leaf=0.212767661
				28:leaf=-0.236809403
			14:[f119293<0.700000048] yes=29,no=30,missing=29
				29:leaf=0.345538646
				30:leaf=0.0167522375
booster[43]:
0:[f67140<0.100000001] yes=1,no=2,missing=1
	1:[f162123<0.700000048] yes=3,no=4,missing=3
		3:[f160987<0.400000006] yes=7,no=8,missing=7
			7:[f1747<0.700000048] yes=15,no=16,missing=15
				15:leaf=-0.112746179
				16:leaf=0.29423213
			8:[f164154<0.600000024] yes=17,no=18,missing=17
				17:leaf=0.548494101
				18:leaf=-0.163062647
		4:[f61311<0.700000048] yes=9,no=10,missing=9
			9:[f166843<0.700000048] yes=19,no=20,missing=19
				19:leaf=0.198926613
				20:leaf=0.100412227
			10:[f166843<0.100000001] yes=21,no=22,missing=21
				21:leaf=0.0553981811
				22:leaf=0.19500877
	2:[f165193<0.5] yes=5,no=6,missing=5
		5:[f17420<0.400000006] yes=11,no=12,missing=11
			11:leaf=0.083914876
			12:leaf=0.654653132
		6:[f78085<0.700000048] yes=13,no=14,missing=13
			13:[f177465<0.200000003] yes=23,no=24,missing=23
				23:leaf=0.571585536
				24:leaf=-0.23090367
			14:[f67172<0.700000048] yes=25,no=26,missing=25
				25:leaf=-0.00559746241
				26:leaf=0.101301141
booster[44]:
0:[f76314<0.700000048] yes=1,no=2,missing=1
	1:[f89157<0.100000001] yes=3,no=4,missing=3
		3:[f141157<0.300000012] yes=7,no=8,missing=7
			7:[f12073<0.400000006] yes=15,no=16,missing=15
				15:leaf=-0.332870662
				16:leaf=0.297835737
			8:[f9834<0.400000006] yes=17,no=18,missing=17
				17:leaf=-0.0941986442
				18:leaf=0.517916918
		4:[f46951<0.700000048] yes=9,no=10,missing=9
			9:[f177486<0.300000012] yes=19,no=20,missing=19
				19:leaf=0.0200901031
				20:leaf=0.227922916
			10:[f18337<0.700000048] yes=21,no=22,missing=21
				21:leaf=0.0114278793
				22:leaf=0.272335917
	2:[f96955<0.700000048] yes=5,no=6,missing=5
		5:[f152439<0.700000048] yes=11,no=12,missing=11
			11:[f165133<0.700000048] yes=23,no=24,missing=23
				23:leaf=-0.739450157
				24:leaf=0.384354502
			12:[f7279<0.300000012] yes=25,no=26,missing=25
				25:leaf=-0.174560517
				26:leaf=0.195280448
		6:[f39571<0.700000048] yes=13,no=14,missing=13
			13:[f26<0.400000006] yes=27,no=28,missing=27
				27:leaf=0.197539866
				28:leaf=0.535497069
			14:[f8<0.700000048] yes=29,no=30,missing=29
				29:leaf=0.115933329
				30:leaf=0.0685193539
booster[45]:
0:[f105229<0.700000048] yes=1,no=2,missing=1
	1:[f37111<0.700000048] yes=3,no=4,missing=3
		3:leaf=-0.521869183
		4:[f105229<0.300000012] yes=7,no=8,missing=7
			7:[f131564<0.600000024] yes=13,no=14,missing=13
				13:leaf=0.5412727
				14:leaf=0.19129537
			8:[f18235<0.700000048] yes=15,no=16,missing=15
				15:leaf=-0.326991618
				16:leaf=0.37961328
	2:[f67140<0.100000001] yes=5,no=6,missing=5
		5:[f61311<0.700000048] yes=9,no=10,missing=9
			9:[f166845<0.100000001] yes=17,no=18,missing=17
				17:leaf=0.0873529464
				18:leaf=0.174728855
			10:[f166843<0.100000001] yes=19,no=20,missing=19
				19:leaf=0.0400307737
				20:leaf=0.177278325
		6:[f165193<0.300000012] yes=11,no=12,missing=11
			11:[f21<0.400000006] yes=21,no=22,missing=21
				21:leaf=0.177085757
				22:leaf=0.699194491
			12:[f119293<0.700000048] yes=23,no=24,missing=23
				23:leaf=0.314968258
				24:leaf=-0.000663636602
booster[46]:
0:[f114696<0.100000001] yes=1,no=2,missing=1
	1:[f51301<0.100000001] yes=3,no=4,missing=3
		3:[f44565<0.100000001] yes=7,no=8,missing=7
			7:[f162081<0.700000048] yes=15,no=16,missing=15
				15:leaf=0.309395105
				16:leaf=0.0750679821
			8:[f656<0.700000048] yes=17,no=18,missing=17
				17:leaf=0.331791371
				18:leaf=0.0626683757
		4:[f167101<0.300000012] yes=9,no=10,missing=9
			9:[f133459<0.400000006] yes=19,no=20,missing=19
				19:leaf=0.168957651
				20:leaf=0.393214732
			10:[f40771<0.300000012] yes=21,no=22,missing=21
				21:leaf=0.132197142
				22:leaf=-0.3319695
	2:[f161732<0.600000024] yes=5,no=6,missing=5
		5:[f1749<0.100000001] yes=11,no=12,missing=11
			11:[f7717<0.600000024] yes=23,no=24,missing=23
				23:leaf=-0.105584502
				24:leaf=0.29785198
			12:leaf=-0.11409384
		6:[f46951<0.300000012] yes=13,no=14,missing=13
			13:leaf=0.127082899
			14:[f119784<0.600000024] yes=25,no=26,missing=25
				25:leaf=0.167470261
				26:leaf=0.702210426
booster[47]:
0:[f171984<0.100000001] yes=1,no=2,missing=1
	1:[f105231<0.100000001] yes=3,no=4,missing=3
		3:[f159145<0.100000001] yes=7,no=8,missing=7
			7:[f12624<0.400000006] yes=15,no=16,missing=15
				15:leaf=0.443578452
				16:leaf=-0.100727044
			8:[f67172<0.100000001] yes=17,no=18,missing=17
				17:leaf=0.0794881061
				18:leaf=0.000585814996
		4:[f105229<0.300000012] yes=9,no=10,missing=9
			9:[f132060<0.700000048] yes=19,no=20,missing=19
				19:leaf=0.551449895
				20:leaf=0.163296297
			10:[f82980<0.700000048] yes=21,no=22,missing=21
				21:leaf=-0.316021472
				22:leaf=0.347266555
	2:[f96957<0.300000012] yes=5,no=6,missing=5
		5:[f133905<0.400000006] yes=11,no=12,missing=11
			11:[f2507<0.100000001] yes=23,no=24,missing=23
				23:leaf=0.250648797
				24:leaf=-0.186139345
			12:[f163171<0.700000048] yes=25,no=26,missing=25
				25:leaf=0.104571432
				26:leaf=0.448146075
		6:[f42825<0.100000001] yes=13,no=14,missing=13
			13:[f154746<0.400000006] yes=27,no=28,missing=27
				27:leaf=-0.385999233
				28:leaf=0.175150543
			14:leaf=-0.561660767
booster[48]:
0:[f130471<0.100000001] yes=1,no=2,missing=1
	1:[f155702<0.700000048] yes=3,no=4,missing=3
		3:[f132038<0.5] yes=7,no=8,missing=7
			7:[f8<0.400000006] yes=15,no=16,missing=15
				15:leaf=-0.0134069324
				16:leaf=0.0572472811
			8:[f8<0.400000006] yes=17,no=18,missing=17
				17:leaf=0.197607487
				18:leaf=0.537936866
		4:[f68481<0.100000001] yes=9,no=10,missing=9
			9:[f21283<0.300000012] yes=19,no=20,missing=19
				19:leaf=-0.0443405323
				20:leaf=0.638490975
			10:[f66600<0.100000001] yes=21,no=22,missing=21
				21:leaf=0.519277573
				22:leaf=0.0400482118
	2:[f130473<0.100000001] yes=5,no=6,missing=5
		5:[f56749<0.700000048] yes=11,no=12,missing=11
			11:[f129822<0.100000001] yes=23,no=24,missing=23
				23:leaf=0.410083234
				24:leaf=-0.436101466
			12:[f152439<0.100000001] yes=25,no=26,missing=25
				25:leaf=0.0347426049
				26:leaf=0.0885141268
		6:[f131318<0.100000001] yes=13,no=14,missing=13
			13:[f89154<0.700000048] yes=27,no=28,missing=27
				27:leaf=0.272077352
				28:leaf=0.541258812
			14:[f130471<0.5] yes=29,no=30,missing=29
				29:leaf=-0.0593972132
				30:leaf=0.30426529
booster[49]:
0:[f65842<0.100000001] yes=1,no=2,missing=1
	1:[f114697<0.700000048] yes=3,no=4,missing=3
		3:[f613<0.400000006] yes=7,no=8,missing=7
			7:leaf=-0.0622941256
			8:[f46951<0.600000024] yes=15,no=16,missing=15
				15:leaf=0.0237188339
				16:leaf=0.541510403
		4:[f39571<0.700000048] yes=9,no=10,missing=9
			9:[f131316<0.100000001] yes=17,no=18,missing=17
				17:leaf=0.191145077
				18:leaf=0.481930524
			10:[f130473<0.700000048] yes=19,no=20,missing=19
				19:leaf=0.0674753562
				20:leaf=-0.015612022
	2:[f8<0.400000006] yes=5,no=6,missing=5
		5:[f65894<0.400000006] yes=11,no=12,missing=11
			11:[f121002<0.400000006] yes=21,no=22,missing=21
				21:leaf=0.0617598705
				22:leaf=-0.238594368
			12:[f133742<0.400000006] yes=23,no=24,missing=23
				23:leaf=0.00204749894
				24:leaf=0.268834442
		6:[f133425<0.200000003] yes=13,no=14,missing=13
			13:[f2280<0.700000048] yes=25,no=26,missing=25
				25:leaf=-0.0667719841
				26:leaf=0.103532851
			14:[f90835<0.300000012] yes=27,no=28,missing=27
				27:leaf=0.158269718
				28:leaf=0.590902865
booster[50]:
0:[f154502<0.100000001] yes=1,no=2,missing=1
	1:[f109938<0.100000001] yes=3,no=4,missing=3
		3:[f5749<0.100000001] yes=7,no=8,missing=7
			7:[f53079<0.100000001] yes=15,no=16,missing=15
				15:leaf=-0.00125646533
				16:leaf=0.626180649
			8:[f168206<0.400000006] yes=17,no=18,missing=17
				17:leaf=-0.268129081
				18:leaf=0.205303669
		4:[f134493<0.400000006] yes=9,no=10,missing=9
			9:[f167581<0.700000048] yes=19,no=20,missing=19
				19:leaf=-0.628309011
				20:leaf=0.0634743571
			10:[f168740<0.700000048] yes=21,no=22,missing=21
				21:leaf=-0.29916963
				22:leaf=0.226997033
	2:[f5749<0.700000048] yes=5,no=6,missing=5
		5:[f97965<0.700000048] yes=11,no=12,missing=11
			11:[f13765<0.700000048] yes=23,no=24,missing=23
				23:leaf=-0.125654384
				24:leaf=0.133155242
			12:[f40513<0.400000006] yes=25,no=26,missing=25
				25:leaf=-0.177048236
				26:leaf=0.292435825
		6:[f130471<0.700000048] yes=13,no=14,missing=13
			13:[f130473<0.700000048] yes=27,no=28,missing=27
				27:leaf=0.390753329
				28:leaf=-0.00298531679
			14:[f56749<0.700000048] yes=29,no=30,missing=29
				29:leaf=0.375409871
				30:leaf=0.0287293177
booster[51]:
0:[f121004<0.700000048] yes=1,no=2,missing=1
	1:[f130473<0.700000048] yes=3,no=4,missing=3
		3:[f130473<0.100000001] yes=7,no=8,missing=7
			7:[f56749<0.700000048] yes=15,no=16,missing=15
				15:leaf=0.354720801
				16:leaf=0.0622103699
			8:[f131318<0.100000001] yes=17,no=18,missing=17
				17:leaf=0.440324515
				18:leaf=0.108770669
		4:[f155701<0.100000001] yes=9,no=10,missing=9
			9:[f132727<0.700000048] yes=19,no=20,missing=19
				19:leaf=0.379824221
				20:leaf=-0.0389053188
			10:[f21<0.400000006] yes=21,no=22,missing=21
				21:leaf=0.145587564
				22:leaf=0.54532218
	2:[f61309<0.700000048] yes=5,no=6,missing=5
		5:[f169891<0.700000048] yes=11,no=12,missing=11
			11:[f152438<0.100000001] yes=23,no=24,missing=23
				23:leaf=-0.225813448
				24:leaf=0.098967433
			12:[f134529<0.600000024] yes=25,no=26,missing=25
				25:leaf=0.152004495
				26:leaf=0.393638462
		6:[f169891<0.700000048] yes=13,no=14,missing=13
			13:[f155184<0.700000048] yes=27,no=28,missing=27
				27:leaf=-0.277677745
				28:leaf=0.264880568
			14:[f137665<0.400000006] yes=29,no=30,missing=29
				29:leaf=0.563709676
				30:leaf=-0.035408292
booster[52]:
0:[f96955<0.700000048] yes=1,no=2,missing=1
	1:[f152438<0.100000001] yes=3,no=4,missing=3
		3:[f131318<0.700000048] yes=7,no=8,missing=7
			7:[f107811<0.700000048] yes=15,no=16,missing=15
				15:leaf=0.197024897
				16:leaf=0.700906515
			8:[f172411<0.600000024] yes=17,no=18,missing=17
				17:leaf=-0.28867048
				18:leaf=0.119679824
		4:[f31<0.300000012] yes=9,no=10,missing=9
			9:[f824<0.100000001] yes=19,no=20,missing=19
				19:leaf=0.212673172
				20:leaf=-0.555088639
			10:[f133521<0.400000006] yes=21,no=22,missing=21
				21:leaf=0.176037073
				22:leaf=0.588882208
	2:[f154670<0.100000001] yes=5,no=6,missing=5
		5:[f89154<0.5] yes=11,no=12,missing=11
			11:[f2499<0.600000024] yes=23,no=24,missing=23
				23:leaf=-0.292238414
				24:leaf=0.232449353
			12:[f131571<0.5] yes=25,no=26,missing=25
				25:leaf=0.0568439811
				26:leaf=-0.00512462296
		6:[f87200<0.700000048] yes=13,no=14,missing=13
			13:[f8<0.400000006] yes=27,no=28,missing=27
				27:leaf=0.342726558
				28:leaf=0.640609682
			14:[f8<0.400000006] yes=29,no=30,missing=29
				29:leaf=0.244835675
				30:leaf=-0.156576142
booster[53]:
0:[f105231<0.100000001] yes=1,no=2,missing=1
	1:[f119293<0.700000048] yes=3,no=4,missing=3
		3:[f119295<0.5] yes=7,no=8,missing=7
			7:[f21<0.400000006] yes=13,no=14,missing=13
				13:leaf=0.197996676
				14:leaf=0.468280941
			8:[f140683<0.400000006] yes=15,no=16,missing=15
				15:leaf=-0.102048993
				16:leaf=0.140008271
		4:[f164661<0.100000001] yes=9,no=10,missing=9
			9:[f134472<0.700000048] yes=17,no=18,missing=17
				17:leaf=0.135988474
				18:leaf=0.0464308523
			10:[f165225<0.700000048] yes=19,no=20,missing=19
				19:leaf=0.0926602259
				20:leaf=0.305242717
	2:[f37111<0.700000048] yes=5,no=6,missing=5
		5:leaf=-0.485904396
		6:[f131316<0.100000001] yes=11,no=12,missing=11
			11:[f2247<0.200000003] yes=21,no=22,missing=21
				21:leaf=0.202744991
				22:leaf=-0.321999609
			12:[f656<0.5] yes=23,no=24,missing=23
				23:leaf=0.227236584
				24:leaf=0.686723232
booster[54]:
0:[f65842<0.100000001] yes=1,no=2,missing=1
	1:[f76314<0.700000048] yes=3,no=4,missing=3
		3:[f89154<0.700000048] yes=7,no=8,missing=7
			7:[f30499<0.700000048] yes=15,no=16,missing=15
				15:leaf=0.0996572897
				16:leaf=0.298234582
			8:[f141157<0.400000006] yes=17,no=18,missing=17
				17:leaf=-0.0982391015
				18:leaf=0.399115622
		4:[f97963<0.100000001] yes=9,no=10,missing=9
			9:[f172346<0.700000048] yes=19,no=20,missing=19
				19:leaf=0.213342279
				20:leaf=-0.196602643
			10:[f131571<0.5] yes=21,no=22,missing=21
				21:leaf=0.0538003147
				22:leaf=-0.0135363024
	2:[f8<0.400000006] yes=5,no=6,missing=5
		5:[f31101<0.100000001] yes=11,no=12,missing=11
			11:[f133742<0.400000006] yes=23,no=24,missing=23
				23:leaf=-0.0101714134
				24:leaf=0.23129864
			12:[f31101<0.5] yes=25,no=26,missing=25
				25:leaf=0.037555296
				26:leaf=-0.0163372755
		6:[f135645<0.700000048] yes=13,no=14,missing=13
			13:leaf=0.0805644169
			14:[f3300<0.600000024] yes=27,no=28,missing=27
				27:leaf=0.0666176081
				28:leaf=0.512803972
booster[55]:
0:[f121004<0.700000048] yes=1,no=2,missing=1
	1:[f109938<0.100000001] yes=3,no=4,missing=3
		3:[f154503<0.700000048] yes=7,no=8,missing=7
			7:[f134943<0.5] yes=15,no=16,missing=15
				15:leaf=0.185942799
				16:leaf=-0.00248508388
			8:[f172275<0.5] yes=17,no=18,missing=17
				17:leaf=0.224618122
				18:leaf=-0.00148300198
		4:[f172346<0.100000001] yes=9,no=10,missing=9
			9:[f130473<0.100000001] yes=19,no=20,missing=19
				19:leaf=0.0142917922
				20:leaf=0.104779601
			10:[f152438<0.100000001] yes=21,no=22,missing=21
				21:leaf=0.0570516512
				22:leaf=0.148805842
	2:[f127221<0.100000001] yes=5,no=6,missing=5
		5:[f170679<0.5] yes=11,no=12,missing=11
			11:[f61311<0.100000001] yes=23,no=24,missing=23
				23:leaf=-0.0454507843
				24:leaf=0.176921621
			12:[f168986<0.100000001] yes=25,no=26,missing=25
				25:leaf=0.592354774
				26:leaf=-0.00977307558
		6:[f133440<0.600000024] yes=13,no=14,missing=13
			13:[f2941<0.600000024] yes=27,no=28,missing=27
				27:leaf=-0.407224894
				28:leaf=0.0806719065
			14:[f135097<0.700000048] yes=29,no=30,missing=29
				29:leaf=0.0895326138
				30:leaf=0.339078516
booster[56]:
0:[f67172<0.100000001] yes=1,no=2,missing=1
	1:[f154503<0.700000048] yes=3,no=4,missing=3
		3:[f172183<0.100000001] yes=7,no=8,missing=7
			7:[f109938<0.700000048] yes=13,no=14,missing=13
				13:leaf=0.151685506
				14:leaf=-0.0216847863
			8:[f131571<0.100000001] yes=15,no=16,missing=15
				15:leaf=0.092332013
				16:leaf=0.0225239526
		4:[f166843<0.300000012] yes=9,no=10,missing=9
			9:[f45<0.400000006] yes=17,no=18,missing=17
				17:leaf=0.0327714942
				18:leaf=-0.016559476
			10:[f134377<0.400000006] yes=19,no=20,missing=19
				19:leaf=0.0185780693
				20:leaf=0.252633303
	2:[f165193<0.5] yes=5,no=6,missing=5
		5:leaf=0.635184169
		6:[f67172<0.700000048] yes=11,no=12,missing=11
			11:[f60564<0.700000048] yes=21,no=22,missing=21
				21:leaf=-0.0128534744
				22:leaf=-0.0845997334
			12:[f133836<0.400000006] yes=23,no=24,missing=23
				23:leaf=0.0886804238
				24:leaf=-0.266459137
booster[57]:
0:[f175231<0.100000001] yes=1,no=2,missing=1
	1:[f130441<0.400000006] yes=3,no=4,missing=3
		3:[f175867<0.100000001] yes=7,no=8,missing=7
			7:[f3337<0.5] yes=13,no=14,missing=13
				13:leaf=0.446263313
				14:leaf=-0.168384492
			8:leaf=0.555147946
		4:leaf=0.568860769
	2:[f154503<0.700000048] yes=5,no=6,missing=5
		5:[f152438<0.700000048] yes=9,no=10,missing=9
			9:[f172411<0.100000001] yes=15,no=16,missing=15
				15:leaf=-0.0971268639
				16:leaf=0.104264751
			10:[f44565<0.100000001] yes=17,no=18,missing=17
				17:leaf=0.0295840446
				18:leaf=0.22053057
		6:[f109938<0.100000001] yes=11,no=12,missing=11
			11:[f5751<0.700000048] yes=19,no=20,missing=19
				19:leaf=0.156429544
				20:leaf=-0.00740672788
			12:[f134725<0.400000006] yes=21,no=22,missing=21
				21:leaf=0.1675881
				22:leaf=-0.000201883799
booster[58]:
0:[f51300<0.700000048] yes=1,no=2,missing=1
	1:[f134394<0.400000006] yes=3,no=4,missing=3
		3:[f2280<0.700000048] yes=7,no=8,missing=7
			7:leaf=-0.10363543
			8:[f24415<0.600000024] yes=15,no=16,missing=15
				15:leaf=-0.10315609
				16:leaf=0.10306
		4:[f51300<0.5] yes=9,no=10,missing=9
			9:[f1<0.400000006] yes=17,no=18,missing=17
				17:leaf=0.432538807
				18:leaf=0.0886487961
			10:[f166843<0.700000048] yes=19,no=20,missing=19
				19:leaf=0.366230905
				20:leaf=0.174787506
	2:[f89157<0.300000012] yes=5,no=6,missing=5
		5:[f57849<0.700000048] yes=11,no=12,missing=11
			11:[f143215<0.200000003] yes=21,no=22,missing=21
				21:leaf=-0.0287977383
				22:leaf=0.188402966
			12:[f162333<0.700000048] yes=23,no=24,missing=23
				23:leaf=0.216850758
				24:leaf=0.0276467782
		6:[f16675<0.400000006] yes=13,no=14,missing=13
			13:leaf=-0.28132391
			14:[f160974<0.700000048] yes=25,no=26,missing=25
				25:leaf=-0.000106537344
				26:leaf=0.230896533
booster[59]:
0:[f97963<0.100000001] yes=1,no=2,missing=1
	1:[f47354<0.200000003] yes=3,no=4,missing=3
		3:[f9153<0.700000048] yes=7,no=8,missing=7
			7:leaf=-0.634140313
			8:[f3633<0.100000001] yes=13,no=14,missing=13
				13:leaf=-0.170955852
				14:leaf=0.270530522
		4:leaf=0.509993076
	2:[f67173<0.700000048] yes=5,no=6,missing=5
		5:[f76795<0.700000048] yes=9,no=10,missing=9
			9:[f36978<0.400000006] yes=15,no=16,missing=15
				15:leaf=-0.166006327
				16:leaf=0.37764746
			10:[f168684<0.300000012] yes=17,no=18,missing=17
				17:leaf=-0.225510389
				18:leaf=-0.0174522009
		6:[f166845<0.700000048] yes=11,no=12,missing=11
			11:[f5749<0.700000048] yes=19,no=20,missing=19
				19:leaf=0.0982184932
				20:leaf=0.0387019627
			12:[f5749<0.100000001] yes=21,no=22,missing=21
				21:leaf=0.00341748679
				22:leaf=0.124418192
booster[60]:
0:[f65839<0.700000048] yes=1,no=2,missing=1
	1:[f8<0.400000006] yes=3,no=4,missing=3
		3:[f126216<0.700000048] yes=7,no=8,missing=7
			7:leaf=-0.472868711
			8:[f54890<0.200000003] yes=15,no=16,missing=15
				15:leaf=-0.382182777
				16:leaf=0.145488828
		4:[f65839<0.200000003] yes=9,no=10,missing=9
			9:[f29234<0.600000024] yes=17,no=18,missing=17
				17:leaf=0.397370398
				18:leaf=-0.00246401131
			10:[f172381<0.700000048] yes=19,no=20,missing=19
				19:leaf=-0.0724525452
				20:leaf=0.445246845
	2:[f51300<0.700000048] yes=5,no=6,missing=5
		5:[f121004<0.100000001] yes=11,no=12,missing=11
			11:[f133638<0.400000006] yes=21,no=22,missing=21
				21:leaf=0.0723413229
				22:leaf=0.250176191
			12:leaf=0.509914994
		6:[f54948<0.700000048] yes=13,no=14,missing=13
			13:[f68130<0.5] yes=23,no=24,missing=23
				23:leaf=0.791664422
				24:leaf=0.326929718
			14:[f159145<0.100000001] yes=25,no=26,missing=25
				25:leaf=-0.0984754786
				26:leaf=0.0341899693
booster[61]:
0:[f162072<0.700000048] yes=1,no=2,missing=1
	1:[f160983<0.400000006] yes=3,no=4,missing=3
		3:[f172346<0.100000001] yes=7,no=8,missing=7
			7:[f161167<0.400000006] yes=15,no=16,missing=15
				15:leaf=-0.0925088748
				16:leaf=0.118576989
			8:[f61309<0.200000003] yes=17,no=18,missing=17
				17:leaf=-0.0199333429
				18:leaf=0.275627732
		4:[f161526<0.400000006] yes=9,no=10,missing=9
			9:[f89154<0.700000048] yes=19,no=20,missing=19
				19:leaf=0.139021039
				20:leaf=0.513536572
			10:leaf=-0.134718582
	2:[f114696<0.100000001] yes=5,no=6,missing=5
		5:[f127626<0.100000001] yes=11,no=12,missing=11
			11:[f175731<0.700000048] yes=21,no=22,missing=21
				21:leaf=0.0306547023
				22:leaf=-0.065890871
			12:[f142615<0.700000048] yes=23,no=24,missing=23
				23:leaf=0.395813972
				24:leaf=-0.190780774
		6:[f30499<0.700000048] yes=13,no=14,missing=13
			13:[f131571<0.5] yes=25,no=26,missing=25
				25:leaf=0.312868923
				26:leaf=-0.0329763666
			14:[f43754<0.700000048] yes=27,no=28,missing=27
				27:leaf=0.147058368
				28:leaf=0.590750217
booster[62]:
0:[f97963<0.100000001] yes=1,no=2,missing=1
	1:[f136653<0.700000048] yes=3,no=4,missing=3
		3:[f5664<0.400000006] yes=7,no=8,missing=7
			7:leaf=-0.0657534003
			8:[f56749<0.400000006] yes=15,no=16,missing=15
				15:leaf=0.0299235582
				16:leaf=0.218753219
		4:[f3631<0.700000048] yes=9,no=10,missing=9
			9:leaf=0.260050058
			10:[f8<0.400000006] yes=17,no=18,missing=17
				17:leaf=-0.286661178
				18:leaf=-0.146562591
	2:[f518<0.100000001] yes=5,no=6,missing=5
		5:[f76316<0.100000001] yes=11,no=12,missing=11
			11:[f54948<0.300000012] yes=19,no=20,missing=19
				19:leaf=0.566902697
				20:leaf=0.0290201884
			12:[f89154<0.700000048] yes=21,no=22,missing=21
				21:leaf=0.0933278948
				22:leaf=0.330992699
		6:[f518<0.5] yes=13,no=14,missing=13
			13:[f36<0.400000006] yes=23,no=24,missing=23
				23:leaf=0.224983782
				24:leaf=0.496008456
			14:[f57666<0.400000006] yes=25,no=26,missing=25
				25:leaf=0.127833948
				26:leaf=0.497863472
booster[63]:
0:[f130473<0.700000048] yes=1,no=2,missing=1
	1:[f130471<0.700000048] yes=3,no=4,missing=3
		3:[f131318<0.100000001] yes=7,no=8,missing=7
			7:[f89154<0.700000048] yes=15,no=16,missing=15
				15:leaf=0.178323716
				16:leaf=0.418521017
			8:[f114717<0.700000048] yes=17,no=18,missing=17
				17:leaf=0.187534899
				18:leaf=-0.184764117
		4:[f56749<0.700000048] yes=9,no=10,missing=9
			9:[f131316<0.100000001] yes=19,no=20,missing=19
				19:leaf=-0.030078074
				20:leaf=0.375452936
			10:[f152439<0.100000001] yes=21,no=22,missing=21
				21:leaf=0.00074408896
				22:leaf=0.0412783436
	2:[f155701<0.100000001] yes=5,no=6,missing=5
		5:[f132729<0.100000001] yes=11,no=12,missing=11
			11:[f131571<0.5] yes=23,no=24,missing=23
				23:leaf=-0.0255052149
				24:leaf=-0.116485365
			12:[f155432<0.700000048] yes=25,no=26,missing=25
				25:leaf=0.0934934169
				26:leaf=0.423698425
		6:[f167101<0.300000012] yes=13,no=14,missing=13
			13:[f1<0.400000006] yes=27,no=28,missing=27
				27:leaf=0.520739436
				28:leaf=0.131794751
			14:[f24482<0.100000001] yes=29,no=30,missing=29
				29:leaf=0.0306091011
				30:leaf=0.217848301
booster[64]:
0:[f119293<0.700000048] yes=1,no=2,missing=1
	1:[f155701<0.100000001] yes=3,no=4,missing=3
		3:[f134280<0.400000006] yes=7,no=8,missing=7
			7:[f119293<0.100000001] yes=13,no=14,missing=13
				13:leaf=0.0778498352
				14:leaf=0.246235266
			8:[f5751<0.100000001] yes=15,no=16,missing=15
				15:leaf=-0.160462812
				16:leaf=0.024986472
		4:leaf=0.501974761
	2:[f105229<0.700000048] yes=5,no=6,missing=5
		5:[f174223<0.100000001] yes=9,no=10,missing=9
			9:[f131318<0.700000048] yes=17,no=18,missing=17
				17:leaf=0.437625855
				18:leaf=0.142115608
			10:leaf=-0.474945635
		6:[f70088<0.700000048] yes=11,no=12,missing=11
			11:[f159145<0.100000001] yes=19,no=20,missing=19
				19:leaf=-0.104835376
				20:leaf=0.0283217747
			12:[f94483<0.700000048] yes=21,no=22,missing=21
				21:leaf=0.430873215
				22:leaf=-0.169977173
booster[65]:
0:[f67172<0.100000001] yes=1,no=2,missing=1
	1:[f67121<0.100000001] yes=3,no=4,missing=3
		3:[f162333<0.700000048] yes=7,no=8,missing=7
			7:[f162333<0.5] yes=15,no=16,missing=15
				15:leaf=0.155480593
				16:leaf=0.380921066
			8:[f5208<0.700000048] yes=17,no=18,missing=17
				17:leaf=0.542812049
				18:leaf=0.0209255423
		4:[f133404<0.5] yes=9,no=10,missing=9
			9:[f61309<0.5] yes=19,no=20,missing=19
				19:leaf=-0.102196977
				20:leaf=0.104668528
			10:[f130014<0.100000001] yes=21,no=22,missing=21
				21:leaf=0.31087935
				22:leaf=0.103171699
	2:[f78087<0.400000006] yes=5,no=6,missing=5
		5:[f137078<0.600000024] yes=11,no=12,missing=11
			11:leaf=0.553764641
			12:[f177057<0.100000001] yes=23,no=24,missing=23
				23:leaf=-0.0433383733
				24:leaf=-0.398802727
		6:[f177465<0.300000012] yes=13,no=14,missing=13
			13:leaf=0.567373872
			14:[f3735<0.400000006] yes=25,no=26,missing=25
				25:leaf=-0.164660215
				26:leaf=0.089140594
booster[66]:
0:[f40351<0.100000001] yes=1,no=2,missing=1
	1:[f172383<0.700000048] yes=3,no=4,missing=3
		3:[f618<0.300000012] yes=7,no=8,missing=7
			7:[f118429<0.700000048] yes=13,no=14,missing=13
				13:leaf=0.0306015499
				14:leaf=-0.0944440141
			8:[f4405<0.400000006] yes=15,no=16,missing=15
				15:leaf=0.135224938
				16:leaf=-0.207097247
		4:[f134779<0.5] yes=9,no=10,missing=9
			9:[f175867<0.100000001] yes=17,no=18,missing=17
				17:leaf=0.0599415898
				18:leaf=0.536411047
			10:[f130441<0.400000006] yes=19,no=20,missing=19
				19:leaf=-0.125188857
				20:leaf=0.549695313
	2:[f15037<0.100000001] yes=5,no=6,missing=5
		5:leaf=-0.0957815275
		6:[f65517<0.5] yes=11,no=12,missing=11
			11:[f5775<0.400000006] yes=21,no=22,missing=21
				21:leaf=0.293161035
				22:leaf=0.0254881382
			12:[f134424<0.400000006] yes=23,no=24,missing=23
				23:leaf=0.168107778
				24:leaf=0.635339439
booster[67]:
0:[f62533<0.100000001] yes=1,no=2,missing=1
	1:[f172183<0.100000001] yes=3,no=4,missing=3
		3:[f38395<0.400000006] yes=7,no=8,missing=7
			7:leaf=0.819220006
			8:[f109938<0.700000048] yes=13,no=14,missing=13
				13:leaf=0.105231777
				14:leaf=-0.0452985168
		4:[f5751<0.700000048] yes=9,no=10,missing=9
			9:[f152438<0.700000048] yes=15,no=16,missing=15
				15:leaf=0.115730301
				16:leaf=0.0258598849
			10:[f152438<0.100000001] yes=17,no=18,missing=17
				17:leaf=-0.00454070512
				18:leaf=0.113084838
	2:[f2641<0.100000001] yes=5,no=6,missing=5
		5:leaf=0.298141956
		6:[f167349<0.100000001] yes=11,no=12,missing=11
			11:[f61311<0.5] yes=19,no=20,missing=19
				19:leaf=-0.381703675
				20:leaf=-0.071186848
			12:[f149871<0.100000001] yes=21,no=22,missing=21
				21:leaf=0.208098307
				22:leaf=-0.290222734
booster[68]:
0:[f131571<0.5] yes=1,no=2,missing=1
	1:[f131568<0.100000001] yes=3,no=4,missing=3
		3:[f131571<0.100000001] yes=7,no=8,missing=7
			7:[f131157<0.700000048] yes=15,no=16,missing=15
				15:leaf=-0.106174216
				16:leaf=0.339851052
			8:[f161131<0.700000048] yes=17,no=18,missing=17
				17:leaf=0.428086519
				18:leaf=-0.0160973165
		4:[f51301<0.100000001] yes=9,no=10,missing=9
			9:[f62533<0.100000001] yes=19,no=20,missing=19
				19:leaf=0.0216281749
				20:leaf=-0.185268313
			10:[f133459<0.400000006] yes=21,no=22,missing=21
				21:leaf=0.0426579192
				22:leaf=0.276595503
	2:[f168555<0.700000048] yes=5,no=6,missing=5
		5:[f66600<0.300000012] yes=11,no=12,missing=11
			11:[f53714<0.100000001] yes=23,no=24,missing=23
				23:leaf=0.184622884
				24:leaf=0.465585589
			12:[f22687<0.400000006] yes=25,no=26,missing=25
				25:leaf=-0.132396713
				26:leaf=0.191661239
		6:[f131571<0.700000048] yes=13,no=14,missing=13
			13:[f41335<0.700000048] yes=27,no=28,missing=27
				27:leaf=0.45260331
				28:leaf=-0.0826644748
			14:[f102129<0.100000001] yes=29,no=30,missing=29
				29:leaf=-0.0143634034
				30:leaf=0.154106572
booster[69]:
0:[f39571<0.700000048] yes=1,no=2,missing=1
	1:[f154502<0.700000048] yes=3,no=4,missing=3
		3:[f9684<0.400000006] yes=7,no=8,missing=7
			7:leaf=-0.425131977
			8:[f2772<0.600000024] yes=15,no=16,missing=15
				15:leaf=-0.153561026
				16:leaf=0.112681866
		4:[f133616<0.700000048] yes=9,no=10,missing=9
			9:[f133515<0.400000006] yes=17,no=18,missing=17
				17:leaf=0.0918603763
				18:leaf=-0.0030425787
			10:[f177260<0.200000003] yes=19,no=20,missing=19
				19:leaf=0.348773122
				20:leaf=-0.0376185775
	2:[f96955<0.700000048] yes=5,no=6,missing=5
		5:[f96957<0.300000012] yes=11,no=12,missing=11
			11:[f26<0.400000006] yes=21,no=22,missing=21
				21:leaf=0.15287447
				22:leaf=0.395647496
			12:[f131564<0.700000048] yes=23,no=24,missing=23
				23:leaf=0.509504855
				24:leaf=0.057250049
		6:[f127626<0.100000001] yes=13,no=14,missing=13
			13:[f118431<0.100000001] yes=25,no=26,missing=25
				25:leaf=-0.0925652832
				26:leaf=0.0176402554
			14:[f15039<0.700000048] yes=27,no=28,missing=27
				27:leaf=0.344626039
				28:leaf=-0.0881174579
booster[70]:
0:[f57849<0.700000048] yes=1,no=2,missing=1
	1:[f105229<0.700000048] yes=3,no=4,missing=3
		3:[f73854<0.700000048] yes=7,no=8,missing=7
			7:leaf=-0.203457594
			8:[f16344<0.400000006] yes=15,no=16,missing=15
				15:leaf=-0.252363414
				16:leaf=0.117213309
		4:[f134306<0.600000024] yes=9,no=10,missing=9
			9:[f134130<0.400000006] yes=17,no=18,missing=17
				17:leaf=0.141561702
				18:leaf=-0.0787844285
			10:[f137946<0.400000006] yes=19,no=20,missing=19
				19:leaf=0.0827397928
				20:leaf=0.310044706
	2:[f51301<0.100000001] yes=5,no=6,missing=5
		5:[f114697<0.700000048] yes=11,no=12,missing=11
			11:[f89154<0.700000048] yes=21,no=22,missing=21
				21:leaf=0.0596959107
				22:leaf=0.412024617
			12:[f130471<0.700000048] yes=23,no=24,missing=23
				23:leaf=0.0664708689
				24:leaf=0.00936945155
		6:[f134306<0.400000006] yes=13,no=14,missing=13
			13:[f134312<0.400000006] yes=25,no=26,missing=25
				25:leaf=0.087268427
				26:leaf=-0.0469665043
			14:[f51300<0.300000012] yes=27,no=28,missing=27
				27:leaf=0.480193734
				28:leaf=0.232036605
booster[71]:
0:[f154670<0.100000001] yes=1,no=2,missing=1
	1:[f97963<0.100000001] yes=3,no=4,missing=3
		3:[f9153<0.700000048] yes=7,no=8,missing=7
			7:leaf=-0.612554967
			8:[f32712<0.400000006] yes=15,no=16,missing=15
				15:leaf=-0.288422108
				16:leaf=-0.12223319
		4:[f96957<0.100000001] yes=9,no=10,missing=9
			9:[f51300<0.700000048] yes=17,no=18,missing=17
				17:leaf=0.195781782
				18:leaf=0.0130104823
			10:[f137862<0.400000006] yes=19,no=20,missing=19
				19:leaf=0.118431635
				20:leaf=-0.643586874
	2:[f8<0.400000006] yes=5,no=6,missing=5
		5:[f133536<0.700000048] yes=11,no=12,missing=11
			11:[f133332<0.400000006] yes=21,no=22,missing=21
				21:leaf=-0.0468502045
				22:leaf=0.0792428106
			12:[f127221<0.600000024] yes=23,no=24,missing=23
				23:leaf=0.259298176
				24:leaf=0.0539498739
		6:[f613<0.100000001] yes=13,no=14,missing=13
			13:[f40351<0.400000006] yes=25,no=26,missing=25
				25:leaf=0.00116574764
				26:leaf=-0.0892213583
			14:[f3456<0.100000001] yes=27,no=28,missing=27
				27:leaf=0.609541535
				28:leaf=0.0463525057
booster[72]:
0:[f130471<0.100000001] yes=1,no=2,missing=1
	1:[f32900<0.100000001] yes=3,no=4,missing=3
		3:[f21283<0.300000012] yes=7,no=8,missing=7
			7:[f39571<0.700000048] yes=15,no=16,missing=15
				15:leaf=0.403545022
				16:leaf=-0.0723009482
			8:leaf=0.610602617
		4:[f67903<0.300000012] yes=9,no=10,missing=9
			9:[f90837<0.600000024] yes=17,no=18,missing=17
				17:leaf=0.536694527
				18:leaf=0.147041023
			10:[f21<0.400000006] yes=19,no=20,missing=19
				19:leaf=0.0146770477
				20:leaf=0.131982446
	2:[f130471<0.700000048] yes=5,no=6,missing=5
		5:[f134335<0.400000006] yes=11,no=12,missing=11
			11:[f164887<0.700000048] yes=21,no=22,missing=21
				21:leaf=0.0630049556
				22:leaf=-0.334346354
			12:[f30501<0.100000001] yes=23,no=24,missing=23
				23:leaf=0.372205079
				24:leaf=0.213729233
		6:[f56749<0.700000048] yes=13,no=14,missing=13
			13:[f131316<0.100000001] yes=25,no=26,missing=25
				25:leaf=-0.0273648221
				26:leaf=0.327966273
			14:[f97963<0.100000001] yes=27,no=28,missing=27
				27:leaf=-0.161156908
				28:leaf=0.0131343212
booster[73]:
0:[f128847<0.700000048] yes=1,no=2,missing=1
	1:[f166845<0.700000048] yes=3,no=4,missing=3
		3:[f166845<0.100000001] yes=7,no=8,missing=7
			7:[f61309<0.700000048] yes=13,no=14,missing=13
				13:leaf=0.115715735
				14:leaf=0.0118201999
			8:[f36<0.5] yes=15,no=16,missing=15
				15:leaf=0.0524686761
				16:leaf=0.278466225
		4:[f45<0.400000006] yes=9,no=10,missing=9
			9:[f117806<0.200000003] yes=17,no=18,missing=17
				17:leaf=0.351472825
				18:leaf=0.0179444533
			10:[f159661<0.100000001] yes=19,no=20,missing=19
				19:leaf=-0.0353438184
				20:leaf=0.679832697
	2:[f140737<0.400000006] yes=5,no=6,missing=5
		5:leaf=0.47476095
		6:[f152539<0.400000006] yes=11,no=12,missing=11
			11:[f134151<0.100000001] yes=21,no=22,missing=21
				21:leaf=-0.119207628
				22:leaf=0.249654487
			12:leaf=0.352328837
booster[74]:
0:[f70086<0.100000001] yes=1,no=2,missing=1
	1:[f94485<0.100000001] yes=3,no=4,missing=3
		3:[f7719<0.400000006] yes=7,no=8,missing=7
			7:[f47498<0.400000006] yes=13,no=14,missing=13
				13:leaf=0.220895693
				14:leaf=-0.187980533
			8:leaf=0.348494828
		4:leaf=0.414707661
	2:[f130471<0.100000001] yes=5,no=6,missing=5
		5:[f67905<0.700000048] yes=9,no=10,missing=9
			9:[f133760<0.700000048] yes=15,no=16,missing=15
				15:leaf=0.0226158388
				16:leaf=0.349744529
			10:[f132729<0.100000001] yes=17,no=18,missing=17
				17:leaf=-0.0672449395
				18:leaf=0.350747526
		6:[f130471<0.700000048] yes=11,no=12,missing=11
			11:[f131318<0.100000001] yes=19,no=20,missing=19
				19:leaf=0.325814277
				20:leaf=0.0562798716
			12:[f56751<0.100000001] yes=21,no=22,missing=21
				21:leaf=0.0091121709
				22:leaf=0.251731426
booster[75]:
0:[f105231<0.100000001] yes=1,no=2,missing=1
	1:[f131571<0.5] yes=3,no=4,missing=3
		3:[f131568<0.100000001] yes=7,no=8,missing=7
			7:[f131571<0.300000012] yes=13,no=14,missing=13
				13:leaf=0.24195458
				14:leaf=0.0132187288
			8:[f97963<0.100000001] yes=15,no=16,missing=15
				15:leaf=-0.148404643
				16:leaf=0.0118946824
		4:[f131571<0.700000048] yes=9,no=10,missing=9
			9:[f168475<0.700000048] yes=17,no=18,missing=17
				17:leaf=0.18567048
				18:leaf=-0.0816759989
			10:[f166303<0.700000048] yes=19,no=20,missing=19
				19:leaf=0.0655162483
				20:leaf=-0.101479925
	2:[f37111<0.700000048] yes=5,no=6,missing=5
		5:leaf=-0.487964183
		6:[f131318<0.700000048] yes=11,no=12,missing=11
			11:[f160848<0.400000006] yes=21,no=22,missing=21
				21:leaf=0.188423589
				22:leaf=0.624422967
			12:[f105231<0.300000012] yes=23,no=24,missing=23
				23:leaf=0.199121058
				24:leaf=0.087146014
booster[76]:
0:[f13765<0.5] yes=1,no=2,missing=1
	1:[f130441<0.400000006] yes=3,no=4,missing=3
		3:[f172128<0.400000006] yes=7,no=8,missing=7
			7:[f154502<0.100000001] yes=11,no=12,missing=11
				11:leaf=0.150300145
				12:leaf=-0.176456511
			8:[f8<0.400000006] yes=13,no=14,missing=13
				13:leaf=0.231394887
				14:leaf=0.0628005862
		4:leaf=0.529296517
	2:[f117027<0.700000048] yes=5,no=6,missing=5
		5:leaf=0.674410343
		6:[f65839<0.700000048] yes=9,no=10,missing=9
			9:[f8<0.400000006] yes=15,no=16,missing=15
				15:leaf=0.0807029232
				16:leaf=0.299596906
			10:[f61311<0.700000048] yes=17,no=18,missing=17
				17:leaf=0.0211415272
				18:leaf=-0.0137279751
booster[77]:
0:[f516<0.700000048] yes=1,no=2,missing=1
	1:[f177631<0.400000006] yes=3,no=4,missing=3
		3:leaf=-0.395784885
		4:[f516<0.300000012] yes=7,no=8,missing=7
			7:[f734<0.400000006] yes=13,no=14,missing=13
				13:leaf=0.114883915
				14:leaf=0.37630102
			8:[f21<0.400000006] yes=15,no=16,missing=15
				15:leaf=0.183280677
				16:leaf=0.453760922
	2:[f114476<0.300000012] yes=5,no=6,missing=5
		5:[f4477<0.400000006] yes=9,no=10,missing=9
			9:[f19512<0.400000006] yes=17,no=18,missing=17
				17:leaf=-0.459146619
				18:leaf=-0.114945829
			10:leaf=-0.0574458241
		6:[f56751<0.700000048] yes=11,no=12,missing=11
			11:[f56749<0.700000048] yes=19,no=20,missing=19
				19:leaf=0.251808941
				20:leaf=0.00770941935
			12:[f138739<0.5] yes=21,no=22,missing=21
				21:leaf=0.584492207
				22:leaf=-0.0760868043
booster[78]:
0:[f172183<0.100000001] yes=1,no=2,missing=1
	1:[f170677<0.200000003] yes=3,no=4,missing=3
		3:[f168986<0.100000001] yes=7,no=8,missing=7
			7:[f36583<0.400000006] yes=15,no=16,missing=15
				15:leaf=-0.0420051813
				16:leaf=0.70979172
			8:[f9036<0.400000006] yes=17,no=18,missing=17
				17:leaf=0.085943222
				18:leaf=-0.157135427
		4:[f61309<0.700000048] yes=9,no=10,missing=9
			9:[f158811<0.100000001] yes=19,no=20,missing=19
				19:leaf=0.105131134
				20:leaf=-0.588835061
			10:[f21019<0.300000012] yes=21,no=22,missing=21
				21:leaf=0.496374249
				22:leaf=-0.0574680828
	2:[f39571<0.700000048] yes=5,no=6,missing=5
		5:[f154502<0.700000048] yes=11,no=12,missing=11
			11:[f166713<0.100000001] yes=23,no=24,missing=23
				23:leaf=0.0641819909
				24:leaf=-0.159305334
			12:[f67121<0.300000012] yes=25,no=26,missing=25
				25:leaf=0.298182964
				26:leaf=-0.0301408935
		6:[f129990<0.700000048] yes=13,no=14,missing=13
			13:[f129103<0.100000001] yes=27,no=28,missing=27
				27:leaf=-0.26452902
				28:leaf=-0.0343847647
			14:[f129983<0.100000001] yes=29,no=30,missing=29
				29:leaf=0.0135521479
				30:leaf=0.101652801
booster[79]:
0:[f114696<0.100000001] yes=1,no=2,missing=1
	1:[f168693<0.100000001] yes=3,no=4,missing=3
		3:[f128845<0.100000001] yes=7,no=8,missing=7
			7:[f140737<0.400000006] yes=15,no=16,missing=15
				15:leaf=0.457943201
				16:leaf=-0.0920591801
			8:[f129995<0.100000001] yes=17,no=18,missing=17
				17:leaf=0.0198287312
				18:leaf=-0.0478817634
		4:[f172183<0.700000048] yes=9,no=10,missing=9
			9:[f154502<0.700000048] yes=19,no=20,missing=19
				19:leaf=-0.6714589
				20:leaf=0.0905257091
			10:[f148543<0.100000001] yes=21,no=22,missing=21
				21:leaf=-0.109787703
				22:leaf=0.18461214
	2:[f161732<0.600000024] yes=5,no=6,missing=5
		5:[f7717<0.600000024] yes=11,no=12,missing=11
			11:leaf=-0.192139745
			12:[f5749<0.200000003] yes=23,no=24,missing=23
				23:leaf=-0.00268650055
				24:leaf=0.177658945
		6:[f30499<0.700000048] yes=13,no=14,missing=13
			13:[f131568<0.400000006] yes=25,no=26,missing=25
				25:leaf=0.275402308
				26:leaf=0.0328521132
			14:[f7922<0.600000024] yes=27,no=28,missing=27
				27:leaf=0.129919931
				28:leaf=0.529931426
booster[80]:
0:[f54948<0.300000012] yes=1,no=2,missing=1
	1:[f8<0.400000006] yes=3,no=4,missing=3
		3:leaf=0.0968027115
		4:leaf=0.68268615
	2:[f59577<0.700000048] yes=5,no=6,missing=5
		5:[f5210<0.100000001] yes=7,no=8,missing=7
			7:[f164101<0.700000048] yes=11,no=12,missing=11
				11:leaf=0.0134316552
				12:leaf=-0.053884808
			8:[f160969<0.5] yes=13,no=14,missing=13
				13:leaf=0.0768250525
				14:leaf=0.561934888
		6:[f134439<0.600000024] yes=9,no=10,missing=9
			9:[f11144<0.700000048] yes=15,no=16,missing=15
				15:leaf=-0.024934411
				16:leaf=0.196220458
			10:[f94483<0.700000048] yes=17,no=18,missing=17
				17:leaf=0.400521278
				18:leaf=-0.147921354
booster[81]:
0:[f119296<0.100000001] yes=1,no=2,missing=1
	1:[f129540<0.100000001] yes=3,no=4,missing=3
		3:[f155701<0.700000048] yes=7,no=8,missing=7
			7:[f155702<0.700000048] yes=13,no=14,missing=13
				13:leaf=0.253818423
				14:leaf=0.00631400663
			8:[f164100<0.100000001] yes=15,no=16,missing=15
				15:leaf=-0.0758337528
				16:leaf=0.253288239
		4:leaf=-0.675526798
	2:[f8<0.400000006] yes=5,no=6,missing=5
		5:[f41648<0.5] yes=9,no=10,missing=9
			9:[f67125<0.5] yes=17,no=18,missing=17
				17:leaf=0.0854106322
				18:leaf=-0.141739443
			10:[f119816<0.100000001] yes=19,no=20,missing=19
				19:leaf=0.132823974
				20:leaf=-0.115266241
		6:[f68481<0.100000001] yes=11,no=12,missing=11
			11:[f162002<0.400000006] yes=21,no=22,missing=21
				21:leaf=0.0501513481
				22:leaf=0.459107369
			12:[f164100<0.700000048] yes=23,no=24,missing=23
				23:leaf=0.176171854
				24:leaf=0.0391083062
booster[82]:
0:[f618<0.300000012] yes=1,no=2,missing=1
	1:[f168475<0.700000048] yes=3,no=4,missing=3
		3:[f89154<0.700000048] yes=7,no=8,missing=7
			7:[f166303<0.100000001] yes=13,no=14,missing=13
				13:leaf=-0.106047839
				14:leaf=0.205457956
			8:[f141315<0.400000006] yes=15,no=16,missing=15
				15:leaf=0.251943648
				16:leaf=-0.0170501601
		4:[f131571<0.5] yes=9,no=10,missing=9
			9:[f131568<0.100000001] yes=17,no=18,missing=17
				17:leaf=0.149303079
				18:leaf=0.00749296555
			10:[f131571<0.700000048] yes=19,no=20,missing=19
				19:leaf=-0.0736563429
				20:leaf=0.0430889204
	2:[f120459<0.400000006] yes=5,no=6,missing=5
		5:leaf=-0.552824855
		6:[f4405<0.400000006] yes=11,no=12,missing=11
			11:leaf=0.126537845
			12:[f18902<0.400000006] yes=21,no=22,missing=21
				21:leaf=0.190428019
				22:leaf=-0.194908336
booster[83]:
0:[f65839<0.700000048] yes=1,no=2,missing=1
	1:[f133839<0.400000006] yes=3,no=4,missing=3
		3:[f172273<0.5] yes=7,no=8,missing=7
			7:[f175489<0.400000006] yes=15,no=16,missing=15
				15:leaf=0.124168515
				16:leaf=-0.0306880474
			8:[f172921<0.700000048] yes=17,no=18,missing=17
				17:leaf=-0.348472685
				18:leaf=-0.0820233747
		4:[f65894<0.400000006] yes=9,no=10,missing=9
			9:[f24482<0.400000006] yes=19,no=20,missing=19
				19:leaf=-0.305373549
				20:leaf=-0.0270459279
			10:[f8<0.400000006] yes=21,no=22,missing=21
				21:leaf=0.157715127
				22:leaf=0.281534642
	2:[f114697<0.700000048] yes=5,no=6,missing=5
		5:[f161732<0.600000024] yes=11,no=12,missing=11
			11:[f89154<0.5] yes=23,no=24,missing=23
				23:leaf=0.187020704
				24:leaf=-0.056395378
			12:[f46951<0.300000012] yes=25,no=26,missing=25
				25:leaf=-0.0293672085
				26:leaf=0.346323133
		6:[f132897<0.700000048] yes=13,no=14,missing=13
			13:[f128845<0.100000001] yes=27,no=28,missing=27
				27:leaf=-0.0912290588
				28:leaf=0.00870462414
			14:[f127221<0.700000048] yes=29,no=30,missing=29
				29:leaf=-0.550171793
				30:leaf=-0.123162031
booster[84]:
0:[f97965<0.700000048] yes=1,no=2,missing=1
	1:[f119293<0.700000048] yes=3,no=4,missing=3
		3:[f121603<0.400000006] yes=7,no=8,missing=7
			7:[f5751<0.100000001] yes=13,no=14,missing=13
				13:leaf=-0.440658152
				14:leaf=0.0826795101
			8:[f172346<0.5] yes=15,no=16,missing=15
				15:leaf=0.251148045
				16:leaf=0.0919627324
		4:[f162333<0.700000048] yes=9,no=10,missing=9
			9:[f152438<0.5] yes=17,no=18,missing=17
				17:leaf=0.334488362
				18:leaf=0.110345758
			10:[f161730<0.700000048] yes=19,no=20,missing=19
				19:leaf=0.00728835072
				20:leaf=-0.142056629
	2:[f40513<0.400000006] yes=5,no=6,missing=5
		5:[f9151<0.100000001] yes=11,no=12,missing=11
			11:[f32712<0.400000006] yes=21,no=22,missing=21
				21:leaf=-0.270669609
				22:leaf=-0.13100493
			12:leaf=-0.587461054
		6:leaf=0.292361557
booster[85]:
0:[f172381<0.5] yes=1,no=2,missing=1
	1:[f17029<0.400000006] yes=3,no=4,missing=3
		3:[f163899<0.400000006] yes=7,no=8,missing=7
			7:[f8<0.400000006] yes=15,no=16,missing=15
				15:leaf=0.254583657
				16:leaf=-0.0664388537
			8:leaf=0.489498675
		4:[f175867<0.100000001] yes=9,no=10,missing=9
			9:[f17503<0.400000006] yes=17,no=18,missing=17
				17:leaf=0.500377178
				18:leaf=-0.10632351
			10:leaf=0.517182231
	2:[f109938<0.100000001] yes=5,no=6,missing=5
		5:[f154503<0.700000048] yes=11,no=12,missing=11
			11:[f134379<0.100000001] yes=19,no=20,missing=19
				19:leaf=0.132179111
				20:leaf=-0.0512778535
			12:[f167589<0.600000024] yes=21,no=22,missing=21
				21:leaf=0.243567556
				22:leaf=-0.0312703438
		6:[f152439<0.100000001] yes=13,no=14,missing=13
			13:[f131318<0.100000001] yes=23,no=24,missing=23
				23:leaf=0.030794831
				24:leaf=-0.0176656265
			14:[f172413<0.700000048] yes=25,no=26,missing=25
				25:leaf=0.0553606823
				26:leaf=-0.107384853
booster[86]:
0:[f13088<0.700000048] yes=1,no=2,missing=1
	1:[f122725<0.700000048] yes=3,no=4,missing=3
		3:leaf=0.517411828
		4:[f105229<0.5] yes=7,no=8,missing=7
			7:[f63151<0.200000003] yes=13,no=14,missing=13
				13:leaf=0.179935023
				14:leaf=0.0320926495
			8:[f134853<0.400000006] yes=15,no=16,missing=15
				15:leaf=0.058704108
				16:leaf=0.275428474
	2:[f154670<0.100000001] yes=5,no=6,missing=5
		5:[f118431<0.5] yes=9,no=10,missing=9
			9:[f155180<0.600000024] yes=17,no=18,missing=17
				17:leaf=0.523619831
				18:leaf=-0.101994686
			10:[f71713<0.100000001] yes=19,no=20,missing=19
				19:leaf=-0.256230712
				20:leaf=0.00629394734
		6:[f15039<0.700000048] yes=11,no=12,missing=11
			11:[f8<0.400000006] yes=21,no=22,missing=21
				21:leaf=0.187846571
				22:leaf=0.526852727
			12:[f8<0.400000006] yes=23,no=24,missing=23
				23:leaf=0.206753492
				24:leaf=-0.163098365
booster[87]:
0:[f132588<0.100000001] yes=1,no=2,missing=1
	1:[f130473<0.700000048] yes=3,no=4,missing=3
		3:[f130473<0.100000001] yes=7,no=8,missing=7
			7:[f56749<0.700000048] yes=15,no=16,missing=15
				15:leaf=0.21251069
				16:leaf=0.00472798757
			8:[f134166<0.700000048] yes=17,no=18,missing=17
				17:leaf=-0.0845651031
				18:leaf=0.212719113
		4:[f68481<0.100000001] yes=9,no=10,missing=9
			9:[f82248<0.400000006] yes=19,no=20,missing=19
				19:leaf=0.5401299
				20:leaf=-0.06467738
			10:[f42139<0.100000001] yes=21,no=22,missing=21
				21:leaf=0.422620267
				22:leaf=0.0513901003
	2:[f172183<0.700000048] yes=5,no=6,missing=5
		5:[f51619<0.200000003] yes=11,no=12,missing=11
			11:leaf=0.298748106
			12:leaf=-0.228969768
		6:[f133452<0.5] yes=13,no=14,missing=13
			13:[f112363<0.400000006] yes=23,no=24,missing=23
				23:leaf=-0.071893394
				24:leaf=-0.670313418
			14:leaf=0.0841417313
booster[88]:
0:[f142578<0.600000024] yes=1,no=2,missing=1
	1:[f2472<0.700000048] yes=3,no=4,missing=3
		3:leaf=0.174413383
		4:leaf=0.641044021
	2:[f145153<0.700000048] yes=5,no=6,missing=5
		5:[f39571<0.700000048] yes=7,no=8,missing=7
			7:[f154503<0.100000001] yes=11,no=12,missing=11
				11:leaf=0.223437026
				12:leaf=0.0248437617
			8:[f129127<0.700000048] yes=13,no=14,missing=13
				13:leaf=0.0977302119
				14:leaf=0.00406018598
		6:[f14979<0.5] yes=9,no=10,missing=9
			9:[f172128<0.400000006] yes=15,no=16,missing=15
				15:leaf=-0.171106845
				16:leaf=0.227611586
			10:[f4945<0.600000024] yes=17,no=18,missing=17
				17:leaf=-0.0377025604
				18:leaf=0.265773982
booster[89]:
0:[f119293<0.700000048] yes=1,no=2,missing=1
	1:[f119293<0.100000001] yes=3,no=4,missing=3
		3:[f618<0.200000003] yes=7,no=8,missing=7
			7:[f88370<0.5] yes=15,no=16,missing=15
				15:leaf=0.406458616
				16:leaf=0.00282252347
			8:leaf=-0.530903161
		4:[f21<0.400000006] yes=9,no=10,missing=9
			9:[f172381<0.5] yes=17,no=18,missing=17
				17:leaf=-0.167634457
				18:leaf=0.138491482
			10:[f68479<0.700000048] yes=19,no=20,missing=19
				19:leaf=0.0464855768
				20:leaf=0.39034003
	2:[f137220<0.5] yes=5,no=6,missing=5
		5:[f129995<0.100000001] yes=11,no=12,missing=11
			11:[f172344<0.100000001] yes=21,no=22,missing=21
				21:leaf=0.00237123156
				22:leaf=0.0467581376
			12:[f165193<0.5] yes=23,no=24,missing=23
				23:leaf=0.451959461
				24:leaf=-0.0620543547
		6:[f42141<0.700000048] yes=13,no=14,missing=13
			13:[f136645<0.400000006] yes=25,no=26,missing=25
				25:leaf=0.292270541
				26:leaf=-0.154629841
			14:leaf=0.42646423
booster[90]:
0:[f29460<0.100000001] yes=1,no=2,missing=1
	1:[f133470<0.600000024] yes=3,no=4,missing=3
		3:[f3212<0.400000006] yes=7,no=8,missing=7
			7:leaf=0.044837594
			8:leaf=0.278710574
		4:[f53473<0.400000006] yes=9,no=10,missing=9
			9:[f161917<0.400000006] yes=15,no=16,missing=15
				15:leaf=0.00212663412
				16:leaf=-0.451629788
			10:leaf=0.0313748717
	2:[f176160<0.700000048] yes=5,no=6,missing=5
		5:[f133365<0.400000006] yes=11,no=12,missing=11
			11:leaf=0.0477228165
			12:[f35635<0.600000024] yes=17,no=18,missing=17
				17:leaf=0.169771075
				18:leaf=0.574766457
		6:[f172381<0.100000001] yes=13,no=14,missing=13
			13:[f166843<0.700000048] yes=19,no=20,missing=19
				19:leaf=0.00350384251
				20:leaf=-0.123656042
			14:[f109940<0.700000048] yes=21,no=22,missing=21
				21:leaf=0.0141198132
				22:leaf=-0.0215829462
booster[91]:
0:[f164661<0.100000001] yes=1,no=2,missing=1
	1:[f65839<0.700000048] yes=3,no=4,missing=3
		3:[f133346<0.5] yes=7,no=8,missing=7
			7:[f65841<0.100000001] yes=15,no=16,missing=15
				15:leaf=0.189864472
				16:leaf=-0.0365839452
			8:[f154502<0.300000012] yes=17,no=18,missing=17
				17:leaf=-0.488926977
				18:leaf=-0.0187995508
		4:[f118429<0.300000012] yes=9,no=10,missing=9
			9:[f46730<0.700000048] yes=19,no=20,missing=19
				19:leaf=0.349284261
				20:leaf=0.00218039798
			10:[f172344<0.5] yes=21,no=22,missing=21
				21:leaf=0.134030789
				22:leaf=-0.112841755
	2:[f5751<0.300000012] yes=5,no=6,missing=5
		5:[f76677<0.400000006] yes=11,no=12,missing=11
			11:[f92102<0.700000048] yes=23,no=24,missing=23
				23:leaf=0.319623053
				24:leaf=0.0880911201
			12:leaf=-0.228315249
		6:[f36<0.400000006] yes=13,no=14,missing=13
			13:[f109938<0.5] yes=25,no=26,missing=25
				25:leaf=0.262347788
				26:leaf=0.0907441825
			14:[f656<0.5] yes=27,no=28,missing=27
				27:leaf=0.0302363634
				28:leaf=0.431381941
booster[92]:
0:[f121002<0.100000001] yes=1,no=2,missing=1
	1:[f127221<0.100000001] yes=3,no=4,missing=3
		3:[f137667<0.400000006] yes=7,no=8,missing=7
			7:[f18373<0.200000003] yes=15,no=16,missing=15
				15:leaf=-0.0618763939
				16:leaf=0.449780852
			8:leaf=0.770103037
		4:[f133417<0.400000006] yes=9,no=10,missing=9
			9:[f2940<0.200000003] yes=17,no=18,missing=17
				17:leaf=0.0458865687
				18:leaf=-0.415650725
			10:[f158984<0.700000048] yes=19,no=20,missing=19
				19:leaf=-0.0350259952
				20:leaf=0.243994042
	2:[f172185<0.100000001] yes=5,no=6,missing=5
		5:[f5210<0.100000001] yes=11,no=12,missing=11
			11:[f117027<0.700000048] yes=21,no=22,missing=21
				21:leaf=0.618465066
				22:leaf=0.00204582117
			12:[f160879<0.700000048] yes=23,no=24,missing=23
				23:leaf=0.184457332
				24:leaf=0.575127959
		6:[f168690<0.700000048] yes=13,no=14,missing=13
			13:[f12055<0.700000048] yes=25,no=26,missing=25
				25:leaf=-0.70900631
				26:leaf=-0.122634619
			14:[f4923<0.700000048] yes=27,no=28,missing=27
				27:leaf=-0.560504019
				28:leaf=0.0768076107
booster[93]:
0:[f144307<0.100000001] yes=1,no=2,missing=1
	1:[f130471<0.700000048] yes=3,no=4,missing=3
		3:leaf=0.337358803
		4:[f42139<0.100000001] yes=7,no=8,missing=7
			7:[f20461<0.400000006] yes=13,no=14,missing=13
				13:leaf=0.434816837
				14:leaf=-0.143474236
			8:[f30499<0.700000048] yes=15,no=16,missing=15
				15:leaf=-0.0168472528
				16:leaf=0.470337063
	2:[f102812<0.100000001] yes=5,no=6,missing=5
		5:[f131571<0.5] yes=9,no=10,missing=9
			9:[f131318<0.100000001] yes=17,no=18,missing=17
				17:leaf=0.0605648495
				18:leaf=0.00241980865
			10:[f168577<0.100000001] yes=19,no=20,missing=19
				19:leaf=-0.0498095602
				20:leaf=0.227596581
		6:[f67386<0.100000001] yes=11,no=12,missing=11
			11:[f161898<0.400000006] yes=21,no=22,missing=21
				21:leaf=0.00699567795
				22:leaf=0.495302647
			12:[f67903<0.100000001] yes=23,no=24,missing=23
				23:leaf=0.249532491
				24:leaf=-0.0416224711
booster[94]:
0:[f39571<0.700000048] yes=1,no=2,missing=1
	1:[f154502<0.700000048] yes=3,no=4,missing=3
		3:[f47892<0.700000048] yes=7,no=8,missing=7
			7:[f104262<0.300000012] yes=15,no=16,missing=15
				15:leaf=0.0554710329
				16:leaf=-0.123177469
			8:leaf=-0.149684981
		4:[f12331<0.400000006] yes=9,no=10,missing=9
			9:[f13224<0.400000006] yes=17,no=18,missing=17
				17:leaf=-0.207119405
				18:leaf=0.0587229729
			10:[f8<0.400000006] yes=19,no=20,missing=19
				19:leaf=0.161013514
				20:leaf=0.322374225
	2:[f102555<0.100000001] yes=5,no=6,missing=5
		5:[f13088<0.700000048] yes=11,no=12,missing=11
			11:[f39<0.5] yes=21,no=22,missing=21
				21:leaf=0.168546915
				22:leaf=0.0507683083
			12:[f75582<0.700000048] yes=23,no=24,missing=23
				23:leaf=0.442186654
				24:leaf=-0.000166731101
		6:[f134251<0.700000048] yes=13,no=14,missing=13
			13:[f152438<0.100000001] yes=25,no=26,missing=25
				25:leaf=0.0091206627
				26:leaf=0.167358011
			14:[f11859<0.700000048] yes=27,no=28,missing=27
				27:leaf=-0.00257503986
				28:leaf=0.308346927
booster[95]:
0:[f177258<0.100000001] yes=1,no=2,missing=1
	1:[f130473<0.100000001] yes=3,no=4,missing=3
		3:[f35185<0.100000001] yes=7,no=8,missing=7
			7:[f155725<0.400000006] yes=15,no=16,missing=15
				15:leaf=0.369916439
				16:leaf=-0.114146851
			8:leaf=0.563294411
		4:[f83480<0.700000048] yes=9,no=10,missing=9
			9:[f65839<0.700000048] yes=17,no=18,missing=17
				17:leaf=0.0636665821
				18:leaf=0.382410377
			10:[f9804<0.200000003] yes=19,no=20,missing=19
				19:leaf=0.0948699266
				20:leaf=-0.0180690289
	2:[f177258<0.700000048] yes=5,no=6,missing=5
		5:[f13765<0.700000048] yes=11,no=12,missing=11
			11:leaf=-0.47806403
			12:[f77509<0.700000048] yes=21,no=22,missing=21
				21:leaf=0.0750910714
				22:leaf=0.341884643
		6:[f83480<0.100000001] yes=13,no=14,missing=13
			13:[f131571<0.5] yes=23,no=24,missing=23
				23:leaf=0.00759674702
				24:leaf=-0.0497033484
			14:[f44563<0.700000048] yes=25,no=26,missing=25
				25:leaf=0.0748083964
				26:leaf=0.274466753
booster[96]:
0:[f62533<0.100000001] yes=1,no=2,missing=1
	1:[f127626<0.100000001] yes=3,no=4,missing=3
		3:[f128847<0.700000048] yes=7,no=8,missing=7
			7:[f3374<0.5] yes=15,no=16,missing=15
				15:leaf=0.141408846
				16:leaf=0.00515702739
			8:[f64603<0.400000006] yes=17,no=18,missing=17
				17:leaf=0.366021186
				18:leaf=-0.0982799754
		4:[f15039<0.700000048] yes=9,no=10,missing=9
			9:[f8<0.400000006] yes=19,no=20,missing=19
				19:leaf=0.164236516
				20:leaf=0.476445109
			10:[f40351<0.400000006] yes=21,no=22,missing=21
				21:leaf=-0.00846093893
				22:leaf=-0.136127412
	2:[f168207<0.5] yes=5,no=6,missing=5
		5:[f74952<0.100000001] yes=11,no=12,missing=11
			11:[f78128<0.700000048] yes=23,no=24,missing=23
				23:leaf=-0.408679068
				24:leaf=-0.0724989697
			12:leaf=-0.629862547
		6:[f1995<0.5] yes=13,no=14,missing=13
			13:leaf=-0.142650247
			14:leaf=-0.595449746
booster[97]:
0:[f129540<0.100000001] yes=1,no=2,missing=1
	1:[f57849<0.700000048] yes=3,no=4,missing=3
		3:[f13086<0.100000001] yes=5,no=6,missing=5
			5:[f134696<0.700000048] yes=9,no=10,missing=9
				9:leaf=0.0880350098
				10:leaf=0.266262144
			6:[f152185<0.100000001] yes=11,no=12,missing=11
				11:leaf=0.330698371
				12:leaf=0.049454771
		4:[f175231<0.100000001] yes=7,no=8,missing=7
			7:[f41119<0.300000012] yes=13,no=14,missing=13
				13:leaf=-0.138824821
				14:leaf=0.225958586
			8:[f3374<0.700000048] yes=15,no=16,missing=15
				15:leaf=0.127685115
				16:leaf=-0.00174333202
	2:leaf=-0.633791268
booster[98]:
0:[f96955<0.700000048] yes=1,no=2,missing=1
	1:[f96957<0.300000012] yes=3,no=4,missing=3
		3:[f133560<0.200000003] yes=7,no=8,missing=7
			7:[f134658<0.400000006] yes=15,no=16,missing=15
				15:leaf=0.106436566
				16:leaf=-0.00792912673
			8:[f8<0.400000006] yes=17,no=18,missing=17
				17:leaf=0.168464944
				18:leaf=0.436677158
		4:[f824<0.100000001] yes=9,no=10,missing=9
