booster[0]:
0:[f45<0.400000006] yes=1,no=2,missing=1
	1:[f133938<0.700000048] yes=3,no=4,missing=3
		3:[f4968<0.700000048] yes=7,no=8,missing=7
			7:leaf=0.708333313
			8:[f132588<0.200000003] yes=15,no=16,missing=15
				15:leaf=2.14929199
				16:leaf=1.06375003
		4:[f129739<0.400000006] yes=9,no=10,missing=9
			9:[f37269<0.400000006] yes=17,no=18,missing=17
				17:leaf=1.83199167
				18:leaf=0.400000006
			10:leaf=0.627083361
	2:[f89154<0.700000048] yes=5,no=6,missing=5
		5:[f67119<0.100000001] yes=11,no=12,missing=11
			11:[f2486<0.700000048] yes=19,no=20,missing=19
				19:leaf=0.741666675
				20:leaf=1.89431453
			12:[f89154<0.5] yes=21,no=22,missing=21
				21:leaf=1.74556446
				22:leaf=1.42752659
		6:[f67137<0.100000001] yes=13,no=14,missing=13
			13:[f76986<0.200000003] yes=23,no=24,missing=23
				23:leaf=2.1399374
				24:leaf=0.449999988
			14:[f169244<0.200000003] yes=25,no=26,missing=25
				25:leaf=2.0162828
				26:leaf=1.34382105
booster[1]:
0:[f36<0.400000006] yes=1,no=2,missing=1
	1:[f134359<0.700000048] yes=3,no=4,missing=3
		3:[f129717<0.400000006] yes=7,no=8,missing=7
			7:[f4968<0.700000048] yes=15,no=16,missing=15
				15:leaf=0.678819418
				16:leaf=2.02532744
			8:leaf=0.562992156
		4:[f172185<0.100000001] yes=9,no=10,missing=9
			9:[f2695<0.400000006] yes=17,no=18,missing=17
				17:leaf=1.68208277
				18:leaf=0.387500018
			10:[f48235<0.100000001] yes=19,no=20,missing=19
				19:leaf=1.49569881
				20:leaf=1.90521181
	2:[f89154<0.700000048] yes=5,no=6,missing=5
		5:[f67140<0.100000001] yes=11,no=12,missing=11
			11:[f28753<0.600000024] yes=21,no=22,missing=21
				21:leaf=0.490802675
				22:leaf=1.92906046
			12:[f177<0.600000024] yes=23,no=24,missing=23
				23:leaf=0.440802664
				24:leaf=1.68018115
		6:[f67137<0.200000003] yes=13,no=14,missing=13
			13:[f77895<0.400000006] yes=25,no=26,missing=25
				25:leaf=2.02377462
				26:leaf=0.669169247
			14:[f133413<0.400000006] yes=27,no=28,missing=27
				27:leaf=1.98999286
				28:leaf=1.25631309
booster[2]:
0:[f8<0.600000024] yes=1,no=2,missing=1
	1:[f134034<0.600000024] yes=3,no=4,missing=3
		3:[f51619<0.400000006] yes=7,no=8,missing=7
			7:[f125955<0.600000024] yes=15,no=16,missing=15
				15:leaf=0.357043147
				16:leaf=1.90260875
			8:leaf=0.609089673
		4:[f129702<0.400000006] yes=9,no=10,missing=9
			9:[f35454<0.400000006] yes=17,no=18,missing=17
				17:leaf=0.343310177
				18:leaf=1.60668731
			10:leaf=0.55418247
	2:[f89154<0.700000048] yes=5,no=6,missing=5
		5:[f169239<0.300000012] yes=11,no=12,missing=11
			11:[f2054<0.700000048] yes=19,no=20,missing=19
				19:leaf=0.468019515
				20:leaf=1.75547004
			12:[f78174<0.400000006] yes=21,no=22,missing=21
				21:leaf=1.54898989
				22:leaf=0.598758101
		6:[f67137<0.100000001] yes=13,no=14,missing=13
			13:[f77175<0.200000003] yes=23,no=24,missing=23
				23:leaf=1.89142203
				24:leaf=0.683646977
			14:[f133922<0.400000006] yes=25,no=26,missing=25
				25:leaf=1.96020675
				26:leaf=1.17707288
booster[3]:
0:[f8<0.600000024] yes=1,no=2,missing=1
	1:[f133398<0.400000006] yes=3,no=4,missing=3
		3:[f131568<0.200000003] yes=7,no=8,missing=7
			7:leaf=0.635070801
			8:[f132588<0.300000012] yes=15,no=16,missing=15
				15:leaf=1.78228259
				16:leaf=0.701952219
		4:[f109940<0.700000048] yes=9,no=10,missing=9
			9:[f127219<0.700000048] yes=17,no=18,missing=17
				17:leaf=1.77962339
				18:leaf=1.46672583
			10:[f177560<0.200000003] yes=19,no=20,missing=19
				19:leaf=1.41745949
				20:leaf=0.48663494
	2:[f89154<0.700000048] yes=5,no=6,missing=5
		5:[f169280<0.300000012] yes=11,no=12,missing=11
			11:[f77756<0.100000001] yes=21,no=22,missing=21
				21:leaf=1.71277666
				22:leaf=0.580110192
			12:[f89154<0.5] yes=23,no=24,missing=23
				23:leaf=1.51648307
				24:leaf=1.32384205
		6:[f169244<0.200000003] yes=13,no=14,missing=13
			13:[f169261<0.600000024] yes=25,no=26,missing=25
				25:leaf=1.80986893
				26:leaf=0.547930479
			14:[f133398<0.700000048] yes=27,no=28,missing=27
				27:leaf=1.78497922
				28:leaf=1.10554516
booster[4]:
0:[f8<0.600000024] yes=1,no=2,missing=1
	1:[f134468<0.400000006] yes=3,no=4,missing=3
		3:[f30499<0.5] yes=7,no=8,missing=7
			7:leaf=0.44496426
			8:[f51619<0.700000048] yes=15,no=16,missing=15
				15:leaf=1.69270229
				16:leaf=0.531956017
		4:[f102128<0.100000001] yes=9,no=10,missing=9
			9:leaf=0.794207573
			10:[f35454<0.400000006] yes=17,no=18,missing=17
				17:leaf=0.28828612
				18:leaf=1.41674173
	2:[f89154<0.700000048] yes=5,no=6,missing=5
		5:[f169280<0.300000012] yes=11,no=12,missing=11
			11:[f2453<0.100000001] yes=19,no=20,missing=19
				19:leaf=1.6106981
				20:leaf=0.642542124
			12:[f89154<0.300000012] yes=21,no=22,missing=21
				21:leaf=1.49320924
				22:leaf=1.30291998
		6:[f67137<0.100000001] yes=13,no=14,missing=13
			13:[f77175<0.200000003] yes=23,no=24,missing=23
				23:leaf=1.69516218
				24:leaf=0.425716877
			14:[f169244<0.200000003] yes=25,no=26,missing=25
				25:leaf=1.63379037
				26:leaf=1.02883458
booster[5]:
0:[f8<0.600000024] yes=1,no=2,missing=1
	1:[f134359<0.400000006] yes=3,no=4,missing=3
		3:[f4968<0.700000048] yes=7,no=8,missing=7
			7:leaf=0.548527479
			8:[f108<0.400000006] yes=15,no=16,missing=15
				15:leaf=1.56840813
				16:leaf=0.220243335
		4:[f103413<0.200000003] yes=9,no=10,missing=9
			9:[f154503<0.700000048] yes=17,no=18,missing=17
				17:leaf=1.36672461
				18:leaf=1.24678326
			10:leaf=0.389547497
	2:[f89154<0.700000048] yes=5,no=6,missing=5
		5:[f67140<0.100000001] yes=11,no=12,missing=11
			11:[f28753<0.600000024] yes=19,no=20,missing=19
				19:leaf=0.38829115
				20:leaf=1.54125953
			12:[f89154<0.300000012] yes=21,no=22,missing=21
				21:leaf=1.39730573
				22:leaf=1.2257266
		6:[f67137<0.5] yes=13,no=14,missing=13
			13:[f77463<0.400000006] yes=23,no=24,missing=23
				23:leaf=1.52523255
				24:leaf=0.404586345
			14:[f134696<0.700000048] yes=25,no=26,missing=25
				25:leaf=1.59981894
				26:leaf=0.968721032
booster[6]:
0:[f45<0.400000006] yes=1,no=2,missing=1
	1:[f133339<0.200000003] yes=3,no=4,missing=3
		3:[f90013<0.700000048] yes=7,no=8,missing=7
			7:leaf=0.146230549
			8:[f136574<0.100000001] yes=15,no=16,missing=15
				15:leaf=1.45645046
				16:leaf=0.146230549
		4:[f172183<0.700000048] yes=9,no=10,missing=9
			9:[f54618<0.100000001] yes=17,no=18,missing=17
				17:leaf=1.0811857
				18:leaf=1.41199124
			10:[f30499<0.300000012] yes=19,no=20,missing=19
				19:leaf=0.497831523
				20:leaf=1.20780933
	2:[f89154<0.700000048] yes=5,no=6,missing=5
		5:[f67119<0.100000001] yes=11,no=12,missing=11
			11:[f2054<0.700000048] yes=21,no=22,missing=21
				21:leaf=0.368053079
				22:leaf=1.29392648
			12:[f89154<0.5] yes=23,no=24,missing=23
				23:leaf=1.16465795
				24:leaf=0.911604702
		6:[f67137<0.200000003] yes=13,no=14,missing=13
			13:[f40713<0.400000006] yes=25,no=26,missing=25
				25:leaf=0.379775167
				26:leaf=1.47458804
			14:[f134053<0.400000006] yes=27,no=28,missing=27
				27:leaf=1.4998287
				28:leaf=0.916354716
booster[7]:
0:[f45<0.400000006] yes=1,no=2,missing=1
	1:[f134457<0.400000006] yes=3,no=4,missing=3
		3:[f132588<0.300000012] yes=7,no=8,missing=7
			7:[f30518<0.400000006] yes=15,no=16,missing=15
				15:leaf=0.125716507
				16:leaf=1.38836372
			8:leaf=0.306913882
		4:[f131316<0.200000003] yes=9,no=10,missing=9
			9:[f2695<0.400000006] yes=17,no=18,missing=17
				17:leaf=1.1839962
				18:leaf=0.159906834
			10:[f168552<0.100000001] yes=19,no=20,missing=19
				19:leaf=0.876740396
				20:leaf=0.342517167
	2:[f89154<0.700000048] yes=5,no=6,missing=5
		5:[f89154<0.300000012] yes=11,no=12,missing=11
			11:[f2054<0.700000048] yes=21,no=22,missing=21
				21:leaf=0.352717519
				22:leaf=1.29479492
			12:[f131366<0.300000012] yes=23,no=24,missing=23
				23:leaf=1.18032885
				24:leaf=0.982624829
		6:[f169244<0.200000003] yes=13,no=14,missing=13
			13:[f169268<0.5] yes=25,no=26,missing=25
				25:leaf=1.4672277
				26:leaf=0.66871202
			14:[f67125<0.100000001] yes=27,no=28,missing=27
				27:leaf=1.27700961
				28:leaf=0.849591792
booster[8]:
0:[f8<0.600000024] yes=1,no=2,missing=1
	1:[f133339<0.200000003] yes=3,no=4,missing=3
		3:[f129717<0.400000006] yes=7,no=8,missing=7
			7:[f136574<0.100000001] yes=15,no=16,missing=15
				15:leaf=1.28753436
				16:leaf=0.0982744694
			8:leaf=0.259256542
		4:[f177560<0.200000003] yes=9,no=10,missing=9
			9:[f85224<0.200000003] yes=17,no=18,missing=17
				17:leaf=1.08185256
				18:leaf=0.133953333
			10:leaf=0.255719692
	2:[f89154<0.700000048] yes=5,no=6,missing=5
		5:[f169280<0.300000012] yes=11,no=12,missing=11
			11:[f2450<0.600000024] yes=19,no=20,missing=19
				19:leaf=0.34154883
				20:leaf=1.2624526
			12:[f89154<0.300000012] yes=21,no=22,missing=21
				21:leaf=1.15105712
				22:leaf=0.996878326
		6:[f67129<0.200000003] yes=13,no=14,missing=13
			13:[f78062<0.400000006] yes=23,no=24,missing=23
				23:leaf=1.29400492
				24:leaf=0.290887743
			14:[f133398<0.400000006] yes=25,no=26,missing=25
				25:leaf=1.36879098
				26:leaf=0.797496498
booster[9]:
0:[f8<0.600000024] yes=1,no=2,missing=1
	1:[f134359<0.700000048] yes=3,no=4,missing=3
		3:[f151873<0.100000001] yes=7,no=8,missing=7
			7:[f53311<0.300000012] yes=15,no=16,missing=15
				15:leaf=0.645129681
				16:leaf=0.23710449
			8:[f132588<0.300000012] yes=17,no=18,missing=17
				17:leaf=1.21454966
				18:leaf=0.197681308
		4:[f172185<0.100000001] yes=9,no=10,missing=9
			9:[f11966<0.400000006] yes=19,no=20,missing=19
				19:leaf=0.387479752
				20:leaf=0.984643102
			10:[f54618<0.100000001] yes=21,no=22,missing=21
				21:leaf=0.881043017
				22:leaf=1.18115318
	2:[f89154<0.700000048] yes=5,no=6,missing=5
		5:[f67140<0.100000001] yes=11,no=12,missing=11
			11:[f38477<0.300000012] yes=23,no=24,missing=23
				23:leaf=1.21304154
				24:leaf=0.638512313
			12:[f169279<0.200000003] yes=25,no=26,missing=25
				25:leaf=0.988556921
				26:leaf=0.271757245
		6:[f67137<0.100000001] yes=13,no=14,missing=13
			13:[f77175<0.200000003] yes=27,no=28,missing=27
				27:leaf=1.22623396
				28:leaf=0.351253629
			14:[f133398<0.700000048] yes=29,no=30,missing=29
				29:leaf=1.32475674
				30:leaf=0.745384812
booster[10]:
0:[f45<0.400000006] yes=1,no=2,missing=1
	1:[f133339<0.300000012] yes=3,no=4,missing=3
		3:[f131568<0.600000024] yes=7,no=8,missing=7
			7:leaf=0.353188336
			8:[f4968<0.700000048] yes=15,no=16,missing=15
				15:leaf=0.272179365
				16:leaf=1.14282155
		4:[f56749<0.700000048] yes=9,no=10,missing=9
			9:[f131570<0.100000001] yes=17,no=18,missing=17
				17:leaf=0.172366127
				18:leaf=0.527549922
			10:[f169891<0.100000001] yes=19,no=20,missing=19
				19:leaf=0.891578794
				20:leaf=0.993946433
	2:[f67137<0.5] yes=5,no=6,missing=5
		5:[f129239<0.100000001] yes=11,no=12,missing=11
			11:[f40713<0.400000006] yes=21,no=22,missing=21
				21:leaf=0.197806761
				22:leaf=1.17357397
			12:[f11538<0.400000006] yes=23,no=24,missing=23
				23:leaf=0.074203372
				24:leaf=0.443816721
		6:[f131318<0.300000012] yes=13,no=14,missing=13
			13:[f177465<0.100000001] yes=25,no=26,missing=25
				25:leaf=0.891761482
				26:leaf=0.718286395
			14:[f134497<0.400000006] yes=27,no=28,missing=27
				27:leaf=1.20371902
				28:leaf=0.66989553
booster[11]:
0:[f8<0.600000024] yes=1,no=2,missing=1
	1:[f134370<0.600000024] yes=3,no=4,missing=3
		3:[f30499<0.5] yes=7,no=8,missing=7
			7:leaf=0.175577745
			8:[f30519<0.400000006] yes=15,no=16,missing=15
				15:leaf=1.08525956
				16:leaf=0.00788456202
		4:[f154503<0.700000048] yes=9,no=10,missing=9
			9:[f169893<0.100000001] yes=17,no=18,missing=17
				17:leaf=0.863017261
				18:leaf=1.0864327
			10:[f169893<0.700000048] yes=19,no=20,missing=19
				19:leaf=1.0315659
				20:leaf=0.792527914
	2:[f67137<0.5] yes=5,no=6,missing=5
		5:[f77301<0.200000003] yes=11,no=12,missing=11
			11:[f77463<0.400000006] yes=21,no=22,missing=21
				21:leaf=1.10360992
				22:leaf=0.197004154
			12:leaf=0.156673908
		6:[f89154<0.700000048] yes=13,no=14,missing=13
			13:[f130005<0.5] yes=23,no=24,missing=23
				23:leaf=0.952410579
				24:leaf=0.806525111
			14:[f30499<0.700000048] yes=25,no=26,missing=25
				25:leaf=0.956498086
				26:leaf=0.651632488
booster[12]:
0:[f8<0.600000024] yes=1,no=2,missing=1
	1:[f134251<0.700000048] yes=3,no=4,missing=3
		3:[f4968<0.700000048] yes=7,no=8,missing=7
			7:[f4973<0.200000003] yes=15,no=16,missing=15
				15:leaf=0.243016124
				16:leaf=0.0525746346
			8:[f51619<0.400000006] yes=17,no=18,missing=17
				17:leaf=1.01418984
				18:leaf=0.17253162
		4:[f84117<0.700000048] yes=9,no=10,missing=9
			9:[f154502<0.100000001] yes=19,no=20,missing=19
				19:leaf=0.780893445
				20:leaf=0.903662682
			10:[f134377<0.5] yes=21,no=22,missing=21
				21:leaf=0.0754306316
				22:leaf=0.688861728
	2:[f89154<0.700000048] yes=5,no=6,missing=5
		5:[f67119<0.100000001] yes=11,no=12,missing=11
			11:[f17233<0.600000024] yes=23,no=24,missing=23
				23:leaf=0.167218804
				24:leaf=0.917487979
			12:[f89154<0.5] yes=25,no=26,missing=25
				25:leaf=0.810366988
				26:leaf=0.575713456
		6:[f169244<0.200000003] yes=13,no=14,missing=13
			13:[f161286<0.200000003] yes=27,no=28,missing=27
				27:leaf=0.284142286
				28:leaf=1.10501754
			14:[f30499<0.700000048] yes=29,no=30,missing=29
				29:leaf=0.905030012
				30:leaf=0.609258771
booster[13]:
0:[f36<0.400000006] yes=1,no=2,missing=1
	1:[f134460<0.400000006] yes=3,no=4,missing=3
		3:[f172557<0.5] yes=7,no=8,missing=7
			7:[f15506<0.100000001] yes=15,no=16,missing=15
				15:leaf=0.972994864
				16:leaf=0.062458396
			8:[f53311<0.100000001] yes=17,no=18,missing=17
				17:leaf=0.368603021
				18:leaf=0.0337382741
		4:[f68479<0.300000012] yes=9,no=10,missing=9
			9:[f14449<0.300000012] yes=19,no=20,missing=19
				19:leaf=0.0675492585
				20:leaf=0.384181678
			10:[f67172<0.100000001] yes=21,no=22,missing=21
				21:leaf=0.806087077
				22:leaf=0.647057295
	2:[f89154<0.700000048] yes=5,no=6,missing=5
		5:[f67119<0.100000001] yes=11,no=12,missing=11
			11:[f2054<0.700000048] yes=23,no=24,missing=23
				23:leaf=0.123717405
				24:leaf=0.850015998
			12:[f89154<0.5] yes=25,no=26,missing=25
				25:leaf=0.758192658
				26:leaf=0.551137805
		6:[f67125<0.100000001] yes=13,no=14,missing=13
			13:[f67122<0.5] yes=27,no=28,missing=27
				27:leaf=1.06213725
				28:leaf=0.725412309
			14:[f133398<0.700000048] yes=29,no=30,missing=29
				29:leaf=1.06086588
				30:leaf=0.580076635
booster[14]:
0:[f8<0.400000006] yes=1,no=2,missing=1
	1:[f133393<0.200000003] yes=3,no=4,missing=3
		3:[f151873<0.100000001] yes=7,no=8,missing=7
			7:[f33462<0.400000006] yes=15,no=16,missing=15
				15:leaf=0.122627236
				16:leaf=0.549582243
			8:[f126248<0.700000048] yes=17,no=18,missing=17
				17:leaf=0.0433140211
				18:leaf=0.902648866
		4:[f11966<0.100000001] yes=9,no=10,missing=9
			9:[f237<0.400000006] yes=19,no=20,missing=19
				19:leaf=0.260907501
				20:leaf=-0.0104366541
			10:[f177559<0.100000001] yes=21,no=22,missing=21
				21:leaf=0.0677425861
				22:leaf=0.746436536
	2:[f131318<0.100000001] yes=5,no=6,missing=5
		5:[f177612<0.100000001] yes=11,no=12,missing=11
			11:[f131571<0.100000001] yes=23,no=24,missing=23
				23:leaf=0.895047843
				24:leaf=0.623751104
			12:[f79797<0.400000006] yes=25,no=26,missing=25
				25:leaf=0.81753248
				26:leaf=0.51805383
		6:[f134205<0.700000048] yes=13,no=14,missing=13
			13:[f1514<0.5] yes=27,no=28,missing=27
				27:leaf=0.0382469893
				28:leaf=1.04948735
			14:[f16388<0.700000048] yes=29,no=30,missing=29
				29:leaf=0.484513104
				30:leaf=0.58478713
booster[15]:
0:[f8<0.600000024] yes=1,no=2,missing=1
	1:[f133956<0.700000048] yes=3,no=4,missing=3
		3:[f172485<0.100000001] yes=7,no=8,missing=7
			7:[f165505<0.700000048] yes=15,no=16,missing=15
				15:leaf=-0.00100572908
				16:leaf=0.838654697
			8:[f169891<0.600000024] yes=17,no=18,missing=17
				17:leaf=0.488882899
				18:leaf=-0.103824221
		4:[f154502<0.100000001] yes=9,no=10,missing=9
			9:[f3324<0.600000024] yes=19,no=20,missing=19
				19:leaf=-0.0269823465
				20:leaf=0.631646454
			10:[f127219<0.700000048] yes=21,no=22,missing=21
				21:leaf=0.874418139
				22:leaf=0.656180799
	2:[f67137<0.100000001] yes=5,no=6,missing=5
		5:[f41270<0.300000012] yes=11,no=12,missing=11
			11:[f77844<0.400000006] yes=23,no=24,missing=23
				23:leaf=0.886111438
				24:leaf=0.191536829
			12:[f1770<0.400000006] yes=25,no=26,missing=25
				25:leaf=-0.13779819
				26:leaf=0.0931253433
		6:[f89154<0.700000048] yes=13,no=14,missing=13
			13:[f89154<0.300000012] yes=27,no=28,missing=27
				27:leaf=0.779925048
				28:leaf=0.635980844
			14:[f169244<0.200000003] yes=29,no=30,missing=29
				29:leaf=0.988282204
				30:leaf=0.497777283
booster[16]:
0:[f8<0.600000024] yes=1,no=2,missing=1
	1:[f134181<0.5] yes=3,no=4,missing=3
		3:[f139979<0.100000001] yes=7,no=8,missing=7
			7:[f14<0.400000006] yes=15,no=16,missing=15
				15:leaf=0.804533243
				16:leaf=-0.139872789
			8:[f601<0.100000001] yes=17,no=18,missing=17
				17:leaf=-0.0406030416
				18:leaf=0.0773720741
		4:[f172185<0.100000001] yes=9,no=10,missing=9
			9:[f129079<0.100000001] yes=19,no=20,missing=19
				19:leaf=0.392509878
				20:leaf=0.632335782
			10:[f48235<0.300000012] yes=21,no=22,missing=21
				21:leaf=0.483860373
				22:leaf=0.787255347
	2:[f89154<0.700000048] yes=5,no=6,missing=5
		5:[f169280<0.300000012] yes=11,no=12,missing=11
			11:[f2450<0.700000048] yes=23,no=24,missing=23
				23:leaf=0.145295531
				24:leaf=0.817247927
			12:[f67119<0.100000001] yes=25,no=26,missing=25
				25:leaf=0.670823514
				26:leaf=0.54406631
		6:[f67137<0.5] yes=13,no=14,missing=13
			13:[f9157<0.200000003] yes=27,no=28,missing=27
				27:leaf=-0.0197089911
				28:leaf=0.814662695
			14:[f12073<0.700000048] yes=29,no=30,missing=29
				29:leaf=1.09671664
				30:leaf=0.473194838
booster[17]:
0:[f8<0.600000024] yes=1,no=2,missing=1
	1:[f133393<0.200000003] yes=3,no=4,missing=3
		3:[f15506<0.100000001] yes=7,no=8,missing=7
			7:[f132588<0.200000003] yes=15,no=16,missing=15
				15:leaf=0.740664423
				16:leaf=0.168508381
			8:[f432<0.200000003] yes=17,no=18,missing=17
				17:leaf=-0.0383204632
				18:leaf=0.0866903067
		4:[f134460<0.400000006] yes=9,no=10,missing=9
			9:[f9085<0.400000006] yes=19,no=20,missing=19
				19:leaf=0.809190214
				20:leaf=-0.00237002969
			10:[f172185<0.100000001] yes=21,no=22,missing=21
				21:leaf=0.585466623
				22:leaf=0.682945251
	2:[f89157<0.300000012] yes=5,no=6,missing=5
		5:[f129198<0.200000003] yes=11,no=12,missing=11
			11:[f177614<0.400000006] yes=23,no=24,missing=23
				23:leaf=0.926264703
				24:leaf=0.0724887252
			12:[f30501<0.100000001] yes=25,no=26,missing=25
				25:leaf=0.445457429
				26:leaf=0.687161505
		6:[f2054<0.700000048] yes=13,no=14,missing=13
			13:[f178<0.200000003] yes=27,no=28,missing=27
				27:leaf=0.0344502926
				28:leaf=0.00524389744
			14:[f6204<0.400000006] yes=29,no=30,missing=29
				29:leaf=0.677273631
				30:leaf=-0.0895838737
booster[18]:
0:[f8<0.600000024] yes=1,no=2,missing=1
	1:[f134359<0.700000048] yes=3,no=4,missing=3
		3:[f175473<0.700000048] yes=7,no=8,missing=7
			7:[f177054<0.100000001] yes=15,no=16,missing=15
				15:leaf=0.701382995
				16:leaf=-0.0450367518
			8:[f172556<0.600000024] yes=17,no=18,missing=17
				17:leaf=0.395816177
				18:leaf=-0.0998876095
		4:[f154502<0.100000001] yes=9,no=10,missing=9
			9:[f127221<0.700000048] yes=19,no=20,missing=19
				19:leaf=0.759397507
				20:leaf=0.489320844
			10:[f127221<0.100000001] yes=21,no=22,missing=21
				21:leaf=0.53681618
				22:leaf=0.76395762
	2:[f67137<0.100000001] yes=5,no=6,missing=5
		5:[f41270<0.300000012] yes=11,no=12,missing=11
			11:[f40713<0.400000006] yes=23,no=24,missing=23
				23:leaf=-0.0585678816
				24:leaf=0.757533193
			12:[f9157<0.100000001] yes=25,no=26,missing=25
				25:leaf=-0.146796644
				26:leaf=0.0435113907
		6:[f77043<0.100000001] yes=13,no=14,missing=13
			13:[f76316<0.100000001] yes=27,no=28,missing=27
				27:leaf=0.424573988
				28:leaf=1.01842356
			14:[f177612<0.700000048] yes=29,no=30,missing=29
				29:leaf=0.846516609
				30:leaf=0.612025797
booster[19]:
0:[f8<0.600000024] yes=1,no=2,missing=1
	1:[f134457<0.400000006] yes=3,no=4,missing=3
		3:[f4968<0.700000048] yes=7,no=8,missing=7
			7:[f5749<0.100000001] yes=15,no=16,missing=15
				15:leaf=-0.104095757
				16:leaf=0.0417375565
			8:[f108<0.400000006] yes=17,no=18,missing=17
				17:leaf=0.654137492
				18:leaf=-0.180565715
		4:[f109938<0.700000048] yes=9,no=10,missing=9
			9:[f169891<0.100000001] yes=19,no=20,missing=19
				19:leaf=0.487110168
				20:leaf=0.707192659
			10:[f140618<0.700000048] yes=21,no=22,missing=21
				21:leaf=0.203059375
				22:leaf=0.49862662
	2:[f89154<0.5] yes=5,no=6,missing=5
		5:[f169279<0.300000012] yes=11,no=12,missing=11
			11:[f2054<0.700000048] yes=23,no=24,missing=23
				23:leaf=0.0010085901
				24:leaf=0.600822687
			12:[f3416<0.400000006] yes=25,no=26,missing=25
				25:leaf=-0.0635479093
				26:leaf=0.051853776
		6:[f169244<0.200000003] yes=13,no=14,missing=13
			13:[f129243<0.100000001] yes=27,no=28,missing=27
				27:leaf=0.781296968
				28:leaf=0.372586548
			14:[f76316<0.100000001] yes=29,no=30,missing=29
				29:leaf=0.388347358
				30:leaf=0.998499334
booster[20]:
0:[f8<0.600000024] yes=1,no=2,missing=1
	1:[f166845<0.700000048] yes=3,no=4,missing=3
		3:[f109938<0.700000048] yes=7,no=8,missing=7
			7:[f3381<0.300000012] yes=15,no=16,missing=15
				15:leaf=0.654341698
				16:leaf=-0.203991249
			8:[f53904<0.5] yes=17,no=18,missing=17
				17:leaf=-0.181113049
				18:leaf=0.497558951
		4:[f152438<0.100000001] yes=9,no=10,missing=9
			9:[f177559<0.700000048] yes=19,no=20,missing=19
				19:leaf=-0.0271727145
				20:leaf=0.454637557
			10:[f1106<0.600000024] yes=21,no=22,missing=21
				21:leaf=-0.0398448706
				22:leaf=0.634935975
	2:[f131318<0.100000001] yes=5,no=6,missing=5
		5:[f177465<0.100000001] yes=11,no=12,missing=11
			11:[f66602<0.700000048] yes=23,no=24,missing=23
				23:leaf=0.660031438
				24:leaf=0.436698288
			12:[f78199<0.400000006] yes=25,no=26,missing=25
				25:leaf=0.510480285
				26:leaf=0.311960518
		6:[f133873<0.400000006] yes=13,no=14,missing=13
			13:[f1514<0.5] yes=27,no=28,missing=27
				27:leaf=-0.0326154232
				28:leaf=0.880421817
			14:[f162030<0.300000012] yes=29,no=30,missing=29
				29:leaf=0.493593246
				30:leaf=0.330438197
booster[21]:
0:[f45<0.400000006] yes=1,no=2,missing=1
	1:[f134424<0.600000024] yes=3,no=4,missing=3
		3:[f129721<0.700000048] yes=7,no=8,missing=7
			7:[f9085<0.400000006] yes=15,no=16,missing=15
				15:leaf=-0.132790133
				16:leaf=-0.0351649821
			8:[f30827<0.200000003] yes=17,no=18,missing=17
				17:leaf=0.583380878
				18:leaf=-0.219972789
		4:[f38042<0.700000048] yes=9,no=10,missing=9
			9:[f172185<0.100000001] yes=19,no=20,missing=19
				19:leaf=0.452979267
				20:leaf=0.58970958
			10:[f25596<0.400000006] yes=21,no=22,missing=21
				21:leaf=0.293642312
				22:leaf=-0.143319368
	2:[f177468<0.200000003] yes=5,no=6,missing=5
		5:[f177465<0.300000012] yes=11,no=12,missing=11
			11:[f78182<0.400000006] yes=23,no=24,missing=23
				23:leaf=0.705289543
				24:leaf=-0.0436553173
			12:[f129243<0.100000001] yes=25,no=26,missing=25
				25:leaf=0.69338882
				26:leaf=0.329364061
		6:[f89157<0.100000001] yes=13,no=14,missing=13
			13:[f76314<0.700000048] yes=27,no=28,missing=27
				27:leaf=0.88183254
				28:leaf=0.338886172
			14:[f67142<0.700000048] yes=29,no=30,missing=29
				29:leaf=0.467619121
				30:leaf=0.663251102
booster[22]:
0:[f36<0.400000006] yes=1,no=2,missing=1
	1:[f134532<0.400000006] yes=3,no=4,missing=3
		3:[f3024<0.700000048] yes=7,no=8,missing=7
			7:leaf=-0.138240576
			8:[f132588<0.300000012] yes=15,no=16,missing=15
				15:leaf=0.550641537
				16:leaf=-0.126970008
		4:[f68481<0.400000006] yes=9,no=10,missing=9
			9:[f70086<0.100000001] yes=17,no=18,missing=17
				17:leaf=0.194248125
				18:leaf=0.446388185
			10:[f129127<0.400000006] yes=19,no=20,missing=19
				19:leaf=0.208508313
				20:leaf=-0.021916287
	2:[f169244<0.5] yes=5,no=6,missing=5
		5:[f169268<0.5] yes=11,no=12,missing=11
			11:[f67129<0.700000048] yes=21,no=22,missing=21
				21:leaf=0.606364727
				22:leaf=0.833227158
			12:[f67137<0.700000048] yes=23,no=24,missing=23
				23:leaf=0.426506966
				24:leaf=0.150867373
		6:[f131318<0.300000012] yes=13,no=14,missing=13
			13:[f12073<0.700000048] yes=25,no=26,missing=25
				25:leaf=0.812599957
				26:leaf=0.375620008
			14:[f133352<0.5] yes=27,no=28,missing=27
				27:leaf=0.750409007
				28:leaf=0.288350999
booster[23]:
0:[f133352<0.700000048] yes=1,no=2,missing=1
	1:[f151873<0.100000001] yes=3,no=4,missing=3
		3:[f33462<0.400000006] yes=7,no=8,missing=7
			7:[f130471<0.5] yes=15,no=16,missing=15
				15:leaf=0.0468118973
				16:leaf=-0.174996734
			8:leaf=0.374114454
		4:[f15506<0.100000001] yes=9,no=10,missing=9
			9:[f126249<0.100000001] yes=17,no=18,missing=17
				17:leaf=0.536073923
				18:leaf=-0.152316689
			10:[f432<0.200000003] yes=19,no=20,missing=19
				19:leaf=-0.140703559
				20:leaf=-0.0104031563
	2:[f89154<0.5] yes=5,no=6,missing=5
		5:[f2054<0.700000048] yes=11,no=12,missing=11
			11:leaf=-0.0633612871
			12:[f6204<0.400000006] yes=21,no=22,missing=21
				21:leaf=0.48898685
				22:leaf=-0.165805221
		6:[f8<0.600000024] yes=13,no=14,missing=13
			13:[f67140<0.100000001] yes=23,no=24,missing=23
				23:leaf=0.419593036
				24:leaf=0.272943765
			14:[f129198<0.700000048] yes=25,no=26,missing=25
				25:leaf=0.625352323
				26:leaf=0.302991331
booster[24]:
0:[f31<0.700000048] yes=1,no=2,missing=1
	1:[f172346<0.100000001] yes=3,no=4,missing=3
		3:[f129739<0.400000006] yes=7,no=8,missing=7
			7:[f30519<0.400000006] yes=15,no=16,missing=15
				15:leaf=0.347802639
				16:leaf=-0.247058511
			8:[f727<0.400000006] yes=17,no=18,missing=17
				17:leaf=-0.0212135315
				18:leaf=-0.0999129638
		4:[f127221<0.700000048] yes=9,no=10,missing=9
			9:[f109938<0.700000048] yes=19,no=20,missing=19
				19:leaf=0.52170378
				20:leaf=0.406048685
			10:[f61311<0.700000048] yes=21,no=22,missing=21
				21:leaf=0.528876543
				22:leaf=0.340537459
	2:[f89154<0.700000048] yes=5,no=6,missing=5
		5:[f67140<0.100000001] yes=11,no=12,missing=11
			11:[f27055<0.700000048] yes=23,no=24,missing=23
				23:leaf=-0.0235727224
				24:leaf=0.538004398
			12:[f89154<0.300000012] yes=25,no=26,missing=25
				25:leaf=0.452633351
				26:leaf=0.357720375
		6:[f129198<0.700000048] yes=13,no=14,missing=13
			13:[f177464<0.5] yes=27,no=28,missing=27
				27:leaf=0.656651378
				28:leaf=-0.13012135
			14:[f133398<0.700000048] yes=29,no=30,missing=29
				29:leaf=0.700139999
				30:leaf=0.275190681
booster[25]:
0:[f8<0.600000024] yes=1,no=2,missing=1
	1:[f61311<0.700000048] yes=3,no=4,missing=3
		3:[f109938<0.700000048] yes=7,no=8,missing=7
			7:[f132588<0.300000012] yes=15,no=16,missing=15
				15:leaf=0.490824223
				16:leaf=-0.213128299
			8:[f172484<0.700000048] yes=17,no=18,missing=17
				17:leaf=-0.166786149
				18:leaf=0.356049001
		4:[f5749<0.100000001] yes=9,no=10,missing=9
			9:[f40170<0.700000048] yes=19,no=20,missing=19
				19:leaf=-0.273492604
				20:leaf=0.298779041
			10:[f168206<0.5] yes=21,no=22,missing=21
				21:leaf=-0.142771363
				22:leaf=0.50175482
	2:[f67137<0.200000003] yes=5,no=6,missing=5
		5:[f78174<0.400000006] yes=11,no=12,missing=11
			11:[f177615<0.400000006] yes=23,no=24,missing=23
				23:leaf=0.522300899
				24:leaf=-0.233525634
			12:[f9157<0.5] yes=25,no=26,missing=25
				25:leaf=-0.0284174085
				26:leaf=-0.213810205
		6:[f89157<0.100000001] yes=13,no=14,missing=13
			13:[f159661<0.100000001] yes=27,no=28,missing=27
				27:leaf=0.237923399
				28:leaf=0.34222725
			14:[f67142<0.700000048] yes=29,no=30,missing=29
				29:leaf=0.373016745
				30:leaf=0.525732279
booster[26]:
0:[f133352<0.700000048] yes=1,no=2,missing=1
	1:[f151873<0.100000001] yes=3,no=4,missing=3
		3:[f13345<0.700000048] yes=7,no=8,missing=7
			7:leaf=0.209718764
			8:[f35635<0.400000006] yes=15,no=16,missing=15
				15:leaf=0.0238080025
				16:leaf=-0.177585274
		4:[f132588<0.300000012] yes=9,no=10,missing=9
			9:[f15506<0.100000001] yes=17,no=18,missing=17
				17:leaf=0.456226349
				18:leaf=-0.14971897
			10:[f2172<0.100000001] yes=19,no=20,missing=19
				19:leaf=-0.179277807
				20:leaf=0.123629272
	2:[f79797<0.400000006] yes=5,no=6,missing=5
		5:[f1770<0.300000012] yes=11,no=12,missing=11
			11:leaf=-0.227016032
			12:[f177615<0.5] yes=21,no=22,missing=21
				21:leaf=0.468971997
				22:leaf=-0.226227939
		6:[f12075<0.100000001] yes=13,no=14,missing=13
			13:[f8<0.600000024] yes=23,no=24,missing=23
				23:leaf=0.344184518
				24:leaf=0.258495241
			14:[f53715<0.5] yes=25,no=26,missing=25
				25:leaf=0.36843586
				26:leaf=0.766480803
booster[27]:
0:[f45<0.400000006] yes=1,no=2,missing=1
	1:[f101481<0.100000001] yes=3,no=4,missing=3
		3:[f61311<0.700000048] yes=7,no=8,missing=7
			7:[f5751<0.100000001] yes=15,no=16,missing=15
				15:leaf=0.30745545
				16:leaf=0.419617057
			8:[f121002<0.700000048] yes=17,no=18,missing=17
				17:leaf=0.471117944
				18:leaf=0.281341553
		4:[f164137<0.300000012] yes=9,no=10,missing=9
			9:leaf=0.353455007
			10:[f145153<0.100000001] yes=19,no=20,missing=19
				19:leaf=0.152802855
				20:leaf=-0.117338188
	2:[f131318<0.100000001] yes=5,no=6,missing=5
		5:[f177465<0.100000001] yes=11,no=12,missing=11
			11:[f131571<0.100000001] yes=21,no=22,missing=21
				21:leaf=0.496380687
				22:leaf=0.283340007
			12:[f76771<0.200000003] yes=23,no=24,missing=23
				23:leaf=0.368082196
				24:leaf=0.191368014
		6:[f134053<0.400000006] yes=13,no=14,missing=13
			13:[f1514<0.5] yes=25,no=26,missing=25
				25:leaf=-0.125960469
				26:leaf=0.663652897
			14:[f137787<0.700000048] yes=27,no=28,missing=27
				27:leaf=0.479563236
				28:leaf=0.20235917
booster[28]:
0:[f134792<0.700000048] yes=1,no=2,missing=1
	1:[f134792<0.300000012] yes=3,no=4,missing=3
		3:[f169281<0.100000001] yes=7,no=8,missing=7
			7:[f38475<0.100000001] yes=15,no=16,missing=15
				15:leaf=0.367214859
				16:leaf=0.230799526
			8:[f77001<0.700000048] yes=17,no=18,missing=17
				17:leaf=0.466475815
				18:leaf=0.150553539
		4:[f89154<0.100000001] yes=9,no=10,missing=9
			9:[f3417<0.400000006] yes=19,no=20,missing=19
				19:leaf=0.293884277
				20:leaf=-0.253924698
			10:[f67129<0.400000006] yes=21,no=22,missing=21
				21:leaf=0.459388524
				22:leaf=0.831050038
	2:[f30499<0.700000048] yes=5,no=6,missing=5
		5:[f59571<0.100000001] yes=11,no=12,missing=11
			11:[f53714<0.700000048] yes=23,no=24,missing=23
				23:leaf=0.519061923
				24:leaf=0.151536018
			12:[f8<0.400000006] yes=25,no=26,missing=25
				25:leaf=0.0243810173
				26:leaf=0.749326527
		6:[f31<0.700000048] yes=13,no=14,missing=13
			13:[f61311<0.700000048] yes=27,no=28,missing=27
				27:leaf=0.328900874
				28:leaf=0.253284425
			14:[f77511<0.100000001] yes=29,no=30,missing=29
				29:leaf=0.209869608
				30:leaf=0.381513655
booster[29]:
0:[f133398<0.700000048] yes=1,no=2,missing=1
	1:[f26<0.400000006] yes=3,no=4,missing=3
		3:[f110311<0.700000048] yes=7,no=8,missing=7
			7:[f152438<0.100000001] yes=15,no=16,missing=15
				15:leaf=0.263852358
				16:leaf=-0.144732282
			8:[f125955<0.600000024] yes=17,no=18,missing=17
				17:leaf=-0.185719177
				18:leaf=0.353648782
		4:[f1515<0.300000012] yes=9,no=10,missing=9
			9:[f65424<0.100000001] yes=19,no=20,missing=19
				19:leaf=0.600447834
				20:leaf=-0.118130505
			10:leaf=-0.133499622
	2:[f160843<0.700000048] yes=5,no=6,missing=5
		5:[f159661<0.100000001] yes=11,no=12,missing=11
			11:[f137478<0.400000006] yes=21,no=22,missing=21
				21:leaf=0.306192905
				22:leaf=0.591757536
			12:leaf=0.888766289
		6:[f77511<0.100000001] yes=13,no=14,missing=13
			13:[f30499<0.700000048] yes=23,no=24,missing=23
				23:leaf=0.533334076
				24:leaf=0.215664074
			14:[f53714<0.5] yes=25,no=26,missing=25
				25:leaf=0.651598573
				26:leaf=0.289317787
booster[30]:
0:[f133365<0.700000048] yes=1,no=2,missing=1
	1:[f24<0.400000006] yes=3,no=4,missing=3
		3:[f37807<0.400000006] yes=7,no=8,missing=7
			7:leaf=-0.114438951
			8:[f4232<0.400000006] yes=15,no=16,missing=15
				15:leaf=0.150427222
				16:leaf=0.556231916
		4:[f37111<0.700000048] yes=9,no=10,missing=9
			9:[f23004<0.100000001] yes=17,no=18,missing=17
				17:leaf=-0.215154499
				18:leaf=0.0512974262
			10:[f126002<0.700000048] yes=19,no=20,missing=19
				19:leaf=-0.22040987
				20:leaf=0.334853917
	2:[f160843<0.700000048] yes=5,no=6,missing=5
		5:[f169278<0.100000001] yes=11,no=12,missing=11
			11:[f161361<0.400000006] yes=21,no=22,missing=21
				21:leaf=0.409607649
				22:leaf=0.0635044053
			12:[f67140<0.100000001] yes=23,no=24,missing=23
				23:leaf=0.901308537
				24:leaf=0.395851493
		6:[f79797<0.400000006] yes=13,no=14,missing=13
			13:[f129243<0.100000001] yes=25,no=26,missing=25
				25:leaf=0.480549276
				26:leaf=0.320954829
			14:[f12073<0.700000048] yes=27,no=28,missing=27
				27:leaf=0.581705034
				28:leaf=0.205659419
booster[31]:
0:[f8<0.600000024] yes=1,no=2,missing=1
	1:[f102129<0.700000048] yes=3,no=4,missing=3
		3:[f122184<0.700000048] yes=7,no=8,missing=7
			7:leaf=0.490240514
			8:[f137220<0.700000048] yes=15,no=16,missing=15
				15:leaf=0.270166487
				16:leaf=0.0401096158
		4:[f56749<0.200000003] yes=9,no=10,missing=9
			9:leaf=0.0653432012
			10:leaf=-0.185059711
	2:[f162081<0.700000048] yes=5,no=6,missing=5
		5:[f132543<0.700000048] yes=11,no=12,missing=11
			11:[f161306<0.400000006] yes=17,no=18,missing=17
				17:leaf=0.307660878
				18:leaf=0.0427373163
			12:[f67119<0.100000001] yes=19,no=20,missing=19
				19:leaf=0.81384325
				20:leaf=0.221924067
		6:[f67125<0.100000001] yes=13,no=14,missing=13
			13:[f67122<0.5] yes=21,no=22,missing=21
				21:leaf=0.411865294
				22:leaf=0.170835704
			14:[f89154<0.5] yes=23,no=24,missing=23
				23:leaf=0.296085268
				24:leaf=0.166905507
booster[32]:
0:[f134792<0.700000048] yes=1,no=2,missing=1
	1:[f129995<0.100000001] yes=3,no=4,missing=3
		3:[f129983<0.100000001] yes=7,no=8,missing=7
			7:[f132588<0.300000012] yes=15,no=16,missing=15
				15:leaf=0.282409638
				16:leaf=-0.252694517
			8:[f131361<0.400000006] yes=17,no=18,missing=17
				17:leaf=0.0828863233
				18:leaf=0.44666335
		4:[f134792<0.100000001] yes=9,no=10,missing=9
			9:[f129223<0.200000003] yes=19,no=20,missing=19
				19:leaf=0.273272067
				20:leaf=0.122822918
			10:[f169279<0.100000001] yes=21,no=22,missing=21
				21:leaf=0.442809254
				22:leaf=-0.275648594
	2:[f83481<0.700000048] yes=5,no=6,missing=5
		5:[f46951<0.100000001] yes=11,no=12,missing=11
			11:[f131571<0.5] yes=23,no=24,missing=23
				23:leaf=0.246655419
				24:leaf=0.0862620473
			12:[f131318<0.200000003] yes=25,no=26,missing=25
				25:leaf=0.620144486
				26:leaf=-0.149279475
		6:[f36<0.400000006] yes=13,no=14,missing=13
			13:[f131316<0.300000012] yes=27,no=28,missing=27
				27:leaf=0.247674391
				28:leaf=-0.0927770361
			14:[f169244<0.5] yes=29,no=30,missing=29
				29:leaf=0.389570743
				30:leaf=0.16100052
booster[33]:
0:[f31<0.700000048] yes=1,no=2,missing=1
	1:[f145153<0.100000001] yes=3,no=4,missing=3
		3:[f22622<0.700000048] yes=7,no=8,missing=7
			7:[f5749<0.700000048] yes=15,no=16,missing=15
				15:leaf=-0.301499456
				16:leaf=0.00639293203
			8:[f127219<0.100000001] yes=17,no=18,missing=17
				17:leaf=0.199290007
				18:leaf=0.261580139
		4:[f164137<0.400000006] yes=9,no=10,missing=9
			9:[f10867<0.100000001] yes=19,no=20,missing=19
				19:leaf=0.34749496
				20:leaf=0.0631103516
			10:[f172275<0.5] yes=21,no=22,missing=21
				21:leaf=0.0225791223
				22:leaf=-0.272217423
	2:[f89154<0.700000048] yes=5,no=6,missing=5
		5:[f130477<0.700000048] yes=11,no=12,missing=11
			11:[f130015<0.100000001] yes=23,no=24,missing=23
				23:leaf=0.311845928
				24:leaf=0.218916774
			12:[f38474<0.300000012] yes=25,no=26,missing=25
				25:leaf=0.59038806
				26:leaf=0.0815272927
		6:[f162567<0.700000048] yes=13,no=14,missing=13
			13:[f169278<0.400000006] yes=27,no=28,missing=27
				27:leaf=0.302150458
				28:leaf=0.75486964
			14:[f169244<0.200000003] yes=29,no=30,missing=29
				29:leaf=0.365104675
				30:leaf=0.14467442
booster[34]:
0:[f160843<0.700000048] yes=1,no=2,missing=1
	1:[f159312<0.700000048] yes=3,no=4,missing=3
		3:leaf=0.751199603
		4:[f136101<0.5] yes=7,no=8,missing=7
			7:[f162786<0.400000006] yes=13,no=14,missing=13
				13:leaf=0.0761880353
				14:leaf=0.316802353
			8:[f6482<0.700000048] yes=15,no=16,missing=15
				15:leaf=0.107150733
				16:leaf=0.581726551
	2:[f89154<0.700000048] yes=5,no=6,missing=5
		5:[f129997<0.300000012] yes=9,no=10,missing=9
			9:[f67122<0.100000001] yes=17,no=18,missing=17
				17:leaf=0.441724479
				18:leaf=0.213027284
			10:[f131367<0.300000012] yes=19,no=20,missing=19
				19:leaf=0.165895984
				20:leaf=0.263101608
		6:[f8<0.600000024] yes=11,no=12,missing=11
			11:[f151873<0.100000001] yes=21,no=22,missing=21
				21:leaf=-0.000924229622
				22:leaf=0.21941784
			12:[f12073<0.700000048] yes=23,no=24,missing=23
				23:leaf=0.553257644
				24:leaf=0.136560783
booster[35]:
0:[f67137<0.5] yes=1,no=2,missing=1
	1:[f78733<0.400000006] yes=3,no=4,missing=3
		3:[f3648<0.400000006] yes=7,no=8,missing=7
			7:[f177615<0.400000006] yes=15,no=16,missing=15
				15:leaf=0.326899886
				16:leaf=-0.280689895
			8:leaf=-0.293883562
		4:[f10980<0.400000006] yes=9,no=10,missing=9
			9:leaf=-0.26986289
			10:leaf=0.156390727
	2:[f134460<0.400000006] yes=5,no=6,missing=5
		5:[f8<0.400000006] yes=11,no=12,missing=11
			11:[f172556<0.300000012] yes=17,no=18,missing=17
				17:leaf=-0.181764126
				18:leaf=0.243012771
			12:[f1515<0.300000012] yes=19,no=20,missing=19
				19:leaf=0.481612474
				20:leaf=-0.16953975
		6:[f169244<0.200000003] yes=13,no=14,missing=13
			13:[f161286<0.100000001] yes=21,no=22,missing=21
				21:leaf=0.0887217522
				22:leaf=0.552228212
			14:[f76314<0.700000048] yes=23,no=24,missing=23
				23:leaf=0.486117274
				24:leaf=0.146069944
booster[36]:
0:[f160807<0.700000048] yes=1,no=2,missing=1
	1:[f38487<0.5] yes=3,no=4,missing=3
		3:[f136095<0.700000048] yes=7,no=8,missing=7
			7:[f38475<0.300000012] yes=13,no=14,missing=13
				13:leaf=0.461983621
				14:leaf=0.173663557
			8:[f136964<0.400000006] yes=15,no=16,missing=15
				15:leaf=0.23460798
				16:leaf=-0.148121431
		4:leaf=0.754863441
	2:[f79758<0.700000048] yes=5,no=6,missing=5
		5:[f177615<0.5] yes=9,no=10,missing=9
			9:[f129242<0.100000001] yes=17,no=18,missing=17
				17:leaf=0.369859874
				18:leaf=0.244537756
			10:leaf=-0.271918356
		6:[f8<0.600000024] yes=11,no=12,missing=11
			11:[f4968<0.700000048] yes=19,no=20,missing=19
				19:leaf=-0.296676874
				20:leaf=0.194202304
			12:[f133922<0.400000006] yes=21,no=22,missing=21
				21:leaf=0.428768396
				22:leaf=0.125485361
booster[37]:
0:[f114696<0.100000001] yes=1,no=2,missing=1
	1:[f8<0.600000024] yes=3,no=4,missing=3
		3:[f129723<0.100000001] yes=7,no=8,missing=7
			7:[f154502<0.100000001] yes=15,no=16,missing=15
				15:leaf=0.14042978
				16:leaf=0.206466898
			8:[f613<0.400000006] yes=17,no=18,missing=17
				17:leaf=0.0454849005
				18:leaf=-0.289261281
		4:[f30499<0.700000048] yes=9,no=10,missing=9
			9:[f59569<0.5] yes=19,no=20,missing=19
				19:leaf=0.546696603
				20:leaf=0.0816222057
			10:[f169280<0.700000048] yes=21,no=22,missing=21
				21:leaf=0.106288195
				22:leaf=0.200777873
	2:[f89154<0.5] yes=5,no=6,missing=5
		5:[f4369<0.700000048] yes=11,no=12,missing=11
			11:leaf=-0.0490801334
			12:[f25760<0.400000006] yes=23,no=24,missing=23
				23:leaf=0.0418560095
				24:leaf=0.344979435
		6:[f67125<0.300000012] yes=13,no=14,missing=13
			13:leaf=0.280765682
			14:leaf=0.608352959
booster[38]:
0:[f61309<0.100000001] yes=1,no=2,missing=1
	1:[f5751<0.700000048] yes=3,no=4,missing=3
		3:[f134328<0.400000006] yes=7,no=8,missing=7
			7:[f21<0.400000006] yes=15,no=16,missing=15
				15:leaf=0.326940835
				16:leaf=0.640779674
			8:[f18692<0.600000024] yes=17,no=18,missing=17
				17:leaf=-0.272664011
				18:leaf=0.127702385
		4:[f172970<0.700000048] yes=9,no=10,missing=9
			9:leaf=0.608113408
			10:[f24<0.400000006] yes=19,no=20,missing=19
				19:leaf=0.0425907075
				20:leaf=0.111615852
	2:[f61309<0.700000048] yes=5,no=6,missing=5
		5:[f21<0.400000006] yes=11,no=12,missing=11
			11:[f133503<0.400000006] yes=21,no=22,missing=21
				21:leaf=0.192250982
				22:leaf=0.331327111
			12:[f12942<0.5] yes=23,no=24,missing=23
				23:leaf=0.572528064
				24:leaf=0.0675737858
		6:[f169244<0.200000003] yes=13,no=14,missing=13
			13:[f78264<0.400000006] yes=25,no=26,missing=25
				25:leaf=0.334911019
				26:leaf=-0.177327916
			14:[f160807<0.700000048] yes=27,no=28,missing=27
				27:leaf=0.304068208
				28:leaf=0.122253515
booster[39]:
0:[f129198<0.200000003] yes=1,no=2,missing=1
	1:[f67129<0.200000003] yes=3,no=4,missing=3
		3:[f25653<0.100000001] yes=7,no=8,missing=7
			7:[f77388<0.400000006] yes=15,no=16,missing=15
				15:leaf=0.290870875
				16:leaf=-0.0599673986
			8:leaf=-0.135971904
		4:[f129195<0.200000003] yes=9,no=10,missing=9
			9:[f25719<0.400000006] yes=17,no=18,missing=17
				17:leaf=0.0690174699
				18:leaf=0.594712198
			10:[f25051<0.400000006] yes=19,no=20,missing=19
				19:leaf=-0.172906578
				20:leaf=0.167691708
	2:[f83481<0.700000048] yes=5,no=6,missing=5
		5:[f35635<0.100000001] yes=11,no=12,missing=11
			11:[f83480<0.700000048] yes=21,no=22,missing=21
				21:leaf=0.529767275
				22:leaf=0.116839029
			12:[f89154<0.700000048] yes=23,no=24,missing=23
				23:leaf=0.237262875
				24:leaf=0.61022073
		6:[f128810<0.700000048] yes=13,no=14,missing=13
			13:[f133317<0.400000006] yes=25,no=26,missing=25
				25:leaf=0.213279322
				26:leaf=0.681434751
			14:[f31<0.700000048] yes=27,no=28,missing=27
				27:leaf=0.158945993
				28:leaf=0.106018864
booster[40]:
0:[f114696<0.100000001] yes=1,no=2,missing=1
	1:[f65839<0.700000048] yes=3,no=4,missing=3
		3:[f172910<0.700000048] yes=7,no=8,missing=7
			7:[f1095<0.700000048] yes=13,no=14,missing=13
				13:leaf=-0.0420180559
				14:leaf=-0.331961274
			8:[f102128<0.400000006] yes=15,no=16,missing=15
				15:leaf=-0.206960395
				16:leaf=0.387680858
		4:[f31<0.700000048] yes=9,no=10,missing=9
			9:[f131510<0.5] yes=17,no=18,missing=17
				17:leaf=0.153634414
				18:leaf=-0.18922931
			10:[f131318<0.100000001] yes=19,no=20,missing=19
				19:leaf=0.129235819
				20:leaf=0.0747233555
	2:[f2054<0.700000048] yes=5,no=6,missing=5
		5:leaf=-0.204492092
		6:[f131355<0.100000001] yes=11,no=12,missing=11
			11:[f67129<0.300000012] yes=21,no=22,missing=21
				21:leaf=0.276411146
				22:leaf=0.485187352
			12:[f4369<0.700000048] yes=23,no=24,missing=23
				23:leaf=-0.0546798706
				24:leaf=0.153508633
booster[41]:
0:[f114697<0.700000048] yes=1,no=2,missing=1
	1:[f132540<0.100000001] yes=3,no=4,missing=3
		3:[f78330<0.400000006] yes=7,no=8,missing=7
			7:[f114680<0.5] yes=15,no=16,missing=15
				15:leaf=0.424291879
				16:leaf=0.128243148
			8:[f1039<0.5] yes=17,no=18,missing=17
				17:leaf=0.042108953
				18:leaf=-0.0134836435
		4:[f67118<0.5] yes=9,no=10,missing=9
			9:leaf=0.194125921
			10:[f8028<0.400000006] yes=19,no=20,missing=19
				19:leaf=-0.192743376
				20:leaf=0.0425979495
	2:[f177486<0.100000001] yes=5,no=6,missing=5
		5:[f8<0.600000024] yes=11,no=12,missing=11
			11:[f175472<0.100000001] yes=21,no=22,missing=21
				21:leaf=0.0129425908
				22:leaf=0.15222989
			12:[f65839<0.700000048] yes=23,no=24,missing=23
				23:leaf=0.497357517
				24:leaf=0.0881761685
		6:[f155432<0.100000001] yes=13,no=14,missing=13
			13:[f82818<0.400000006] yes=25,no=26,missing=25
				25:leaf=-0.0460601449
				26:leaf=0.125416651
			14:[f89154<0.700000048] yes=27,no=28,missing=27
				27:leaf=0.251167208
				28:leaf=0.531337917
booster[42]:
0:[f76777<0.600000024] yes=1,no=2,missing=1
	1:[f77856<0.5] yes=3,no=4,missing=3
		3:[f1770<0.300000012] yes=7,no=8,missing=7
			7:leaf=-0.328416348
			8:[f129234<0.100000001] yes=15,no=16,missing=15
				15:leaf=0.2541686
				16:leaf=0.144409552
		4:[f169244<0.200000003] yes=9,no=10,missing=9
			9:leaf=-0.274756014
			10:[f77964<0.400000006] yes=17,no=18,missing=17
				17:leaf=0.183736041
				18:leaf=-0.0966475606
	2:[f169281<0.100000001] yes=5,no=6,missing=5
		5:[f161816<0.700000048] yes=11,no=12,missing=11
			11:[f132543<0.700000048] yes=19,no=20,missing=19
				19:leaf=0.14294678
				20:leaf=0.637665272
			12:[f134792<0.700000048] yes=21,no=22,missing=21
				21:leaf=0.169792369
				22:leaf=0.0963542536
		6:[f177468<0.5] yes=13,no=14,missing=13
			13:[f3504<0.700000048] yes=23,no=24,missing=23
				23:leaf=0.520264685
				24:leaf=0.179824606
			14:[f78222<0.200000003] yes=25,no=26,missing=25
				25:leaf=-0.00177525065
				26:leaf=0.588482976
booster[43]:
0:[f177468<0.5] yes=1,no=2,missing=1
	1:[f101004<0.300000012] yes=3,no=4,missing=3
		3:[f177465<0.300000012] yes=7,no=8,missing=7
			7:[f78012<0.400000006] yes=15,no=16,missing=15
				15:leaf=0.280502111
				16:leaf=-0.178973168
			8:[f136568<0.400000006] yes=17,no=18,missing=17
				17:leaf=-0.257242292
				18:leaf=0.106004409
		4:[f67129<0.300000012] yes=9,no=10,missing=9
			9:[f67149<0.100000001] yes=19,no=20,missing=19
				19:leaf=0.233007282
				20:leaf=0.014262557
			10:[f168931<0.100000001] yes=21,no=22,missing=21
				21:leaf=0.28744176
				22:leaf=0.587169051
	2:[f169281<0.100000001] yes=5,no=6,missing=5
		5:[f44565<0.100000001] yes=11,no=12,missing=11
			11:[f38481<0.400000006] yes=23,no=24,missing=23
				23:leaf=0.356865019
				24:leaf=0.0990209132
			12:[f131568<0.300000012] yes=25,no=26,missing=25
				25:leaf=0.448582858
				26:leaf=0.211202309
		6:[f76838<0.200000003] yes=13,no=14,missing=13
			13:[f77964<0.400000006] yes=27,no=28,missing=27
				27:leaf=0.154621065
				28:leaf=-0.135046273
			14:[f67172<0.100000001] yes=29,no=30,missing=29
				29:leaf=0.0832748711
				30:leaf=-0.0366001129
booster[44]:
0:[f136803<0.700000048] yes=1,no=2,missing=1
	1:[f169280<0.100000001] yes=3,no=4,missing=3
		3:[f171146<0.300000012] yes=7,no=8,missing=7
			7:[f67142<0.100000001] yes=15,no=16,missing=15
				15:leaf=0.227101937
				16:leaf=0.595503628
			8:[f25785<0.600000024] yes=17,no=18,missing=17
				17:leaf=-0.0348495245
				18:leaf=0.285367608
		4:[f169280<0.700000048] yes=9,no=10,missing=9
			9:[f161120<0.400000006] yes=19,no=20,missing=19
				19:leaf=0.0963370129
				20:leaf=0.328190446
			10:[f67142<0.5] yes=21,no=22,missing=21
				21:leaf=0.260337383
				22:leaf=-0.0560746379
	2:[f129127<0.700000048] yes=5,no=6,missing=5
		5:[f43754<0.300000012] yes=11,no=12,missing=11
			11:[f119462<0.400000006] yes=23,no=24,missing=23
				23:leaf=-0.204413325
				24:leaf=0.0906315893
			12:[f152438<0.100000001] yes=25,no=26,missing=25
				25:leaf=0.0254573822
				26:leaf=0.42458573
		6:[f132537<0.5] yes=13,no=14,missing=13
			13:[f115125<0.100000001] yes=27,no=28,missing=27
				27:leaf=0.431480408
				28:leaf=-0.268654913
			14:[f177465<0.100000001] yes=29,no=30,missing=29
				29:leaf=0.0906334817
				30:leaf=0.0270059351
booster[45]:
0:[f65839<0.700000048] yes=1,no=2,missing=1
	1:[f172910<0.700000048] yes=3,no=4,missing=3
		3:[f1095<0.700000048] yes=7,no=8,missing=7
			7:leaf=-0.0566948652
			8:leaf=-0.337919384
		4:[f5048<0.700000048] yes=9,no=10,missing=9
			9:[f24<0.400000006] yes=15,no=16,missing=15
				15:leaf=-0.122227311
				16:leaf=0.0212142467
			10:[f24<0.400000006] yes=17,no=18,missing=17
				17:leaf=0.438719958
				18:leaf=0.266612023
	2:[f169280<0.700000048] yes=5,no=6,missing=5
		5:[f155702<0.700000048] yes=11,no=12,missing=11
			11:[f155701<0.700000048] yes=19,no=20,missing=19
				19:leaf=0.497242868
				20:leaf=0.061882522
			12:[f130779<0.100000001] yes=21,no=22,missing=21
				21:leaf=0.0699343383
				22:leaf=0.559614778
		6:[f40032<0.100000001] yes=13,no=14,missing=13
			13:[f67122<0.300000012] yes=23,no=24,missing=23
				23:leaf=0.168056011
				24:leaf=0.0600498654
			14:leaf=0.674420714
booster[46]:
0:[f131366<0.700000048] yes=1,no=2,missing=1
	1:[f160807<0.700000048] yes=3,no=4,missing=3
		3:[f142182<0.700000048] yes=7,no=8,missing=7
			7:leaf=0.57650578
			8:[f136578<0.5] yes=15,no=16,missing=15
				15:leaf=0.240242317
				16:leaf=0.0105822636
		4:[f128810<0.700000048] yes=9,no=10,missing=9
			9:[f8520<0.700000048] yes=17,no=18,missing=17
				17:leaf=0.0261845589
				18:leaf=0.463255465
			10:[f89154<0.5] yes=19,no=20,missing=19
				19:leaf=0.154083595
				20:leaf=0.068850331
	2:[f131330<0.400000006] yes=5,no=6,missing=5
		5:[f160819<0.400000006] yes=11,no=12,missing=11
			11:[f132531<0.700000048] yes=21,no=22,missing=21
				21:leaf=0.232922733
				22:leaf=0.502787352
			12:[f4831<0.400000006] yes=23,no=24,missing=23
				23:leaf=0.0878728628
				24:leaf=-0.0426741838
		6:[f8<0.400000006] yes=13,no=14,missing=13
			13:leaf=-0.154156089
			14:leaf=-0.0121965408
booster[47]:
0:[f134792<0.700000048] yes=1,no=2,missing=1
	1:[f134792<0.100000001] yes=3,no=4,missing=3
		3:[f129995<0.300000012] yes=7,no=8,missing=7
			7:[f3024<0.700000048] yes=15,no=16,missing=15
				15:leaf=-0.315643609
				16:leaf=0.139303222
			8:[f89157<0.300000012] yes=17,no=18,missing=17
				17:leaf=0.00208851439
				18:leaf=0.142538562
		4:[f131352<0.5] yes=9,no=10,missing=9
			9:[f169281<0.300000012] yes=19,no=20,missing=19
				19:leaf=0.184757799
				20:leaf=-0.380682498
			10:[f67142<0.100000001] yes=21,no=22,missing=21
				21:leaf=0.232905596
				22:leaf=0.480401903
	2:[f89157<0.5] yes=5,no=6,missing=5
		5:[f64129<0.700000048] yes=11,no=12,missing=11
			11:[f55194<0.100000001] yes=23,no=24,missing=23
				23:leaf=0.448848307
				24:leaf=0.116095521
			12:[f30499<0.700000048] yes=25,no=26,missing=25
				25:leaf=0.191784292
				26:leaf=0.0575333945
		6:[f163687<0.5] yes=13,no=14,missing=13
			13:[f8028<0.700000048] yes=27,no=28,missing=27
				27:leaf=0.180131525
				28:leaf=0.408988655
			14:[f76826<0.400000006] yes=29,no=30,missing=29
				29:leaf=-0.319577903
				30:leaf=0.0299916267
booster[48]:
0:[f136803<0.700000048] yes=1,no=2,missing=1
	1:[f169280<0.100000001] yes=3,no=4,missing=3
		3:[f133634<0.400000006] yes=7,no=8,missing=7
			7:[f67137<0.600000024] yes=15,no=16,missing=15
				15:leaf=0.163740933
				16:leaf=0.448827058
			8:[f137940<0.400000006] yes=17,no=18,missing=17
				17:leaf=-0.100314409
				18:leaf=0.144243553
		4:[f169239<0.700000048] yes=9,no=10,missing=9
			9:[f169280<0.5] yes=19,no=20,missing=19
				19:leaf=-0.00790431909
				20:leaf=0.127018437
			10:[f38485<0.400000006] yes=21,no=22,missing=21
				21:leaf=0.311339945
				22:leaf=-0.114090227
	2:[f123469<0.100000001] yes=5,no=6,missing=5
		5:[f134460<0.400000006] yes=11,no=12,missing=11
			11:[f26<0.400000006] yes=23,no=24,missing=23
				23:leaf=0.115768217
				24:leaf=0.302243441
			12:[f64129<0.700000048] yes=25,no=26,missing=25
				25:leaf=0.348349154
				26:leaf=0.0557216145
		6:[f24498<0.5] yes=13,no=14,missing=13
			13:[f8<0.400000006] yes=27,no=28,missing=27
				27:leaf=-0.0170103312
				28:leaf=0.0324604511
			14:leaf=0.515010238
booster[49]:
0:[f177468<0.700000048] yes=1,no=2,missing=1
	1:[f101006<0.300000012] yes=3,no=4,missing=3
		3:[f67129<0.300000012] yes=7,no=8,missing=7
			7:[f1346<0.100000001] yes=15,no=16,missing=15
				15:leaf=0.198782951
				16:leaf=0.0217220783
			8:[f169248<0.5] yes=17,no=18,missing=17
				17:leaf=0.526301563
				18:leaf=0.105772637
		4:[f67173<0.5] yes=9,no=10,missing=9
			9:[f78888<0.400000006] yes=19,no=20,missing=19
				19:leaf=0.0198771562
				20:leaf=0.164902955
			10:[f25770<0.700000048] yes=21,no=22,missing=21
				21:leaf=-0.32123673
				22:leaf=0.243025824
	2:[f68522<0.700000048] yes=5,no=6,missing=5
		5:[f12918<0.400000006] yes=11,no=12,missing=11
			11:leaf=0.00261777639
			12:[f3721<0.100000001] yes=23,no=24,missing=23
				23:leaf=0.540471494
				24:leaf=0.0602930784
		6:[f160807<0.700000048] yes=13,no=14,missing=13
			13:[f142182<0.700000048] yes=25,no=26,missing=25
				25:leaf=0.568847597
				26:leaf=0.139275163
			14:[f128810<0.700000048] yes=27,no=28,missing=27
				27:leaf=0.382725775
				28:leaf=0.0576995127
booster[50]:
0:[f169244<0.200000003] yes=1,no=2,missing=1
	1:[f67137<0.700000048] yes=3,no=4,missing=3
		3:[f40713<0.400000006] yes=7,no=8,missing=7
			7:leaf=-0.33437106
			8:[f169221<0.600000024] yes=15,no=16,missing=15
				15:leaf=-0.1458956
				16:leaf=0.159917429
		4:[f169268<0.100000001] yes=9,no=10,missing=9
			9:[f14215<0.200000003] yes=17,no=18,missing=17
				17:leaf=-0.00706928968
				18:leaf=0.44856289
			10:[f177465<0.300000012] yes=19,no=20,missing=19
				19:leaf=0.198142841
				20:leaf=-0.158311009
	2:[f83480<0.100000001] yes=5,no=6,missing=5
		5:[f160807<0.700000048] yes=11,no=12,missing=11
			11:[f142182<0.700000048] yes=21,no=22,missing=21
				21:leaf=0.555320382
				22:leaf=0.156666294
			12:[f8<0.600000024] yes=23,no=24,missing=23
				23:leaf=0.0881741568
				24:leaf=0.0420733765
		6:[f35635<0.100000001] yes=13,no=14,missing=13
			13:[f83480<0.700000048] yes=25,no=26,missing=25
				25:leaf=0.46407944
				26:leaf=0.033516489
			14:[f66600<0.100000001] yes=27,no=28,missing=27
				27:leaf=0.608602166
				28:leaf=0.285853535
booster[51]:
0:[f79797<0.400000006] yes=1,no=2,missing=1
	1:[f1770<0.300000012] yes=3,no=4,missing=3
		3:leaf=-0.332776845
		4:[f153091<0.100000001] yes=7,no=8,missing=7
			7:leaf=-0.134776667
			8:[f177615<0.5] yes=13,no=14,missing=13
				13:leaf=0.195437491
				14:leaf=-0.309555054
	2:[f67172<0.100000001] yes=5,no=6,missing=5
		5:[f58591<0.700000048] yes=9,no=10,missing=9
			9:[f78565<0.100000001] yes=15,no=16,missing=15
				15:leaf=0.257550925
				16:leaf=0.530068696
			10:[f5751<0.700000048] yes=17,no=18,missing=17
				17:leaf=0.0793590993
				18:leaf=0.0306957755
		6:[f129205<0.5] yes=11,no=12,missing=11
			11:[f78222<0.400000006] yes=19,no=20,missing=19
				19:leaf=0.0550088733
				20:leaf=0.460694104
			12:[f131337<0.700000048] yes=21,no=22,missing=21
				21:leaf=0.0256681088
				22:leaf=-0.0478859693
booster[52]:
0:[f76316<0.100000001] yes=1,no=2,missing=1
	1:[f89154<0.300000012] yes=3,no=4,missing=3
		3:[f130477<0.200000003] yes=7,no=8,missing=7
			7:[f77028<0.400000006] yes=15,no=16,missing=15
				15:leaf=0.139822155
				16:leaf=-0.192188323
			8:[f131352<0.700000048] yes=17,no=18,missing=17
				17:leaf=0.131639957
				18:leaf=0.426956266
		4:[f118773<0.700000048] yes=9,no=10,missing=9
			9:[f28831<0.400000006] yes=19,no=20,missing=19
				19:leaf=0.41501382
				20:leaf=0.0474265814
			10:[f133365<0.700000048] yes=21,no=22,missing=21
				21:leaf=0.111404911
				22:leaf=0.0433773212
	2:[f12073<0.700000048] yes=5,no=6,missing=5
		5:[f530<0.600000024] yes=11,no=12,missing=11
			11:leaf=-0.0176154375
			12:[f5036<0.600000024] yes=23,no=24,missing=23
				23:leaf=0.039891839
				24:leaf=0.217048615
		6:[f89154<0.700000048] yes=13,no=14,missing=13
			13:leaf=0.117767811
			14:leaf=0.503117442
booster[53]:
0:[f114697<0.700000048] yes=1,no=2,missing=1
	1:[f131355<0.100000001] yes=3,no=4,missing=3
		3:[f114678<0.300000012] yes=7,no=8,missing=7
			7:leaf=0.0401464105
			8:[f89157<0.100000001] yes=13,no=14,missing=13
				13:leaf=0.370961636
				14:leaf=0.216881827
		4:[f131366<0.5] yes=9,no=10,missing=9
			9:leaf=0.0839762092
			10:[f4369<0.700000048] yes=15,no=16,missing=15
				15:leaf=-0.0764451027
				16:leaf=-0.00197166204
	2:[f47900<0.700000048] yes=5,no=6,missing=5
		5:leaf=0.449037731
		6:[f14305<0.200000003] yes=11,no=12,missing=11
			11:[f23084<0.400000006] yes=17,no=18,missing=17
				17:leaf=0.576614261
				18:leaf=0.0561004877
			12:[f83481<0.700000048] yes=19,no=20,missing=19
				19:leaf=0.171602353
				20:leaf=0.0446373709
booster[54]:
0:[f129990<0.100000001] yes=1,no=2,missing=1
	1:[f115124<0.700000048] yes=3,no=4,missing=3
		3:leaf=-0.271950036
		4:[f67125<0.300000012] yes=7,no=8,missing=7
			7:[f111519<0.100000001] yes=13,no=14,missing=13
				13:leaf=0.205372393
				14:leaf=-0.0736403838
			8:[f134166<0.400000006] yes=15,no=16,missing=15
				15:leaf=0.0679260492
				16:leaf=0.443112999
	2:[f38481<0.400000006] yes=5,no=6,missing=5
		5:[f169239<0.100000001] yes=9,no=10,missing=9
			9:[f67125<0.400000006] yes=17,no=18,missing=17
				17:leaf=0.24133487
				18:leaf=0.656525612
			10:[f160857<0.400000006] yes=19,no=20,missing=19
				19:leaf=0.447429866
				20:leaf=0.119619533
		6:[f105201<0.100000001] yes=11,no=12,missing=11
			11:[f44563<0.700000048] yes=21,no=22,missing=21
				21:leaf=0.226509809
				22:leaf=0.0407441556
			12:[f615<0.400000006] yes=23,no=24,missing=23
				23:leaf=0.303439438
				24:leaf=-0.160459846
booster[55]:
0:[f129721<0.100000001] yes=1,no=2,missing=1
	1:[f77379<0.400000006] yes=3,no=4,missing=3
		3:[f129243<0.300000012] yes=7,no=8,missing=7
			7:[f77054<0.400000006] yes=15,no=16,missing=15
				15:leaf=0.0629456639
				16:leaf=-0.09823329
			8:[f76933<0.400000006] yes=17,no=18,missing=17
				17:leaf=0.240537763
				18:leaf=0.0258973036
		4:[f89154<0.700000048] yes=9,no=10,missing=9
			9:[f169273<0.200000003] yes=19,no=20,missing=19
				19:leaf=-0.106020942
				20:leaf=0.110357687
			10:[f5749<0.400000006] yes=21,no=22,missing=21
				21:leaf=0.114358127
				22:leaf=-0.232228652
	2:[f65839<0.700000048] yes=5,no=6,missing=5
		5:[f172910<0.700000048] yes=11,no=12,missing=11
			11:[f1097<0.100000001] yes=23,no=24,missing=23
				23:leaf=-0.340056658
				24:leaf=-0.0782339573
			12:[f167101<0.100000001] yes=25,no=26,missing=25
				25:leaf=0.287400633
				26:leaf=-0.17750904
		6:[f162645<0.700000048] yes=13,no=14,missing=13
			13:[f38474<0.300000012] yes=27,no=28,missing=27
				27:leaf=0.0583647937
				28:leaf=0.302193791
			14:[f67119<0.100000001] yes=29,no=30,missing=29
				29:leaf=0.0449833646
				30:leaf=-0.0321575105
booster[56]:
0:[f137767<0.700000048] yes=1,no=2,missing=1
	1:[f176305<0.700000048] yes=3,no=4,missing=3
		3:[f432<0.200000003] yes=7,no=8,missing=7
			7:[f8<0.400000006] yes=15,no=16,missing=15
				15:leaf=-0.0014988184
				16:leaf=-0.01799196
			8:leaf=-0.165759265
		4:[f131366<0.5] yes=9,no=10,missing=9
			9:[f134316<0.400000006] yes=17,no=18,missing=17
				17:leaf=0.284641892
				18:leaf=0.113287307
			10:[f161677<0.400000006] yes=19,no=20,missing=19
				19:leaf=0.223476067
				20:leaf=-0.0394684561
	2:[f128810<0.700000048] yes=5,no=6,missing=5
		5:[f128845<0.300000012] yes=11,no=12,missing=11
			11:[f8172<0.400000006] yes=21,no=22,missing=21
				21:leaf=0.185034722
				22:leaf=0.0143606067
			12:[f12073<0.700000048] yes=23,no=24,missing=23
				23:leaf=0.127424523
				24:leaf=0.536704659
		6:[f14307<0.600000024] yes=13,no=14,missing=13
			13:[f177465<0.300000012] yes=25,no=26,missing=25
				25:leaf=0.0445251018
				26:leaf=-0.00725848274
			14:[f23082<0.400000006] yes=27,no=28,missing=27
				27:leaf=0.0516683459
				28:leaf=0.542117298
booster[57]:
0:[f78823<0.400000006] yes=1,no=2,missing=1
	1:[f14307<0.600000024] yes=3,no=4,missing=3
		3:[f137871<0.700000048] yes=7,no=8,missing=7
			7:[f136782<0.400000006] yes=9,no=10,missing=9
				9:leaf=0.194534883
				10:leaf=-0.0189610384
			8:[f130479<0.5] yes=11,no=12,missing=11
				11:leaf=0.289327055
				12:leaf=0.0369221121
		4:leaf=0.513881981
	2:[f77307<0.400000006] yes=5,no=6,missing=5
		5:leaf=0.231791213
		6:leaf=0.619699001
booster[58]:
0:[f26911<0.700000048] yes=1,no=2,missing=1
	1:[f169277<0.100000001] yes=3,no=4,missing=3
		3:[f4983<0.400000006] yes=7,no=8,missing=7
			7:leaf=-0.0769799352
			8:[f2362<0.100000001] yes=15,no=16,missing=15
				15:leaf=0.369567245
				16:leaf=-0.044428587
		4:[f19104<0.400000006] yes=9,no=10,missing=9
			9:leaf=-0.0602636337
			10:leaf=0.0897000208
	2:[f65839<0.700000048] yes=5,no=6,missing=5
		5:[f56751<0.200000003] yes=11,no=12,missing=11
			11:[f133467<0.400000006] yes=17,no=18,missing=17
				17:leaf=-0.0548013262
				18:leaf=0.26990971
			12:leaf=-0.241267636
		6:[f78823<0.400000006] yes=13,no=14,missing=13
			13:[f122184<0.700000048] yes=19,no=20,missing=19
				19:leaf=0.250253052
				20:leaf=0.0348756909
			14:[f2347<0.600000024] yes=21,no=22,missing=21
				21:leaf=0.162029028
				22:leaf=0.588714063
booster[59]:
0:[f65839<0.700000048] yes=1,no=2,missing=1
	1:[f167103<0.700000048] yes=3,no=4,missing=3
		3:[f12073<0.700000048] yes=7,no=8,missing=7
			7:leaf=0.0074545145
			8:leaf=-0.231214806
		4:[f21<0.400000006] yes=9,no=10,missing=9
			9:[f133317<0.400000006] yes=15,no=16,missing=15
				15:leaf=-0.0126462178
				16:leaf=0.187218741
			10:[f76771<0.400000006] yes=17,no=18,missing=17
				17:leaf=0.0996632576
				18:leaf=0.41928497
	2:[f114696<0.100000001] yes=5,no=6,missing=5
		5:[f36<0.400000006] yes=11,no=12,missing=11
			11:[f167510<0.100000001] yes=19,no=20,missing=19
				19:leaf=-0.0449176729
				20:leaf=0.0691772401
			12:[f134773<0.700000048] yes=21,no=22,missing=21
				21:leaf=0.274313897
				22:leaf=0.0191889424
		6:[f2057<0.100000001] yes=13,no=14,missing=13
			13:[f23965<0.700000048] yes=23,no=24,missing=23
				23:leaf=-0.0255638063
				24:leaf=0.244938388
			14:leaf=-0.219327629
booster[60]:
0:[f173358<0.100000001] yes=1,no=2,missing=1
	1:[f8<0.600000024] yes=3,no=4,missing=3
		3:[f67172<0.100000001] yes=7,no=8,missing=7
			7:[f154502<0.100000001] yes=15,no=16,missing=15
				15:leaf=0.0265367255
				16:leaf=0.0882683918
			8:[f28302<0.300000012] yes=17,no=18,missing=17
				17:leaf=-0.0511784814
				18:leaf=0.317029357
		4:[f134773<0.700000048] yes=9,no=10,missing=9
			9:[f3162<0.100000001] yes=19,no=20,missing=19
				19:leaf=0.316710681
				20:leaf=-0.293365002
			10:[f169280<0.700000048] yes=21,no=22,missing=21
				21:leaf=0.00686352374
				22:leaf=0.0769440383
	2:[f68130<0.100000001] yes=5,no=6,missing=5
		5:[f168576<0.700000048] yes=11,no=12,missing=11
			11:[f129978<0.600000024] yes=23,no=24,missing=23
				23:leaf=-0.00901836157
				24:leaf=0.548803508
			12:[f163363<0.100000001] yes=25,no=26,missing=25
				25:leaf=-0.0574436411
				26:leaf=0.283437014
		6:[f83480<0.100000001] yes=13,no=14,missing=13
			13:[f656<0.100000001] yes=27,no=28,missing=27
				27:leaf=0.56940341
				28:leaf=-0.0215183496
			14:[f177487<0.700000048] yes=29,no=30,missing=29
				29:leaf=0.246023968
				30:leaf=0.0470877588
booster[61]:
0:[f79797<0.400000006] yes=1,no=2,missing=1
	1:[f1770<0.300000012] yes=3,no=4,missing=3
		3:leaf=-0.332828045
		4:[f89154<0.700000048] yes=7,no=8,missing=7
			7:[f130015<0.700000048] yes=13,no=14,missing=13
				13:leaf=0.0696406886
				14:leaf=0.360785007
			8:[f89449<0.5] yes=15,no=16,missing=15
				15:leaf=0.208000794
				16:leaf=-0.118780702
	2:[f129995<0.100000001] yes=5,no=6,missing=5
		5:[f129983<0.100000001] yes=9,no=10,missing=9
			9:[f162030<0.600000024] yes=17,no=18,missing=17
				17:leaf=0.536821008
				18:leaf=0.0282914229
			10:[f76921<0.400000006] yes=19,no=20,missing=19
				19:leaf=-0.041143965
				20:leaf=0.163669914
		6:[f162567<0.400000006] yes=11,no=12,missing=11
			11:[f132543<0.700000048] yes=21,no=22,missing=21
				21:leaf=0.0855395943
				22:leaf=0.394701481
			12:[f172328<0.700000048] yes=23,no=24,missing=23
				23:leaf=0.356572807
				24:leaf=-0.0157397389
booster[62]:
0:[f89154<0.300000012] yes=1,no=2,missing=1
	1:[f163687<0.5] yes=3,no=4,missing=3
		3:[f123469<0.100000001] yes=7,no=8,missing=7
			7:[f8028<0.700000048] yes=13,no=14,missing=13
				13:leaf=0.111871541
				14:leaf=0.323672742
			8:leaf=0.402597994
		4:[f67137<0.700000048] yes=9,no=10,missing=9
			9:[f9163<0.700000048] yes=15,no=16,missing=15
				15:leaf=0.0133821964
				16:leaf=-0.294967681
			10:[f67122<0.200000003] yes=17,no=18,missing=17
				17:leaf=0.0935364142
				18:leaf=0.0319007635
	2:[f153280<0.100000001] yes=5,no=6,missing=5
		5:[f128810<0.700000048] yes=11,no=12,missing=11
			11:[f8<0.400000006] yes=19,no=20,missing=19
				19:leaf=0.191868231
				20:leaf=0.512772262
			12:[f77449<0.600000024] yes=21,no=22,missing=21
				21:leaf=0.0925459266
				22:leaf=0.016417807
		6:leaf=0.515749395
booster[63]:
0:[f133140<0.700000048] yes=1,no=2,missing=1
	1:leaf=0.599777222
	2:[f40032<0.100000001] yes=3,no=4,missing=3
		3:[f46730<0.700000048] yes=5,no=6,missing=5
			5:[f62088<0.400000006] yes=9,no=10,missing=9
				9:leaf=0.531656623
				10:leaf=0.140471861
			6:[f162566<0.400000006] yes=11,no=12,missing=11
				11:leaf=0.0239592604
				12:leaf=0.501536489
		4:[f5030<0.100000001] yes=7,no=8,missing=7
			7:leaf=0.593761563
			8:leaf=0.154033184
booster[64]:
0:[f166845<0.700000048] yes=1,no=2,missing=1
	1:[f61309<0.700000048] yes=3,no=4,missing=3
		3:[f135297<0.400000006] yes=7,no=8,missing=7
			7:[f3379<0.600000024] yes=15,no=16,missing=15
				15:leaf=-0.249290884
				16:leaf=0.0545046292
			8:[f8<0.400000006] yes=17,no=18,missing=17
				17:leaf=0.200382769
				18:leaf=0.450998545
		4:[f169239<0.700000048] yes=9,no=10,missing=9
			9:[f76771<0.200000003] yes=19,no=20,missing=19
				19:leaf=0.0960113332
				20:leaf=0.0117345555
			10:[f78002<0.400000006] yes=21,no=22,missing=21
				21:leaf=0.151320025
				22:leaf=-0.219825223
	2:[f61309<0.100000001] yes=5,no=6,missing=5
		5:[f136988<0.700000048] yes=11,no=12,missing=11
			11:leaf=0.342636138
			12:[f172970<0.700000048] yes=23,no=24,missing=23
				23:leaf=0.517105758
				24:leaf=-0.0334567167
		6:[f134073<0.400000006] yes=13,no=14,missing=13
			13:[f88227<0.100000001] yes=25,no=26,missing=25
				25:leaf=0.0753753483
				26:leaf=-0.163512737
			14:[f109938<0.700000048] yes=27,no=28,missing=27
				27:leaf=0.295707226
				28:leaf=0.0202066991
booster[65]:
0:[f101004<0.100000001] yes=1,no=2,missing=1
	1:[f78823<0.400000006] yes=3,no=4,missing=3
		3:[f129240<0.100000001] yes=7,no=8,missing=7
			7:[f131318<0.100000001] yes=15,no=16,missing=15
				15:leaf=0.0685364977
				16:leaf=0.0156836528
			8:[f89157<0.100000001] yes=17,no=18,missing=17
				17:leaf=-0.0493242219
				18:leaf=0.0547469556
		4:[f77319<0.400000006] yes=9,no=10,missing=9
			9:leaf=0.196064711
			10:leaf=0.549844205
	2:[f69897<0.700000048] yes=5,no=6,missing=5
		5:[f67137<0.5] yes=11,no=12,missing=11
			11:[f25927<0.400000006] yes=19,no=20,missing=19
				19:leaf=0.143425763
				20:leaf=-0.0346024819
			12:[f17119<0.200000003] yes=21,no=22,missing=21
				21:leaf=0.154283613
				22:leaf=0.482700497
		6:[f169236<0.100000001] yes=13,no=14,missing=13
			13:[f129217<0.200000003] yes=23,no=24,missing=23
				23:leaf=0.286063582
				24:leaf=0.0539783947
			14:[f5906<0.400000006] yes=25,no=26,missing=25
				25:leaf=0.506273806
				26:leaf=-0.0139904376
booster[66]:
0:[f83481<0.700000048] yes=1,no=2,missing=1
	1:[f35635<0.5] yes=3,no=4,missing=3
		3:[f83480<0.700000048] yes=7,no=8,missing=7
			7:[f77509<0.700000048] yes=15,no=16,missing=15
				15:leaf=0.0621513128
				16:leaf=0.456425637
			8:[f93973<0.300000012] yes=17,no=18,missing=17
				17:leaf=0.447218537
				18:leaf=0.0263864342
		4:[f67386<0.100000001] yes=9,no=10,missing=9
			9:[f46951<0.700000048] yes=19,no=20,missing=19
				19:leaf=0.18806076
				20:leaf=0.607090354
			10:[f167101<0.100000001] yes=21,no=22,missing=21
				21:leaf=0.204664528
				22:leaf=0.0239621643
	2:[f128810<0.700000048] yes=5,no=6,missing=5
		5:[f8<0.400000006] yes=11,no=12,missing=11
			11:[f128847<0.300000012] yes=23,no=24,missing=23
				23:leaf=0.248353004
				24:leaf=0.0360234976
			12:leaf=0.512122273
		6:[f76316<0.100000001] yes=13,no=14,missing=13
			13:[f78823<0.400000006] yes=25,no=26,missing=25
				25:leaf=0.01531957
				26:leaf=0.453635126
			14:[f89154<0.700000048] yes=27,no=28,missing=27
				27:leaf=0.0630675778
				28:leaf=0.401718765
booster[67]:
0:[f160879<0.600000024] yes=1,no=2,missing=1
	1:[f136652<0.5] yes=3,no=4,missing=3
		3:[f160977<0.400000006] yes=7,no=8,missing=7
			7:[f161623<0.400000006] yes=15,no=16,missing=15
				15:leaf=0.0436734334
				16:leaf=0.326175481
			8:[f161563<0.400000006] yes=17,no=18,missing=17
				17:leaf=-0.241173536
				18:leaf=-0.0250987113
		4:[f38475<0.300000012] yes=9,no=10,missing=9
			9:[f17971<0.400000006] yes=19,no=20,missing=19
				19:leaf=-0.0504578352
				20:leaf=0.43733266
			10:[f38475<0.5] yes=21,no=22,missing=21
				21:leaf=-0.0709196329
				22:leaf=0.135025978
	2:[f68479<0.100000001] yes=5,no=6,missing=5
		5:[f129967<0.400000006] yes=11,no=12,missing=11
			11:[f13338<0.400000006] yes=23,no=24,missing=23
				23:leaf=0.607639372
				24:leaf=-0.0356381536
			12:[f172556<0.400000006] yes=25,no=26,missing=25
				25:leaf=0.16534631
				26:leaf=-0.15093492
		6:[f30501<0.100000001] yes=13,no=14,missing=13
			13:[f65839<0.700000048] yes=27,no=28,missing=27
				27:leaf=0.169971645
				28:leaf=0.0143866353
			14:[f134370<0.400000006] yes=29,no=30,missing=29
				29:leaf=-0.209926933
				30:leaf=0.22726059
booster[68]:
0:[f177468<0.200000003] yes=1,no=2,missing=1
	1:[f169275<0.100000001] yes=3,no=4,missing=3
		3:[f67139<0.300000012] yes=7,no=8,missing=7
			7:[f177612<0.300000012] yes=13,no=14,missing=13
				13:leaf=0.149972409
				14:leaf=0.012700865
			8:leaf=0.441634953
		4:leaf=0.580227315
	2:[f169281<0.100000001] yes=5,no=6,missing=5
		5:[f5751<0.700000048] yes=9,no=10,missing=9
			9:[f109938<0.700000048] yes=15,no=16,missing=15
				15:leaf=0.131518409
				16:leaf=0.0232601669
			10:[f8<0.400000006] yes=17,no=18,missing=17
				17:leaf=0.0353135914
				18:leaf=-0.0496102571
		6:[f76814<0.300000012] yes=11,no=12,missing=11
			11:[f77487<0.400000006] yes=19,no=20,missing=19
				19:leaf=0.0796529651
				20:leaf=-0.189358711
			12:[f38485<0.5] yes=21,no=22,missing=21
				21:leaf=-0.0717114955
				22:leaf=0.0579924732
booster[69]:
0:[f127221<0.700000048] yes=1,no=2,missing=1
	1:[f109938<0.700000048] yes=3,no=4,missing=3
		3:[f24<0.400000006] yes=7,no=8,missing=7
			7:[f172273<0.100000001] yes=15,no=16,missing=15
				15:leaf=0.12955381
				16:leaf=0.409676492
			8:[f133581<0.600000024] yes=17,no=18,missing=17
				17:leaf=0.0185709074
				18:leaf=0.171773314
		4:[f169280<0.700000048] yes=9,no=10,missing=9
			9:[f129127<0.700000048] yes=19,no=20,missing=19
				19:leaf=0.159181282
				20:leaf=0.00336403842
			10:[f67142<0.100000001] yes=21,no=22,missing=21
				21:leaf=0.158606231
				22:leaf=0.0495389961
	2:[f154503<0.700000048] yes=5,no=6,missing=5
		5:[f135453<0.400000006] yes=11,no=12,missing=11
			11:[f84115<0.5] yes=23,no=24,missing=23
				23:leaf=-0.253813952
				24:leaf=-0.027150834
			12:[f102812<0.400000006] yes=25,no=26,missing=25
				25:leaf=0.172872618
				26:leaf=-0.193972483
		6:[f166843<0.5] yes=13,no=14,missing=13
			13:[f149059<0.400000006] yes=27,no=28,missing=27
				27:leaf=0.306592673
				28:leaf=-0.0416836105
			14:[f4477<0.400000006] yes=29,no=30,missing=29
				29:leaf=0.351085544
				30:leaf=0.00692909956
booster[70]:
0:[f173358<0.100000001] yes=1,no=2,missing=1
	1:[f47900<0.700000048] yes=3,no=4,missing=3
		3:[f6390<0.100000001] yes=7,no=8,missing=7
			7:leaf=0.388578296
			8:leaf=0.0462011099
		4:[f78823<0.400000006] yes=9,no=10,missing=9
			9:[f67122<0.100000001] yes=15,no=16,missing=15
				15:leaf=0.0238611829
				16:leaf=-0.0188557953
			10:[f2347<0.600000024] yes=17,no=18,missing=17
				17:leaf=0.125774562
				18:leaf=0.497832835
	2:[f176115<0.300000012] yes=5,no=6,missing=5
		5:[f89157<0.100000001] yes=11,no=12,missing=11
			11:[f8<0.400000006] yes=19,no=20,missing=19
				19:leaf=-0.234610081
				20:leaf=0.497710347
			12:[f32659<0.5] yes=21,no=22,missing=21
				21:leaf=-0.021731535
				22:leaf=0.0999382213
		6:[f30499<0.700000048] yes=13,no=14,missing=13
			13:leaf=0.367229491
			14:[f19112<0.400000006] yes=23,no=24,missing=23
				23:leaf=0.445850253
				24:leaf=-0.0284752157
booster[71]:
0:[f173358<0.100000001] yes=1,no=2,missing=1
	1:[f78987<0.400000006] yes=3,no=4,missing=3
		3:[f38481<0.400000006] yes=7,no=8,missing=7
			7:[f118988<0.600000024] yes=15,no=16,missing=15
				15:leaf=-0.190157562
				16:leaf=0.225857362
			8:[f129990<0.100000001] yes=17,no=18,missing=17
				17:leaf=0.289469689
				18:leaf=0.00726030488
		4:[f1770<0.300000012] yes=9,no=10,missing=9
			9:leaf=-0.331869423
			10:[f172430<0.700000048] yes=19,no=20,missing=19
				19:leaf=-0.242895246
				20:leaf=0.125906914
	2:[f176115<0.700000048] yes=5,no=6,missing=5
		5:[f53714<0.100000001] yes=11,no=12,missing=11
			11:[f89154<0.700000048] yes=21,no=22,missing=21
				21:leaf=0.0679658428
				22:leaf=0.512605548
			12:[f135645<0.700000048] yes=23,no=24,missing=23
				23:leaf=-0.165503547
				24:leaf=0.125357375
		6:[f10314<0.400000006] yes=13,no=14,missing=13
			13:[f168552<0.100000001] yes=25,no=26,missing=25
				25:leaf=0.0172093101
				26:leaf=-0.14550674
			14:[f1857<0.400000006] yes=27,no=28,missing=27
				27:leaf=0.459218621
				28:leaf=-0.159314692
booster[72]:
0:[f129987<0.700000048] yes=1,no=2,missing=1
	1:[f38485<0.5] yes=3,no=4,missing=3
		3:[f169248<0.400000006] yes=7,no=8,missing=7
			7:[f132543<0.300000012] yes=13,no=14,missing=13
				13:leaf=0.0620879941
				14:leaf=-0.205086514
			8:[f24482<0.400000006] yes=15,no=16,missing=15
				15:leaf=-0.00594228506
				16:leaf=0.296136826
		4:[f89154<0.5] yes=9,no=10,missing=9
			9:[f38481<0.400000006] yes=17,no=18,missing=17
				17:leaf=0.0264228582
				18:leaf=0.138106585
			10:[f38475<0.700000048] yes=19,no=20,missing=19
				19:leaf=0.541784108
				20:leaf=0.0965326428
	2:[f7236<0.700000048] yes=5,no=6,missing=5
		5:leaf=0.48267737
		6:[f136803<0.5] yes=11,no=12,missing=11
			11:[f136209<0.400000006] yes=21,no=22,missing=21
				21:leaf=-0.0437026322
				22:leaf=0.0997181162
			12:[f38484<0.100000001] yes=23,no=24,missing=23
				23:leaf=0.0192464124
				24:leaf=-0.0555417426
booster[73]:
0:[f97963<0.100000001] yes=1,no=2,missing=1
	1:[f11413<0.400000006] yes=3,no=4,missing=3
		3:leaf=-0.0200554132
		4:[f31585<0.400000006] yes=7,no=8,missing=7
			7:leaf=-0.0377211571
			8:leaf=-0.300074875
	2:[f162807<0.700000048] yes=5,no=6,missing=5
		5:[f162807<0.100000001] yes=9,no=10,missing=9
			9:[f131318<0.700000048] yes=13,no=14,missing=13
				13:leaf=0.0779748037
				14:leaf=0.384050071
			10:leaf=0.547133982
		6:[f38484<0.100000001] yes=11,no=12,missing=11
			11:[f135235<0.100000001] yes=15,no=16,missing=15
				15:leaf=0.0170092769
				16:leaf=0.0898404717
			12:[f108948<0.700000048] yes=17,no=18,missing=17
				17:leaf=0.431544155
				18:leaf=-0.0562880859
booster[74]:
0:[f155702<0.700000048] yes=1,no=2,missing=1
	1:[f155702<0.100000001] yes=3,no=4,missing=3
		3:[f131571<0.5] yes=7,no=8,missing=7
			7:[f72788<0.100000001] yes=15,no=16,missing=15
				15:leaf=0.0614537895
				16:leaf=0.390873224
			8:[f25315<0.400000006] yes=17,no=18,missing=17
				17:leaf=0.395307064
				18:leaf=-0.157767862
		4:[f134100<0.400000006] yes=9,no=10,missing=9
			9:[f35635<0.5] yes=19,no=20,missing=19
				19:leaf=0.0569658875
				20:leaf=0.509523571
			10:leaf=-0.35534972
	2:[f164101<0.100000001] yes=5,no=6,missing=5
		5:[f102129<0.700000048] yes=11,no=12,missing=11
			11:[f169651<0.700000048] yes=21,no=22,missing=21
				21:leaf=0.31436047
				22:leaf=0.011861722
			12:[f30277<0.400000006] yes=23,no=24,missing=23
				23:leaf=0.410680413
				24:leaf=-0.100622974
		6:[f129978<0.600000024] yes=13,no=14,missing=13
			13:[f23899<0.600000024] yes=25,no=26,missing=25
				25:leaf=-0.0699400902
				26:leaf=0.000911355019
			14:[f12073<0.700000048] yes=27,no=28,missing=27
				27:leaf=0.102211915
				28:leaf=0.564204097
booster[75]:
0:[f123469<0.300000012] yes=1,no=2,missing=1
	1:[f77043<0.100000001] yes=3,no=4,missing=3
		3:[f60531<0.100000001] yes=5,no=6,missing=5
			5:[f177465<0.300000012] yes=9,no=10,missing=9
				9:leaf=0.00775707373
				10:leaf=-0.0438206084
			6:[f8<0.400000006] yes=11,no=12,missing=11
				11:leaf=0.132418767
				12:leaf=0.335622311
		4:[f77942<0.400000006] yes=7,no=8,missing=7
			7:[f77461<0.400000006] yes=13,no=14,missing=13
				13:leaf=-0.140944183
				14:leaf=0.0824262425
			8:[f169261<0.700000048] yes=15,no=16,missing=15
				15:leaf=0.0938881487
				16:leaf=0.291011214
	2:leaf=0.394918323
booster[76]:
0:[f160807<0.700000048] yes=1,no=2,missing=1
	1:[f142182<0.700000048] yes=3,no=4,missing=3
		3:[f8<0.400000006] yes=7,no=8,missing=7
			7:leaf=0.0681957006
			8:leaf=0.419823527
		4:[f29545<0.400000006] yes=9,no=10,missing=9
			9:[f160808<0.400000006] yes=15,no=16,missing=15
				15:leaf=0.387918591
				16:leaf=-0.00557045126
			10:[f76910<0.100000001] yes=17,no=18,missing=17
				17:leaf=0.0434091985
				18:leaf=0.425892651
	2:[f38484<0.300000012] yes=5,no=6,missing=5
		5:[f161816<0.700000048] yes=11,no=12,missing=11
			11:[f130016<0.5] yes=19,no=20,missing=19
				19:leaf=0.101093471
				20:leaf=0.620198488
			12:[f26911<0.700000048] yes=21,no=22,missing=21
				21:leaf=0.218764096
				22:leaf=0.00773545867
		6:[f105463<0.400000006] yes=13,no=14,missing=13
			13:leaf=0.449832678
			14:[f108948<0.700000048] yes=23,no=24,missing=23
				23:leaf=0.412745714
				24:leaf=-0.0889252424
booster[77]:
0:[f118664<0.700000048] yes=1,no=2,missing=1
	1:[f55938<0.100000001] yes=3,no=4,missing=3
		3:[f10873<0.400000006] yes=7,no=8,missing=7
			7:leaf=0.0812767744
			8:leaf=0.408418089
		4:[f5570<0.200000003] yes=9,no=10,missing=9
			9:[f8<0.400000006] yes=15,no=16,missing=15
				15:leaf=0.0570034981
				16:leaf=0.219312564
			10:leaf=0.000885128975
	2:[f153445<0.700000048] yes=5,no=6,missing=5
		5:[f24602<0.400000006] yes=11,no=12,missing=11
			11:leaf=-0.151464462
			12:[f32377<0.600000024] yes=17,no=18,missing=17
				17:leaf=-0.0412672758
				18:leaf=0.450071156
		6:[f12073<0.300000012] yes=13,no=14,missing=13
			13:[f166303<0.5] yes=19,no=20,missing=19
				19:leaf=0.452656299
				20:leaf=0.128385574
			14:[f121057<0.100000001] yes=21,no=22,missing=21
				21:leaf=0.00961953495
				22:leaf=0.511873901
booster[78]:
0:[f166845<0.700000048] yes=1,no=2,missing=1
	1:[f61311<0.100000001] yes=3,no=4,missing=3
		3:[f105465<0.100000001] yes=7,no=8,missing=7
			7:[f114507<0.100000001] yes=15,no=16,missing=15
				15:leaf=0.00235156948
				16:leaf=0.522785306
			8:[f67121<0.200000003] yes=17,no=18,missing=17
				17:leaf=0.398349047
				18:leaf=-0.106757246
		4:[f31<0.400000006] yes=9,no=10,missing=9
			9:[f134097<0.700000048] yes=19,no=20,missing=19
				19:leaf=0.0238532647
				20:leaf=0.15856567
			10:[f175515<0.100000001] yes=21,no=22,missing=21
				21:leaf=0.370479316
				22:leaf=-0.0826880336
	2:[f61311<0.700000048] yes=5,no=6,missing=5
		5:[f133863<0.400000006] yes=11,no=12,missing=11
			11:[f81099<0.400000006] yes=23,no=24,missing=23
				23:leaf=0.205326155
				24:leaf=-0.116519675
			12:[f175731<0.100000001] yes=25,no=26,missing=25
				25:leaf=-0.0660927743
				26:leaf=0.131811887
		6:[f172970<0.700000048] yes=13,no=14,missing=13
			13:leaf=0.493124336
			14:[f136988<0.700000048] yes=27,no=28,missing=27
				27:leaf=0.311705977
				28:leaf=-0.0438024253
booster[79]:
0:[f158636<0.700000048] yes=1,no=2,missing=1
	1:[f5773<0.700000048] yes=3,no=4,missing=3
		3:leaf=0.046558857
		4:leaf=0.485719472
	2:[f169239<0.700000048] yes=5,no=6,missing=5
		5:[f95186<0.700000048] yes=7,no=8,missing=7
			7:[f2486<0.600000024] yes=11,no=12,missing=11
				11:leaf=0.0746744275
				12:leaf=0.374006629
			8:[f114505<0.300000012] yes=13,no=14,missing=13
				13:leaf=0.409171313
				14:leaf=0.00268999953
		6:[f169278<0.300000012] yes=9,no=10,missing=9
			9:[f171403<0.700000048] yes=15,no=16,missing=15
				15:leaf=-0.11422836
				16:leaf=0.137014747
			10:leaf=-0.398248911
booster[80]:
0:[f123469<0.100000001] yes=1,no=2,missing=1
	1:[f153445<0.400000006] yes=3,no=4,missing=3
		3:[f8<0.400000006] yes=7,no=8,missing=7
			7:leaf=-0.0386928916
			8:[f8223<0.400000006] yes=11,no=12,missing=11
				11:leaf=0.550854802
				12:leaf=0.0931713581
		4:[f78823<0.400000006] yes=9,no=10,missing=9
			9:[f133140<0.700000048] yes=13,no=14,missing=13
				13:leaf=0.520968437
				14:leaf=0.00903345458
			10:[f77355<0.400000006] yes=15,no=16,missing=15
				15:leaf=0.195296168
				16:leaf=0.50175488
	2:[f16086<0.100000001] yes=5,no=6,missing=5
		5:leaf=0.378603756
		6:leaf=0.0799355507
booster[81]:
0:[f164101<0.100000001] yes=1,no=2,missing=1
	1:[f130777<0.700000048] yes=3,no=4,missing=3
		3:[f129967<0.600000024] yes=7,no=8,missing=7
			7:[f10128<0.400000006] yes=15,no=16,missing=15
				15:leaf=0.114974141
				16:leaf=-0.0312461853
			8:[f56749<0.700000048] yes=17,no=18,missing=17
				17:leaf=0.0997003317
				18:leaf=0.500339448
		4:[f14305<0.200000003] yes=9,no=10,missing=9
			9:leaf=0.468271405
			10:[f123061<0.700000048] yes=19,no=20,missing=19
				19:leaf=0.310709834
				20:leaf=0.00375115452
	2:[f155701<0.700000048] yes=5,no=6,missing=5
		5:[f134359<0.400000006] yes=11,no=12,missing=11
			11:[f131567<0.300000012] yes=21,no=22,missing=21
				21:leaf=-0.346377701
				22:leaf=0.142428085
			12:[f89154<0.700000048] yes=23,no=24,missing=23
				23:leaf=0.0293655246
				24:leaf=0.445891231
		6:[f46184<0.400000006] yes=13,no=14,missing=13
			13:leaf=0.464549333
			14:[f37807<0.100000001] yes=25,no=26,missing=25
				25:leaf=-0.0250525251
				26:leaf=0.361903042
booster[82]:
0:[f7236<0.700000048] yes=1,no=2,missing=1
	1:[f2762<0.400000006] yes=3,no=4,missing=3
		3:leaf=0.0848197937
		4:leaf=0.427158058
	2:[f119296<0.100000001] yes=5,no=6,missing=5
		5:[f123061<0.700000048] yes=7,no=8,missing=7
			7:[f130723<0.700000048] yes=11,no=12,missing=11
				11:leaf=0.0588504672
				12:leaf=0.359775305
			8:[f68522<0.700000048] yes=13,no=14,missing=13
				13:leaf=0.299612135
				14:leaf=0.0094650127
		6:[f169239<0.100000001] yes=9,no=10,missing=9
			9:[f109938<0.400000006] yes=15,no=16,missing=15
				15:leaf=0.0518881492
				16:leaf=0.355062395
			10:[f169280<0.700000048] yes=17,no=18,missing=17
				17:leaf=0.123976521
				18:leaf=0.00717079639
booster[83]:
0:[f70088<0.700000048] yes=1,no=2,missing=1
	1:[f150462<0.100000001] yes=3,no=4,missing=3
		3:[f129721<0.100000001] yes=7,no=8,missing=7
			7:[f129243<0.300000012] yes=13,no=14,missing=13
				13:leaf=-0.156921312
				14:leaf=0.125187829
			8:[f173360<0.700000048] yes=15,no=16,missing=15
				15:leaf=0.135222927
				16:leaf=0.00954346545
		4:[f136653<0.300000012] yes=9,no=10,missing=9
			9:leaf=0.0894791707
			10:[f152438<0.5] yes=17,no=18,missing=17
				17:leaf=0.26585719
				18:leaf=0.497526526
	2:[f47499<0.400000006] yes=5,no=6,missing=5
		5:[f14449<0.400000006] yes=11,no=12,missing=11
			11:leaf=0.11372447
			12:[f15451<0.5] yes=19,no=20,missing=19
				19:leaf=0.0974166989
				20:leaf=-0.182315186
		6:leaf=0.209055662
booster[84]:
0:[f164100<0.700000048] yes=1,no=2,missing=1
	1:[f155701<0.700000048] yes=3,no=4,missing=3
		3:[f114715<0.100000001] yes=7,no=8,missing=7
			7:[f161190<0.700000048] yes=15,no=16,missing=15
				15:leaf=-0.152845621
				16:leaf=0.564221263
			8:[f131330<0.400000006] yes=17,no=18,missing=17
				17:leaf=-0.14056237
				18:leaf=0.2692734
		4:[f131571<0.5] yes=9,no=10,missing=9
			9:[f46184<0.400000006] yes=19,no=20,missing=19
				19:leaf=0.444401056
				20:leaf=0.0371222347
			10:[f25315<0.400000006] yes=21,no=22,missing=21
				21:leaf=0.381918013
				22:leaf=-0.129676118
	2:[f130777<0.700000048] yes=5,no=6,missing=5
		5:[f129967<0.600000024] yes=11,no=12,missing=11
			11:[f10131<0.400000006] yes=23,no=24,missing=23
				23:leaf=-0.0347912312
				24:leaf=0.105659567
			12:[f42139<0.100000001] yes=25,no=26,missing=25
				25:leaf=0.466243327
				26:leaf=0.0920631886
		6:[f118801<0.400000006] yes=13,no=14,missing=13
			13:[f136652<0.100000001] yes=27,no=28,missing=27
				27:leaf=0.160649315
				28:leaf=0.34927699
			14:[f42356<0.400000006] yes=29,no=30,missing=29
				29:leaf=0.509406626
				30:leaf=0.00196991162
booster[85]:
0:[f78126<0.400000006] yes=1,no=2,missing=1
	1:[f153447<0.400000006] yes=3,no=4,missing=3
		3:[f95186<0.700000048] yes=7,no=8,missing=7
			7:[f142459<0.700000048] yes=15,no=16,missing=15
				15:leaf=0.354617
				16:leaf=0.135310575
			8:[f86103<0.700000048] yes=17,no=18,missing=17
				17:leaf=0.497205585
				18:leaf=0.0058565014
		4:[f24602<0.400000006] yes=9,no=10,missing=9
			9:leaf=-0.163433492
			10:[f8221<0.400000006] yes=19,no=20,missing=19
				19:leaf=0.089486897
				20:leaf=0.507642448
	2:[f77466<0.400000006] yes=5,no=6,missing=5
		5:[f10981<0.400000006] yes=11,no=12,missing=11
			11:leaf=-0.0579760671
			12:[f7125<0.400000006] yes=21,no=22,missing=21
				21:leaf=-0.00884860754
				22:leaf=0.0119201541
		6:[f78090<0.400000006] yes=13,no=14,missing=13
			13:[f67127<0.100000001] yes=23,no=24,missing=23
				23:leaf=0.234074518
				24:leaf=0.628920436
			14:leaf=0.111290097
booster[86]:
0:[f173365<0.700000048] yes=1,no=2,missing=1
	1:[f4770<0.400000006] yes=3,no=4,missing=3
		3:[f16388<0.400000006] yes=7,no=8,missing=7
			7:[f65839<0.700000048] yes=13,no=14,missing=13
				13:leaf=0.110405289
				14:leaf=0.316841155
			8:[f29545<0.400000006] yes=15,no=16,missing=15
				15:leaf=0.0142652392
				16:leaf=0.0924952626
		4:leaf=-0.051905632
	2:[f40032<0.100000001] yes=5,no=6,missing=5
		5:[f123967<0.200000003] yes=9,no=10,missing=9
			9:[f21525<0.400000006] yes=17,no=18,missing=17
				17:leaf=-0.267798305
				18:leaf=-0.000706732273
			10:[f56749<0.100000001] yes=19,no=20,missing=19
				19:leaf=-0.0815691799
				20:leaf=0.0112842442
		6:[f5030<0.100000001] yes=11,no=12,missing=11
			11:leaf=0.515941978
			12:leaf=0.122400165
booster[87]:
0:[f158636<0.700000048] yes=1,no=2,missing=1
	1:[f132541<0.300000012] yes=3,no=4,missing=3
		3:leaf=0.480948538
		4:leaf=0.103355847
	2:[f27909<0.400000006] yes=5,no=6,missing=5
		5:[f80143<0.700000048] yes=7,no=8,missing=7
			7:[f656<0.400000006] yes=11,no=12,missing=11
				11:leaf=0.508971691
				12:leaf=0.162219658
			8:[f68479<0.300000012] yes=13,no=14,missing=13
				13:leaf=-0.115520075
				14:leaf=0.00626012171
		6:[f1824<0.400000006] yes=9,no=10,missing=9
			9:leaf=0.0109702349
			10:leaf=0.439938277
booster[88]:
0:[f122186<0.100000001] yes=1,no=2,missing=1
	1:[f89157<0.100000001] yes=3,no=4,missing=3
		3:[f177465<0.100000001] yes=7,no=8,missing=7
			7:[f160209<0.100000001] yes=15,no=16,missing=15
				15:leaf=0.00622676732
				16:leaf=0.195568547
			8:[f78193<0.600000024] yes=17,no=18,missing=17
				17:leaf=0.0596180521
				18:leaf=-0.0711349323
		4:[f8028<0.700000048] yes=9,no=10,missing=9
			9:[f28833<0.100000001] yes=19,no=20,missing=19
				19:leaf=-0.230913728
				20:leaf=0.0531976148
			10:leaf=0.345461518
	2:[f134511<0.400000006] yes=5,no=6,missing=5
		5:[f613<0.400000006] yes=11,no=12,missing=11
			11:leaf=-0.10025245
			12:[f9639<0.100000001] yes=21,no=22,missing=21
				21:leaf=0.125289336
				22:leaf=-0.0698711872
		6:[f15206<0.600000024] yes=13,no=14,missing=13
			13:leaf=0.0811533928
			14:leaf=0.328743488
booster[89]:
0:[f133322<0.400000006] yes=1,no=2,missing=1
	1:[f26911<0.700000048] yes=3,no=4,missing=3
		3:[f22171<0.300000012] yes=7,no=8,missing=7
			7:[f134970<0.400000006] yes=13,no=14,missing=13
				13:leaf=0.150929511
				14:leaf=-0.141416609
			8:[f26048<0.700000048] yes=15,no=16,missing=15
				15:leaf=0.0853553042
				16:leaf=0.331174076
		4:[f68479<0.100000001] yes=9,no=10,missing=9
			9:[f172557<0.100000001] yes=17,no=18,missing=17
				17:leaf=-0.144730046
				18:leaf=0.344074428
			10:[f30501<0.100000001] yes=19,no=20,missing=19
				19:leaf=0.00237776409
				20:leaf=0.14284344
	2:[f128996<0.5] yes=5,no=6,missing=5
		5:leaf=-0.449423522
		6:[f41648<0.5] yes=11,no=12,missing=11
			11:[f4873<0.400000006] yes=21,no=22,missing=21
				21:leaf=-0.0715909004
				22:leaf=0.000302791595
			12:[f172112<0.700000048] yes=23,no=24,missing=23
				23:leaf=0.0528228469
				24:leaf=0.246985927
booster[90]:
0:[f80822<0.700000048] yes=1,no=2,missing=1
	1:[f21<0.400000006] yes=3,no=4,missing=3
		3:[f80485<0.600000024] yes=7,no=8,missing=7
			7:leaf=0.0728852376
			8:leaf=0.186589301
		4:leaf=0.459344566
	2:[f7236<0.700000048] yes=5,no=6,missing=5
		5:[f2763<0.400000006] yes=9,no=10,missing=9
			9:leaf=0.395613521
			10:leaf=0.0748924017
		6:[f162073<0.5] yes=11,no=12,missing=11
			11:[f148411<0.400000006] yes=13,no=14,missing=13
				13:leaf=0.000438112591
				14:leaf=0.56344229
			12:[f38474<0.100000001] yes=15,no=16,missing=15
				15:leaf=-0.0498158336
				16:leaf=0.584279299
booster[91]:
0:[f131366<0.700000048] yes=1,no=2,missing=1
	1:[f60333<0.100000001] yes=3,no=4,missing=3
		3:[f153277<0.700000048] yes=7,no=8,missing=7
			7:[f89157<0.300000012] yes=13,no=14,missing=13
				13:leaf=0.328622758
				14:leaf=0.0234246496
			8:[f136803<0.700000048] yes=15,no=16,missing=15
				15:leaf=0.0595049448
				16:leaf=-0.00195107702
		4:[f8<0.400000006] yes=9,no=10,missing=9
			9:[f175729<0.700000048] yes=17,no=18,missing=17
				17:leaf=-0.031888783
				18:leaf=0.124851085
			10:[f5751<0.700000048] yes=19,no=20,missing=19
				19:leaf=0.444235981
				20:leaf=0.0324409008
	2:[f158522<0.400000006] yes=5,no=6,missing=5
		5:leaf=-0.31046021
		6:[f131330<0.400000006] yes=11,no=12,missing=11
			11:[f67137<0.600000024] yes=21,no=22,missing=21
				21:leaf=0.162749916
				22:leaf=0.391130626
			12:[f38484<0.100000001] yes=23,no=24,missing=23
				23:leaf=-0.0498895049
				24:leaf=0.0086915493
booster[92]:
0:[f129987<0.700000048] yes=1,no=2,missing=1
	1:[f89154<0.300000012] yes=3,no=4,missing=3
		3:[f169281<0.300000012] yes=7,no=8,missing=7
			7:[f131349<0.400000006] yes=15,no=16,missing=15
				15:leaf=0.0150679946
				16:leaf=0.0726369992
			8:leaf=-0.398439765
		4:[f145518<0.100000001] yes=9,no=10,missing=9
			9:[f132540<0.300000012] yes=17,no=18,missing=17
				17:leaf=0.355816722
				18:leaf=0.0796011016
			10:[f2516<0.600000024] yes=19,no=20,missing=19
				19:leaf=0.0898042321
				20:leaf=-0.223628968
	2:[f167103<0.300000012] yes=5,no=6,missing=5
		5:[f30277<0.400000006] yes=11,no=12,missing=11
			11:leaf=0.397798002
			12:[f90835<0.200000003] yes=21,no=22,missing=21
				21:leaf=-0.119585417
				22:leaf=0.206810355
		6:[f169651<0.700000048] yes=13,no=14,missing=13
			13:[f134166<0.700000048] yes=23,no=24,missing=23
				23:leaf=-0.167032376
				24:leaf=0.352011025
			14:[f56751<0.100000001] yes=25,no=26,missing=25
				25:leaf=-0.000893634045
				26:leaf=0.284415454
booster[93]:
0:[f175209<0.300000012] yes=1,no=2,missing=1
	1:[f119293<0.700000048] yes=3,no=4,missing=3
		3:[f119293<0.100000001] yes=5,no=6,missing=5
			5:[f129997<0.5] yes=9,no=10,missing=9
				9:leaf=0.19822149
				10:leaf=-0.031034695
			6:[f67140<0.300000012] yes=11,no=12,missing=11
				11:leaf=0.238500327
				12:leaf=0.0327999815
		4:[f172910<0.100000001] yes=7,no=8,missing=7
			7:[f142383<0.400000006] yes=13,no=14,missing=13
				13:leaf=-0.149579182
				14:leaf=0.484967351
			8:[f40032<0.100000001] yes=15,no=16,missing=15
				15:leaf=0.00398673303
				16:leaf=0.484297395
	2:leaf=0.533044219
booster[94]:
0:[f136803<0.700000048] yes=1,no=2,missing=1
	1:[f129211<0.200000003] yes=3,no=4,missing=3
		3:[f129193<0.700000048] yes=7,no=8,missing=7
			7:[f101004<0.100000001] yes=15,no=16,missing=15
				15:leaf=-0.081619978
				16:leaf=0.0664226711
			8:[f46501<0.400000006] yes=17,no=18,missing=17
				17:leaf=-0.218108371
				18:leaf=0.220715582
		4:[f158754<0.700000048] yes=9,no=10,missing=9
			9:leaf=0.417605966
			10:[f136015<0.400000006] yes=19,no=20,missing=19
				19:leaf=0.0346102417
				20:leaf=-0.29068321
	2:[f134750<0.400000006] yes=5,no=6,missing=5
		5:[f134018<0.400000006] yes=11,no=12,missing=11
			11:[f133467<0.400000006] yes=21,no=22,missing=21
				21:leaf=0.0752675831
				22:leaf=0.221432775
			12:[f21<0.400000006] yes=23,no=24,missing=23
				23:leaf=-0.301340461
				24:leaf=-0.034753561
		6:[f128810<0.700000048] yes=13,no=14,missing=13
			13:[f12075<0.100000001] yes=25,no=26,missing=25
				25:leaf=0.364217609
				26:leaf=0.0272626076
			14:[f133243<0.100000001] yes=27,no=28,missing=27
				27:leaf=0.27929458
				28:leaf=-0.00347876549
booster[95]:
0:[f172910<0.5] yes=1,no=2,missing=1
	1:[f26887<0.400000006] yes=3,no=4,missing=3
		3:[f105231<0.400000006] yes=7,no=8,missing=7
			7:leaf=0.0998332202
			8:[f162835<0.400000006] yes=15,no=16,missing=15
				15:leaf=-0.208226889
				16:leaf=0.0931975022
		4:[f85<0.100000001] yes=9,no=10,missing=9
			9:[f176569<0.400000006] yes=17,no=18,missing=17
				17:leaf=-0.030417582
				18:leaf=-0.19781974
			10:leaf=0.0845390558
	2:[f603<0.100000001] yes=5,no=6,missing=5
		5:[f5749<0.600000024] yes=11,no=12,missing=11
			11:[f1962<0.100000001] yes=19,no=20,missing=19
				19:leaf=0.0908400118
				20:leaf=0.0212342739
			12:[f137222<0.600000024] yes=21,no=22,missing=21
				21:leaf=0.0609666891
				22:leaf=-0.2423096
		6:[f25317<0.200000003] yes=13,no=14,missing=13
			13:[f123469<0.100000001] yes=23,no=24,missing=23
				23:leaf=-5.61817687e-05
				24:leaf=0.294388473
			14:leaf=0.526609063
booster[96]:
0:[f169280<0.700000048] yes=1,no=2,missing=1
	1:[f169280<0.100000001] yes=3,no=4,missing=3
		3:[f162612<0.5] yes=7,no=8,missing=7
			7:[f67129<0.400000006] yes=15,no=16,missing=15
				15:leaf=0.0769332424
				16:leaf=0.282702535
			8:[f153445<0.100000001] yes=17,no=18,missing=17
				17:leaf=0.435043246
				18:leaf=0.00704679405
		4:[f77509<0.600000024] yes=9,no=10,missing=9
			9:[f77324<0.400000006] yes=19,no=20,missing=19
				19:leaf=0.0293412246
				20:leaf=0.43489036
			10:[f78222<0.200000003] yes=21,no=22,missing=21
				21:leaf=-0.0469826795
				22:leaf=0.372217387
	2:[f67122<0.300000012] yes=5,no=6,missing=5
		5:[f38475<0.100000001] yes=11,no=12,missing=11
			11:[f165788<0.700000048] yes=23,no=24,missing=23
				23:leaf=-0.164066255
				24:leaf=0.148440108
			12:[f8030<0.5] yes=25,no=26,missing=25
				25:leaf=0.251775116
				26:leaf=0.0135753602
		6:[f76911<0.400000006] yes=13,no=14,missing=13
			13:[f132566<0.5] yes=27,no=28,missing=27
				27:leaf=0.195647135
				28:leaf=-0.0790307373
			14:[f177468<0.400000006] yes=29,no=30,missing=29
				29:leaf=-0.00235480722
				30:leaf=0.305050999
booster[97]:
0:[f129081<0.700000048] yes=1,no=2,missing=1
	1:[f170679<0.700000048] yes=3,no=4,missing=3
		3:[f153445<0.300000012] yes=7,no=8,missing=7
			7:[f32377<0.600000024] yes=13,no=14,missing=13
				13:leaf=-0.0684716105
				14:leaf=0.411737353
			8:[f78126<0.400000006] yes=15,no=16,missing=15
				15:leaf=0.00287433644
				16:leaf=0.261539429
		4:[f3417<0.400000006] yes=9,no=10,missing=9
			9:leaf=0.0548542738
			10:leaf=0.632340908
	2:[f95155<0.5] yes=5,no=6,missing=5
		5:leaf=0.341708302
		6:[f11235<0.400000006] yes=11,no=12,missing=11
			11:[f9415<0.400000006] yes=17,no=18,missing=17
				17:leaf=0.136917979
				18:leaf=-0.163714454
			12:leaf=0.369180322
booster[98]:
0:[f156039<0.700000048] yes=1,no=2,missing=1
	1:[f166843<0.5] yes=3,no=4,missing=3
		3:[f48980<0.200000003] yes=7,no=8,missing=7
			7:leaf=-0.0391293354
			8:[f8<0.400000006] yes=13,no=14,missing=13
				13:leaf=0.164515451
				14:leaf=0.611054778
		4:[f40563<0.400000006] yes=9,no=10,missing=9
			9:leaf=0.1197813
			10:leaf=-0.112070441
	2:[f14305<0.200000003] yes=5,no=6,missing=5
		5:leaf=0.40497461
		6:[f164100<0.700000048] yes=11,no=12,missing=11
			11:[f155701<0.700000048] yes=15,no=16,missing=15
				15:leaf=0.324082643
				16:leaf=-0.0166839845
			12:[f155701<0.100000001] yes=17,no=18,missing=17
				17:leaf=-0.00110256858
				18:leaf=0.231284991
booster[99]:
0:[f68479<0.100000001] yes=1,no=2,missing=1
	1:[f41337<0.400000006] yes=3,no=4,missing=3
		3:[f42139<0.300000012] yes=7,no=8,missing=7
			7:leaf=0.191411972
			8:[f177296<0.400000006] yes=13,no=14,missing=13
				13:leaf=0.194614574
				14:leaf=-0.164755464
		4:leaf=0.479738355
	2:[f30499<0.700000048] yes=5,no=6,missing=5
		5:[f131318<0.100000001] yes=9,no=10,missing=9
			9:[f54612<0.700000048] yes=15,no=16,missing=15
				15:leaf=0.253985316
				16:leaf=-0.164290711
			10:[f30499<0.5] yes=17,no=18,missing=17
				17:leaf=-0.223002359
				18:leaf=0.238117337
		6:[f132540<0.100000001] yes=11,no=12,missing=11
			11:[f131366<0.700000048] yes=19,no=20,missing=19
				19:leaf=0.0022676317
				20:leaf=0.288228422
			12:[f130005<0.300000012] yes=21,no=22,missing=21
				21:leaf=0.206058681
				22:leaf=-0.0634827614
booster[100]:
0:[f67122<0.100000001] yes=1,no=2,missing=1
	1:[f131316<0.700000048] yes=3,no=4,missing=3
		3:[f36<0.400000006] yes=7,no=8,missing=7
			7:[f54618<0.100000001] yes=13,no=14,missing=13
				13:leaf=-0.114613086
				14:leaf=0.0323997959
			8:[f105463<0.700000048] yes=15,no=16,missing=15
				15:leaf=0.131681904
				16:leaf=-0.0262089223
		4:[f135237<0.700000048] yes=9,no=10,missing=9
			9:[f56749<0.700000048] yes=17,no=18,missing=17
				17:leaf=-0.337510109
				18:leaf=0.223110184
			10:[f161942<0.700000048] yes=19,no=20,missing=19
				19:leaf=0.325659394
				20:leaf=0.0242066011
	2:[f162073<0.5] yes=5,no=6,missing=5
		5:[f153254<0.600000024] yes=11,no=12,missing=11
			11:leaf=0.433533788
			12:[f136554<0.700000048] yes=21,no=22,missing=21
				21:leaf=0.0452099405
				22:leaf=-0.0470370725
		6:leaf=0.565445423
booster[101]:
0:[f114505<0.300000012] yes=1,no=2,missing=1
	1:[f54618<0.400000006] yes=3,no=4,missing=3
		3:leaf=0.597303152
		4:[f656<0.400000006] yes=7,no=8,missing=7
			7:leaf=0.0439684987
			8:leaf=0.190878317
	2:[f86103<0.700000048] yes=5,no=6,missing=5
		5:leaf=0.436036289
		6:[f169280<0.700000048] yes=9,no=10,missing=9
			9:[f129721<0.100000001] yes=11,no=12,missing=11
				11:leaf=-0.136161089
				12:leaf=-0.000635591452
			10:[f163687<0.400000006] yes=13,no=14,missing=13
				13:leaf=0.055303406
				14:leaf=-0.172411397
booster[102]:
0:[f175729<0.100000001] yes=1,no=2,missing=1
	1:[f169891<0.700000048] yes=3,no=4,missing=3
		3:[f54620<0.600000024] yes=7,no=8,missing=7
			7:[f620<0.700000048] yes=15,no=16,missing=15
				15:leaf=-0.0236063004
				16:leaf=0.112083673
			8:leaf=0.304083228
		4:[f2450<0.600000024] yes=9,no=10,missing=9
			9:leaf=0.365593314
			10:[f166345<0.400000006] yes=17,no=18,missing=17
				17:leaf=0.166624382
				18:leaf=-0.131102711
	2:[f48237<0.100000001] yes=5,no=6,missing=5
		5:[f148413<0.400000006] yes=11,no=12,missing=11
			11:leaf=0.540797055
			12:[f173562<0.700000048] yes=19,no=20,missing=19
				19:leaf=0.533026874
				20:leaf=0.00292843231
		6:[f156039<0.700000048] yes=13,no=14,missing=13
			13:leaf=0.418473065
			14:[f158234<0.700000048] yes=21,no=22,missing=21
				21:leaf=0.328755051
				22:leaf=0.0789379328
booster[103]:
0:[f61309<0.100000001] yes=1,no=2,missing=1
	1:[f166843<0.700000048] yes=3,no=4,missing=3
		3:[f39090<0.700000048] yes=7,no=8,missing=7
			7:leaf=0.394617349
			8:[f27907<0.400000006] yes=15,no=16,missing=15
				15:leaf=0.524999082
				16:leaf=-0.0347150639
		4:[f133323<0.400000006] yes=9,no=10,missing=9
			9:leaf=0.448113203
			10:[f109938<0.300000012] yes=17,no=18,missing=17
				17:leaf=0.108033359
				18:leaf=0.0141764283
	2:[f166843<0.700000048] yes=5,no=6,missing=5
		5:[f134185<0.700000048] yes=11,no=12,missing=11
			11:[f3381<0.200000003] yes=19,no=20,missing=19
				19:leaf=0.0275145452
				20:leaf=-0.407474458
			12:[f164113<0.700000048] yes=21,no=22,missing=21
				21:leaf=-0.0957739726
				22:leaf=0.191410735
		6:[f172910<0.300000012] yes=13,no=14,missing=13
			13:[f35046<0.400000006] yes=23,no=24,missing=23
				23:leaf=-0.182546377
				24:leaf=0.151974559
			14:[f166345<0.600000024] yes=25,no=26,missing=25
				25:leaf=0.282690734
				26:leaf=-0.000891930249
booster[104]:
0:[f173060<0.700000048] yes=1,no=2,missing=1
	1:[f133675<0.700000048] yes=3,no=4,missing=3
		3:[f3323<0.100000001] yes=7,no=8,missing=7
			7:leaf=0.105052829
			8:leaf=0.0264338255
		4:leaf=0.332868844
	2:[f68522<0.700000048] yes=5,no=6,missing=5
		5:[f1824<0.400000006] yes=9,no=10,missing=9
			9:leaf=-0.0409976244
			10:[f12918<0.400000006] yes=13,no=14,missing=13
				13:leaf=-0.020834446
				14:leaf=0.34536165
		6:[f128810<0.700000048] yes=11,no=12,missing=11
			11:[f12073<0.700000048] yes=15,no=16,missing=15
				15:leaf=0.00840449333
				16:leaf=0.291318685
			12:[f42356<0.400000006] yes=17,no=18,missing=17
				17:leaf=0.469405383
				18:leaf=0.000393684168
booster[105]:
0:[f99278<0.200000003] yes=1,no=2,missing=1
	1:[f95426<0.400000006] yes=3,no=4,missing=3
		3:leaf=-0.0126075745
		4:[f89275<0.400000006] yes=7,no=8,missing=7
			7:leaf=-0.0344825983
			8:leaf=-0.291193306
	2:[f123061<0.700000048] yes=5,no=6,missing=5
		5:[f130723<0.700000048] yes=9,no=10,missing=9
			9:leaf=0.0663335323
			10:[f48980<0.700000048] yes=13,no=14,missing=13
				13:leaf=0.0950907469
				14:leaf=0.358410448
		6:[f162073<0.5] yes=11,no=12,missing=11
			11:[f52825<0.700000048] yes=15,no=16,missing=15
				15:leaf=0.378841609
				16:leaf=0.00123125222
			12:[f38484<0.5] yes=17,no=18,missing=17
				17:leaf=0.526598454
				18:leaf=-0.0149288774
booster[106]:
0:[f68523<0.400000006] yes=1,no=2,missing=1
	1:[f153841<0.700000048] yes=3,no=4,missing=3
		3:[f133394<0.400000006] yes=5,no=6,missing=5
			5:[f142633<0.600000024] yes=9,no=10,missing=9
				9:leaf=0.078774333
				10:leaf=0.312890381
			6:leaf=-0.0160432663
		4:[f129984<0.100000001] yes=7,no=8,missing=7
			7:[f126004<0.100000001] yes=11,no=12,missing=11
				11:leaf=-0.000171979031
				12:leaf=0.226200849
			8:leaf=0.46644628
	2:leaf=0.42139715
booster[107]:
