booster[0]:
0:[f67140<0.100000001] yes=1,no=2,missing=1
	1:[f134666<0.400000006] yes=3,no=4,missing=3
		3:[f67119<0.100000001] yes=7,no=8,missing=7
			7:[f129218<0.100000001] yes=15,no=16,missing=15
				15:leaf=2.22437501
				16:leaf=0.685416698
			8:leaf=1.20416665
		4:[f68130<0.200000003] yes=9,no=10,missing=9
			9:leaf=0.903124988
			10:[f7647<0.400000006] yes=17,no=18,missing=17
				17:leaf=0.356249988
				18:leaf=1.72309971
	2:[f89154<0.700000048] yes=5,no=6,missing=5
		5:[f12506<0.600000024] yes=11,no=12,missing=11
			11:leaf=0.390625
			12:[f21078<0.400000006] yes=19,no=20,missing=19
				19:leaf=1.85717678
				20:leaf=0.453125
		6:[f177465<0.100000001] yes=13,no=14,missing=13
			13:[f129205<0.200000003] yes=21,no=22,missing=21
				21:leaf=2.13535166
				22:leaf=1.52024734
			14:[f76789<0.300000012] yes=23,no=24,missing=23
				23:leaf=1.61162972
				24:leaf=1.27194202
booster[1]:
0:[f67140<0.100000001] yes=1,no=2,missing=1
	1:[f134666<0.400000006] yes=3,no=4,missing=3
		3:[f67119<0.100000001] yes=7,no=8,missing=7
			7:[f65515<0.400000006] yes=15,no=16,missing=15
				15:leaf=0.99768883
				16:leaf=2.12200117
			8:leaf=1.13726854
		4:[f8<0.400000006] yes=9,no=10,missing=9
			9:[f11413<0.400000006] yes=17,no=18,missing=17
				17:leaf=0.483653158
				18:leaf=1.78251815
			10:[f131318<0.100000001] yes=19,no=20,missing=19
				19:leaf=1.6246568
				20:leaf=1.17051101
	2:[f89154<0.700000048] yes=5,no=6,missing=5
		5:[f12506<0.600000024] yes=11,no=12,missing=11
			11:leaf=0.378417969
			12:[f28160<0.400000006] yes=21,no=22,missing=21
				21:leaf=1.74502432
				22:leaf=0.438964844
		6:[f177465<0.100000001] yes=13,no=14,missing=13
			13:[f177468<0.200000003] yes=23,no=24,missing=23
				23:leaf=1.9335587
				24:leaf=1.46197259
			14:[f77001<0.300000012] yes=25,no=26,missing=25
				25:leaf=1.47911823
				26:leaf=1.18860102
booster[2]:
0:[f177612<0.100000001] yes=1,no=2,missing=1
	1:[f129205<0.700000048] yes=3,no=4,missing=3
		3:[f153090<0.700000048] yes=7,no=8,missing=7
			7:[f115641<0.100000001] yes=15,no=16,missing=15
				15:leaf=2.00069833
				16:leaf=0.437789142
			8:leaf=0.30966413
		4:[f134660<0.700000048] yes=9,no=10,missing=9
			9:leaf=1.90425873
			10:[f69439<0.100000001] yes=17,no=18,missing=17
				17:leaf=0.588878036
				18:leaf=1.50772691
	2:[f89157<0.100000001] yes=5,no=6,missing=5
		5:[f76814<0.300000012] yes=11,no=12,missing=11
			11:[f136803<0.700000048] yes=19,no=20,missing=19
				19:leaf=1.70237172
				20:leaf=1.33145821
			12:[f129198<0.300000012] yes=21,no=22,missing=21
				21:leaf=1.77754879
				22:leaf=1.11007643
		6:[f21078<0.400000006] yes=13,no=14,missing=13
			13:leaf=1.63381171
			14:leaf=0.425247192
booster[3]:
0:[f67140<0.100000001] yes=1,no=2,missing=1
	1:[f134666<0.400000006] yes=3,no=4,missing=3
		3:[f65515<0.400000006] yes=7,no=8,missing=7
			7:leaf=0.726875722
			8:[f10316<0.700000048] yes=15,no=16,missing=15
				15:leaf=0.25165391
				16:leaf=1.84721255
		4:[f68130<0.200000003] yes=9,no=10,missing=9
			9:leaf=0.823810339
			10:[f12942<0.600000024] yes=17,no=18,missing=17
				17:leaf=1.45477605
				18:leaf=0.59993732
	2:[f89154<0.700000048] yes=5,no=6,missing=5
		5:[f117619<0.400000006] yes=11,no=12,missing=11
			11:[f21078<0.400000006] yes=19,no=20,missing=19
				19:leaf=1.54108417
				20:leaf=0.411958218
			12:leaf=0.405939758
		6:[f76803<0.400000006] yes=13,no=14,missing=13
			13:[f78696<0.400000006] yes=21,no=22,missing=21
				21:leaf=1.46529377
				22:leaf=0.414161921
			14:[f129193<0.100000001] yes=23,no=24,missing=23
				23:leaf=1.30039704
				24:leaf=1.05582392
booster[4]:
0:[f67137<0.200000003] yes=1,no=2,missing=1
	1:[f133268<0.700000048] yes=3,no=4,missing=3
		3:leaf=0.655010462
		4:[f10316<0.700000048] yes=7,no=8,missing=7
			7:leaf=0.243789732
			8:[f3320<0.700000048] yes=13,no=14,missing=13
				13:leaf=0.328303546
				14:leaf=1.73787701
	2:[f89157<0.100000001] yes=5,no=6,missing=5
		5:[f177612<0.100000001] yes=9,no=10,missing=9
			9:[f134660<0.700000048] yes=15,no=16,missing=15
				15:leaf=1.64010823
				16:leaf=1.27602434
			10:[f76803<0.400000006] yes=17,no=18,missing=17
				17:leaf=1.28483284
				18:leaf=0.971738458
		6:[f12506<0.600000024] yes=11,no=12,missing=11
			11:leaf=0.300031096
			12:[f89157<0.300000012] yes=19,no=20,missing=19
				19:leaf=1.34233725
				20:leaf=1.54998064
booster[5]:
0:[f177612<0.100000001] yes=1,no=2,missing=1
	1:[f67129<0.700000048] yes=3,no=4,missing=3
		3:[f129991<0.100000001] yes=7,no=8,missing=7
			7:[f20731<0.400000006] yes=15,no=16,missing=15
				15:leaf=1.69020128
				16:leaf=0.259581864
			8:leaf=0.497597963
		4:[f21<0.400000006] yes=9,no=10,missing=9
			9:[f2172<0.100000001] yes=17,no=18,missing=17
				17:leaf=1.49352312
				18:leaf=0.176938862
			10:[f131318<0.100000001] yes=19,no=20,missing=19
				19:leaf=1.35544086
				20:leaf=1.07515013
	2:[f89154<0.700000048] yes=5,no=6,missing=5
		5:[f24704<0.400000006] yes=11,no=12,missing=11
			11:leaf=0.340017676
			12:[f14067<0.100000001] yes=21,no=22,missing=21
				21:leaf=1.35666394
				22:leaf=0.371267676
		6:[f129198<0.300000012] yes=13,no=14,missing=13
			13:[f2459<0.100000001] yes=23,no=24,missing=23
				23:leaf=1.7469579
				24:leaf=0.308035076
			14:[f78327<0.400000006] yes=25,no=26,missing=25
				25:leaf=1.17682266
				26:leaf=0.915628433
booster[6]:
0:[f177465<0.100000001] yes=1,no=2,missing=1
	1:[f177468<0.200000003] yes=3,no=4,missing=3
		3:[f89449<0.700000048] yes=7,no=8,missing=7
			7:[f25593<0.400000006] yes=15,no=16,missing=15
				15:leaf=0.131567597
				16:leaf=1.60491884
			8:leaf=0.381327689
		4:[f134503<0.700000048] yes=9,no=10,missing=9
			9:leaf=1.52237308
			10:[f131318<0.100000001] yes=17,no=18,missing=17
				17:leaf=1.2713784
				18:leaf=1.07371116
	2:[f89154<0.700000048] yes=5,no=6,missing=5
		5:[f67141<0.100000001] yes=11,no=12,missing=11
			11:[f21080<0.400000006] yes=19,no=20,missing=19
				19:leaf=0.314740747
				20:leaf=1.26515758
			12:leaf=0.303517401
		6:[f76814<0.400000006] yes=13,no=14,missing=13
			13:[f136803<0.700000048] yes=21,no=22,missing=21
				21:leaf=1.33611166
				22:leaf=0.965255857
			14:[f78327<0.400000006] yes=23,no=24,missing=23
				23:leaf=1.10858691
				24:leaf=0.857361555
booster[7]:
0:[f177465<0.100000001] yes=1,no=2,missing=1
	1:[f67137<0.5] yes=3,no=4,missing=3
		3:[f3320<0.700000048] yes=7,no=8,missing=7
			7:leaf=0.215071589
			8:[f1578<0.400000006] yes=15,no=16,missing=15
				15:leaf=1.52282381
				16:leaf=0.369030416
		4:[f133382<0.400000006] yes=9,no=10,missing=9
			9:[f2172<0.100000001] yes=17,no=18,missing=17
				17:leaf=1.44100356
				18:leaf=0.123835355
			10:[f129205<0.200000003] yes=19,no=20,missing=19
				19:leaf=1.35211241
				20:leaf=1.05790341
	2:[f89154<0.700000048] yes=5,no=6,missing=5
		5:[f24702<0.400000006] yes=11,no=12,missing=11
			11:[f21078<0.400000006] yes=21,no=22,missing=21
				21:leaf=1.1859138
				22:leaf=0.304905117
			12:leaf=0.289855957
		6:[f129198<0.300000012] yes=13,no=14,missing=13
			13:[f25929<0.100000001] yes=23,no=24,missing=23
				23:leaf=1.49876976
				24:leaf=0.16520831
			14:[f114696<0.100000001] yes=25,no=26,missing=25
				25:leaf=0.815252841
				26:leaf=1.36291981
booster[8]:
0:[f67140<0.100000001] yes=1,no=2,missing=1
	1:[f135273<0.400000006] yes=3,no=4,missing=3
		3:[f131366<0.5] yes=7,no=8,missing=7
			7:[f129218<0.100000001] yes=15,no=16,missing=15
				15:leaf=1.3758986
				16:leaf=0.259203553
			8:[f20893<0.400000006] yes=17,no=18,missing=17
				17:leaf=0.131901115
				18:leaf=0.689512491
		4:[f8<0.400000006] yes=9,no=10,missing=9
			9:[f108181<0.400000006] yes=19,no=20,missing=19
				19:leaf=0.533509254
				20:leaf=1.24810398
			10:[f131318<0.100000001] yes=21,no=22,missing=21
				21:leaf=1.07881272
				22:leaf=0.726168573
	2:[f89154<0.700000048] yes=5,no=6,missing=5
		5:[f147<0.400000006] yes=11,no=12,missing=11
			11:[f12506<0.600000024] yes=23,no=24,missing=23
				23:leaf=0.203321621
				24:leaf=1.10723913
			12:leaf=0.128571391
		6:[f177468<0.200000003] yes=13,no=14,missing=13
			13:[f67122<0.100000001] yes=25,no=26,missing=25
				25:leaf=1.39572072
				26:leaf=0.96740973
			14:[f129198<0.300000012] yes=27,no=28,missing=27
				27:leaf=1.3054148
				28:leaf=0.774043322
booster[9]:
0:[f67140<0.100000001] yes=1,no=2,missing=1
	1:[f134666<0.400000006] yes=3,no=4,missing=3
		3:[f131321<0.100000001] yes=7,no=8,missing=7
			7:[f67139<0.100000001] yes=15,no=16,missing=15
				15:leaf=1.29349375
				16:leaf=0.203677058
			8:[f20895<0.400000006] yes=17,no=18,missing=17
				17:leaf=0.542763472
				18:leaf=0.127779216
		4:[f169651<0.100000001] yes=9,no=10,missing=9
			9:[f114715<0.200000003] yes=19,no=20,missing=19
				19:leaf=0.493417591
				20:leaf=-0.0239084661
			10:[f5749<0.100000001] yes=21,no=22,missing=21
				21:leaf=0.777422369
				22:leaf=1.03745103
	2:[f89154<0.700000048] yes=5,no=6,missing=5
		5:[f145<0.400000006] yes=11,no=12,missing=11
			11:leaf=0.124553531
			12:[f89154<0.5] yes=23,no=24,missing=23
				23:leaf=1.12568069
				24:leaf=0.967707276
		6:[f78228<0.300000012] yes=13,no=14,missing=13
			13:[f77868<0.400000006] yes=25,no=26,missing=25
				25:leaf=1.07103336
				26:leaf=0.481926471
			14:[f136554<0.700000048] yes=27,no=28,missing=27
				27:leaf=0.797947705
				28:leaf=0.672913432
booster[10]:
0:[f177468<0.200000003] yes=1,no=2,missing=1
	1:[f177465<0.300000012] yes=3,no=4,missing=3
		3:[f89449<0.700000048] yes=7,no=8,missing=7
			7:[f61332<0.400000006] yes=15,no=16,missing=15
				15:leaf=0.322921276
				16:leaf=1.25870359
			8:leaf=0.303095818
		4:[f67122<0.300000012] yes=9,no=10,missing=9
			9:[f133352<0.400000006] yes=17,no=18,missing=17
				17:leaf=0.227089226
				18:leaf=1.03923392
			10:[f130015<0.700000048] yes=19,no=20,missing=19
				19:leaf=0.742698073
				20:leaf=0.0526211262
	2:[f67172<0.100000001] yes=5,no=6,missing=5
		5:[f67119<0.100000001] yes=11,no=12,missing=11
			11:[f56751<0.700000048] yes=21,no=22,missing=21
				21:leaf=0.990804255
				22:leaf=0.512039363
			12:[f131321<0.100000001] yes=23,no=24,missing=23
				23:leaf=1.05556667
				24:leaf=0.637778819
		6:[f89157<0.100000001] yes=13,no=14,missing=13
			13:[f78228<0.300000012] yes=25,no=26,missing=25
				25:leaf=0.894993722
				26:leaf=0.655334353
			14:[f89157<0.300000012] yes=27,no=28,missing=27
				27:leaf=0.859805822
				28:leaf=1.0393703
booster[11]:
0:[f177465<0.100000001] yes=1,no=2,missing=1
	1:[f177468<0.200000003] yes=3,no=4,missing=3
		3:[f137388<0.200000003] yes=7,no=8,missing=7
			7:leaf=0.360751182
			8:[f67130<0.300000012] yes=15,no=16,missing=15
				15:leaf=1.20149279
				16:leaf=0.0737548172
		4:[f133382<0.400000006] yes=9,no=10,missing=9
			9:[f2172<0.100000001] yes=17,no=18,missing=17
				17:leaf=1.13925159
				18:leaf=0.00558435917
			10:[f68130<0.200000003] yes=19,no=20,missing=19
				19:leaf=0.226914987
				20:leaf=0.841087103
	2:[f89154<0.700000048] yes=5,no=6,missing=5
		5:[f89157<0.300000012] yes=11,no=12,missing=11
			11:[f177517<0.200000003] yes=21,no=22,missing=21
				21:leaf=0.851024032
				22:leaf=0.400941521
			12:leaf=0.999451518
		6:[f76789<0.5] yes=13,no=14,missing=13
			13:[f136803<0.700000048] yes=23,no=24,missing=23
				23:leaf=1.02116835
				24:leaf=0.726358712
			14:[f169280<0.700000048] yes=25,no=26,missing=25
				25:leaf=0.586980283
				26:leaf=0.731713951
booster[12]:
0:[f67137<0.200000003] yes=1,no=2,missing=1
	1:[f99090<0.700000048] yes=3,no=4,missing=3
		3:[f10314<0.100000001] yes=7,no=8,missing=7
			7:[f3320<0.700000048] yes=15,no=16,missing=15
				15:leaf=0.0480509996
				16:leaf=1.05259681
			8:leaf=0.0263871551
		4:[f1170<0.400000006] yes=9,no=10,missing=9
			9:leaf=0.155240268
			10:leaf=-0.00583025813
	2:[f89154<0.700000048] yes=5,no=6,missing=5
		5:[f169239<0.100000001] yes=11,no=12,missing=11
			11:[f9157<0.200000003] yes=17,no=18,missing=17
				17:leaf=0.682048738
				18:leaf=1.16296148
			12:[f145<0.400000006] yes=19,no=20,missing=19
				19:leaf=0.0634146035
				20:leaf=0.834609091
		6:[f45<0.400000006] yes=13,no=14,missing=13
			13:[f71689<0.400000006] yes=21,no=22,missing=21
				21:leaf=0.00540983677
				22:leaf=0.984984517
			14:[f77511<0.100000001] yes=23,no=24,missing=23
				23:leaf=0.598637819
				24:leaf=0.883838058
booster[13]:
0:[f177465<0.100000001] yes=1,no=2,missing=1
	1:[f129205<0.200000003] yes=3,no=4,missing=3
		3:[f137390<0.600000024] yes=7,no=8,missing=7
			7:[f169277<0.300000012] yes=15,no=16,missing=15
				15:leaf=1.07570136
				16:leaf=0.228536144
			8:leaf=0.452262938
		4:[f177606<0.700000048] yes=9,no=10,missing=9
			9:[f128965<0.100000001] yes=17,no=18,missing=17
				17:leaf=0.334720969
				18:leaf=0.785155118
			10:[f67137<0.700000048] yes=19,no=20,missing=19
				19:leaf=0.06935177
				20:leaf=0.261860669
	2:[f76789<0.700000048] yes=5,no=6,missing=5
		5:[f13515<0.400000006] yes=11,no=12,missing=11
			11:leaf=-0.00866532326
			12:[f9157<0.100000001] yes=21,no=22,missing=21
				21:leaf=0.63932699
				22:leaf=0.82950753
		6:[f89157<0.100000001] yes=13,no=14,missing=13
			13:[f67173<0.300000012] yes=23,no=24,missing=23
				23:leaf=0.604354441
				24:leaf=0.504790545
			14:[f169271<0.300000012] yes=25,no=26,missing=25
				25:leaf=0.783919156
				26:leaf=0.396329343
booster[14]:
0:[f129198<0.300000012] yes=1,no=2,missing=1
	1:[f3320<0.700000048] yes=3,no=4,missing=3
		3:leaf=0.0129337311
		4:[f32760<0.400000006] yes=7,no=8,missing=7
			7:[f78021<0.400000006] yes=13,no=14,missing=13
				13:leaf=1.05960441
				14:leaf=0.234876692
			8:leaf=0.15231365
	2:[f177465<0.100000001] yes=5,no=6,missing=5
		5:[f129205<0.5] yes=9,no=10,missing=9
			9:[f177602<0.400000006] yes=15,no=16,missing=15
				15:leaf=0.975461841
				16:leaf=0.260145396
			10:[f134557<0.700000048] yes=17,no=18,missing=17
				17:leaf=0.923645794
				18:leaf=0.684515893
		6:[f89157<0.100000001] yes=11,no=12,missing=11
			11:[f78246<0.700000048] yes=19,no=20,missing=19
				19:leaf=0.700945318
				20:leaf=0.495185375
			12:[f141097<0.100000001] yes=21,no=22,missing=21
				21:leaf=0.440552294
				22:leaf=0.765407443
booster[15]:
0:[f67140<0.100000001] yes=1,no=2,missing=1
	1:[f177487<0.700000048] yes=3,no=4,missing=3
		3:[f25590<0.5] yes=7,no=8,missing=7
			7:[f65515<0.400000006] yes=15,no=16,missing=15
				15:leaf=0.268112808
				16:leaf=0.925359905
			8:leaf=-0.169445276
		4:[f134503<0.700000048] yes=9,no=10,missing=9
			9:[f2172<0.100000001] yes=17,no=18,missing=17
				17:leaf=0.880355477
				18:leaf=-0.0481592417
			10:[f47894<0.300000012] yes=19,no=20,missing=19
				19:leaf=-0.00797654688
				20:leaf=0.635536194
	2:[f89157<0.100000001] yes=5,no=6,missing=5
		5:[f169244<0.100000001] yes=11,no=12,missing=11
			11:[f169275<0.100000001] yes=21,no=22,missing=21
				21:leaf=1.00377381
				22:leaf=0.356966287
			12:[f114696<0.100000001] yes=23,no=24,missing=23
				23:leaf=0.494969368
				24:leaf=1.02525449
		6:[f89157<0.300000012] yes=13,no=14,missing=13
			13:[f177498<0.200000003] yes=25,no=26,missing=25
				25:leaf=0.65681237
				26:leaf=0.393678427
			14:[f145<0.400000006] yes=27,no=28,missing=27
				27:leaf=0.0155056715
				28:leaf=0.788853049
booster[16]:
0:[f67137<0.200000003] yes=1,no=2,missing=1
	1:[f74060<0.400000006] yes=3,no=4,missing=3
		3:[f89451<0.300000012] yes=7,no=8,missing=7
			7:[f13513<0.400000006] yes=13,no=14,missing=13
				13:leaf=0.215613663
				14:leaf=-0.0457668602
			8:[f65515<0.400000006] yes=15,no=16,missing=15
				15:leaf=0.278942376
				16:leaf=0.89362663
		4:leaf=-0.095702745
	2:[f177465<0.100000001] yes=5,no=6,missing=5
		5:[f68130<0.200000003] yes=9,no=10,missing=9
			9:[f131570<0.100000001] yes=17,no=18,missing=17
				17:leaf=0.254041344
				18:leaf=-0.0288046598
			10:[f67119<0.100000001] yes=19,no=20,missing=19
				19:leaf=0.693909943
				20:leaf=0.482780874
		6:[f78327<0.400000006] yes=11,no=12,missing=11
			11:[f78919<0.400000006] yes=21,no=22,missing=21
				21:leaf=0.668389082
				22:leaf=0.126877338
			12:[f89154<0.700000048] yes=23,no=24,missing=23
				23:leaf=0.630943358
				24:leaf=0.446241975
booster[17]:
0:[f177612<0.100000001] yes=1,no=2,missing=1
	1:[f155419<0.700000048] yes=3,no=4,missing=3
		3:[f89449<0.700000048] yes=7,no=8,missing=7
			7:[f176743<0.100000001] yes=15,no=16,missing=15
				15:leaf=0.0670338869
				16:leaf=0.835726619
			8:[f169281<0.100000001] yes=17,no=18,missing=17
				17:leaf=0.0377466381
				18:leaf=0.337859005
		4:[f134557<0.700000048] yes=9,no=10,missing=9
			9:[f2172<0.100000001] yes=19,no=20,missing=19
				19:leaf=0.823892534
				20:leaf=-0.0683389902
			10:[f83480<0.700000048] yes=21,no=22,missing=21
				21:leaf=0.564002395
				22:leaf=0.00678130984
	2:[f76803<0.100000001] yes=5,no=6,missing=5
		5:[f129211<0.200000003] yes=11,no=12,missing=11
			11:[f128817<0.300000012] yes=23,no=24,missing=23
				23:leaf=0.310815156
				24:leaf=0.711288929
			12:[f129235<0.100000001] yes=25,no=26,missing=25
				25:leaf=0.546608746
				26:leaf=0.248756364
		6:[f89154<0.5] yes=13,no=14,missing=13
			13:[f3602<0.400000006] yes=27,no=28,missing=27
				27:leaf=0.207495511
				28:leaf=0.747666121
			14:[f25878<0.700000048] yes=29,no=30,missing=29
				29:leaf=0.837841988
				30:leaf=0.417325884
booster[18]:
0:[f129198<0.5] yes=1,no=2,missing=1
	1:[f47982<0.400000006] yes=3,no=4,missing=3
		3:leaf=-0.0695618391
		4:[f2459<0.100000001] yes=7,no=8,missing=7
			7:[f26549<0.100000001] yes=13,no=14,missing=13
				13:leaf=0.845118582
				14:leaf=0.15765202
			8:leaf=0.00110018253
	2:[f177465<0.100000001] yes=5,no=6,missing=5
		5:[f169281<0.5] yes=9,no=10,missing=9
			9:[f68130<0.200000003] yes=15,no=16,missing=15
				15:leaf=0.146467671
				16:leaf=0.569667876
			10:[f6919<0.700000048] yes=17,no=18,missing=17
				17:leaf=0.0635470152
				18:leaf=0.882685661
		6:[f89154<0.700000048] yes=11,no=12,missing=11
			11:[f89154<0.300000012] yes=19,no=20,missing=19
				19:leaf=0.707339704
				20:leaf=0.540518463
			12:[f136554<0.700000048] yes=21,no=22,missing=21
				21:leaf=0.444028378
				22:leaf=0.349345624
booster[19]:
0:[f177465<0.100000001] yes=1,no=2,missing=1
	1:[f169273<0.300000012] yes=3,no=4,missing=3
		3:[f25587<0.300000012] yes=7,no=8,missing=7
			7:leaf=-0.238361239
			8:[f14215<0.200000003] yes=15,no=16,missing=15
				15:leaf=0.270923734
				16:leaf=0.750638902
		4:[f21<0.600000024] yes=9,no=10,missing=9
			9:[f2172<0.100000001] yes=17,no=18,missing=17
				17:leaf=0.683696806
				18:leaf=-0.0840055346
			10:[f152438<0.100000001] yes=19,no=20,missing=19
				19:leaf=0.119990699
				20:leaf=0.517401576
	2:[f89157<0.100000001] yes=5,no=6,missing=5
		5:[f129198<0.300000012] yes=11,no=12,missing=11
			11:[f67125<0.700000048] yes=21,no=22,missing=21
				21:leaf=0.872149527
				22:leaf=0.161797851
			12:[f114696<0.100000001] yes=23,no=24,missing=23
				23:leaf=0.365490735
				24:leaf=0.817193151
		6:[f89157<0.300000012] yes=13,no=14,missing=13
			13:[f158234<0.5] yes=25,no=26,missing=25
				25:leaf=0.53699851
				26:leaf=0.410644948
			14:[f70364<0.300000012] yes=27,no=28,missing=27
				27:leaf=0.220300511
				28:leaf=0.615503848
booster[20]:
0:[f67137<0.200000003] yes=1,no=2,missing=1
	1:[f3320<0.700000048] yes=3,no=4,missing=3
		3:leaf=-0.12029767
		4:[f129210<0.200000003] yes=7,no=8,missing=7
			7:[f439<0.400000006] yes=13,no=14,missing=13
				13:leaf=0.666089118
				14:leaf=-0.116432339
			8:[f828<0.400000006] yes=15,no=16,missing=15
				15:leaf=0.0453684926
				16:leaf=-0.00734001398
	2:[f89154<0.700000048] yes=5,no=6,missing=5
		5:[f169239<0.100000001] yes=9,no=10,missing=9
			9:[f169272<0.100000001] yes=17,no=18,missing=17
				17:leaf=0.745036602
				18:leaf=0.211708546
			10:[f145<0.400000006] yes=19,no=20,missing=19
				19:leaf=-0.0655482411
				20:leaf=0.512688339
		6:[f21<0.400000006] yes=11,no=12,missing=11
			11:[f108181<0.400000006] yes=21,no=22,missing=21
				21:leaf=0.139301345
				22:leaf=0.616927862
			12:[f67127<0.300000012] yes=23,no=24,missing=23
				23:leaf=0.356404662
				24:leaf=0.862808764
booster[21]:
0:[f67140<0.100000001] yes=1,no=2,missing=1
	1:[f67129<0.600000024] yes=3,no=4,missing=3
		3:[f65517<0.400000006] yes=7,no=8,missing=7
			7:[f169831<0.700000048] yes=15,no=16,missing=15
				15:leaf=-0.148377836
				16:leaf=0.659329593
			8:[f9157<0.400000006] yes=17,no=18,missing=17
				17:leaf=0.00447738171
				18:leaf=0.250579089
		4:[f21<0.400000006] yes=9,no=10,missing=9
			9:[f2174<0.700000048] yes=19,no=20,missing=19
				19:leaf=-0.10065937
				20:leaf=0.590885043
			10:[f130471<0.700000048] yes=21,no=22,missing=21
				21:leaf=0.597564578
				22:leaf=0.319875211
	2:[f89154<0.700000048] yes=5,no=6,missing=5
		5:[f133268<0.5] yes=11,no=12,missing=11
			11:[f177512<0.600000024] yes=23,no=24,missing=23
				23:leaf=0.329408139
				24:leaf=0.0303251743
			12:[f169274<0.5] yes=25,no=26,missing=25
				25:leaf=0.506139219
				26:leaf=0.114980817
		6:[f79627<0.400000006] yes=13,no=14,missing=13
			13:[f67127<0.100000001] yes=27,no=28,missing=27
				27:leaf=0.351436198
				28:leaf=0.673650503
			14:[f129198<0.300000012] yes=29,no=30,missing=29
				29:leaf=0.812298656
				30:leaf=0.325797349
booster[22]:
0:[f129198<0.5] yes=1,no=2,missing=1
	1:[f25597<0.400000006] yes=3,no=4,missing=3
		3:leaf=-0.252046227
		4:[f3320<0.700000048] yes=7,no=8,missing=7
			7:leaf=-0.13714242
			8:[f47982<0.400000006] yes=13,no=14,missing=13
				13:leaf=-0.113863647
				14:leaf=0.658508897
	2:[f89157<0.300000012] yes=5,no=6,missing=5
		5:[f76970<0.400000006] yes=9,no=10,missing=9
			9:[f17119<0.100000001] yes=15,no=16,missing=15
				15:leaf=0.407472789
				16:leaf=0.625848234
			10:[f21<0.400000006] yes=17,no=18,missing=17
				17:leaf=0.524591863
				18:leaf=0.307938784
		6:[f134696<0.700000048] yes=11,no=12,missing=11
			11:[f1824<0.400000006] yes=19,no=20,missing=19
				19:leaf=0.11582768
				20:leaf=-0.0680229962
			12:[f67118<0.5] yes=21,no=22,missing=21
				21:leaf=0.508532166
				22:leaf=0.781325102
booster[23]:
0:[f67125<0.100000001] yes=1,no=2,missing=1
	1:[f99090<0.700000048] yes=3,no=4,missing=3
		3:[f39111<0.600000024] yes=7,no=8,missing=7
			7:[f1826<0.600000024] yes=15,no=16,missing=15
				15:leaf=-0.132856727
				16:leaf=0.122851253
			8:[f115639<0.700000048] yes=17,no=18,missing=17
				17:leaf=-0.0734536648
				18:leaf=0.586330175
		4:[f31099<0.400000006] yes=9,no=10,missing=9
			9:leaf=-0.159402013
			10:leaf=0.158438966
	2:[f78327<0.400000006] yes=5,no=6,missing=5
		5:[f26318<0.400000006] yes=11,no=12,missing=11
			11:leaf=-0.206711367
			12:[f67122<0.100000001] yes=19,no=20,missing=19
				19:leaf=0.540028095
				20:leaf=0.402686805
		6:[f89157<0.300000012] yes=13,no=14,missing=13
			13:[f8<0.400000006] yes=21,no=22,missing=21
				21:leaf=0.478913486
				22:leaf=0.290784895
			14:[f131328<0.100000001] yes=23,no=24,missing=23
				23:leaf=0.53141439
				24:leaf=0.0465050936
booster[24]:
0:[f177468<0.200000003] yes=1,no=2,missing=1
	1:[f169281<0.300000012] yes=3,no=4,missing=3
		3:[f25617<0.400000006] yes=7,no=8,missing=7
			7:[f77556<0.400000006] yes=15,no=16,missing=15
				15:leaf=0.448598623
				16:leaf=0.118833341
			8:leaf=-0.237710059
		4:[f169040<0.5] yes=9,no=10,missing=9
			9:[f2489<0.100000001] yes=17,no=18,missing=17
				17:leaf=0.640722692
				18:leaf=0.0606813841
			10:[f77001<0.400000006] yes=19,no=20,missing=19
				19:leaf=0.462203622
				20:leaf=0.137331426
	2:[f89157<0.300000012] yes=5,no=6,missing=5
		5:[f114697<0.700000048] yes=11,no=12,missing=11
			11:[f2445<0.700000048] yes=21,no=22,missing=21
				21:leaf=0.119779825
				22:leaf=0.725422382
			12:[f134335<0.700000048] yes=23,no=24,missing=23
				23:leaf=0.522214174
				24:leaf=0.276609391
		6:[f145<0.400000006] yes=13,no=14,missing=13
			13:leaf=-0.120339811
			14:[f56787<0.400000006] yes=25,no=26,missing=25
				25:leaf=0.504713655
				26:leaf=0.00262069702
booster[25]:
0:[f129198<0.5] yes=1,no=2,missing=1
	1:[f47982<0.400000006] yes=3,no=4,missing=3
		3:leaf=-0.139415026
		4:[f2456<0.700000048] yes=7,no=8,missing=7
			7:leaf=-0.0672938824
			8:[f27294<0.400000006] yes=13,no=14,missing=13
				13:leaf=0.577246726
				14:leaf=0.257713556
	2:[f89154<0.700000048] yes=5,no=6,missing=5
		5:[f169236<0.700000048] yes=9,no=10,missing=9
			9:[f113569<0.400000006] yes=15,no=16,missing=15
				15:leaf=-0.0125988321
				16:leaf=0.391143441
			10:leaf=0.661646247
		6:[f8<0.400000006] yes=11,no=12,missing=11
			11:[f30905<0.200000003] yes=17,no=18,missing=17
				17:leaf=0.454850674
				18:leaf=-0.145192504
			12:[f67127<0.300000012] yes=19,no=20,missing=19
				19:leaf=0.257139355
				20:leaf=0.615910053
booster[26]:
0:[f177465<0.100000001] yes=1,no=2,missing=1
	1:[f169273<0.300000012] yes=3,no=4,missing=3
		3:[f25587<0.300000012] yes=7,no=8,missing=7
			7:leaf=-0.24832058
			8:[f38477<0.100000001] yes=15,no=16,missing=15
				15:leaf=0.529696405
				16:leaf=0.21133256
		4:[f133398<0.400000006] yes=9,no=10,missing=9
			9:[f172399<0.700000048] yes=17,no=18,missing=17
				17:leaf=0.119717836
				18:leaf=0.528084338
			10:[f72789<0.700000048] yes=19,no=20,missing=19
				19:leaf=0.704265177
				20:leaf=0.31270647
	2:[f78246<0.700000048] yes=5,no=6,missing=5
		5:[f177457<0.5] yes=11,no=12,missing=11
			11:[f77568<0.400000006] yes=21,no=22,missing=21
				21:leaf=0.397318661
				22:leaf=0.268686801
			12:[f78147<0.400000006] yes=23,no=24,missing=23
				23:leaf=0.616713166
				24:leaf=0.0722534657
		6:[f26871<0.700000048] yes=13,no=14,missing=13
			13:[f169236<0.300000012] yes=25,no=26,missing=25
				25:leaf=0.717678547
				26:leaf=0.214314029
			14:[f177552<0.600000024] yes=27,no=28,missing=27
				27:leaf=0.243938461
				28:leaf=0.0100239841
booster[27]:
0:[f177465<0.100000001] yes=1,no=2,missing=1
	1:[f131318<0.100000001] yes=3,no=4,missing=3
		3:[f39223<0.400000006] yes=7,no=8,missing=7
			7:[f5037<0.400000006] yes=15,no=16,missing=15
				15:leaf=-0.237631753
				16:leaf=-0.0197569728
			8:[f23082<0.200000003] yes=17,no=18,missing=17
				17:leaf=-0.166692764
				18:leaf=0.416603684
		4:[f8<0.400000006] yes=9,no=10,missing=9
			9:[f2174<0.700000048] yes=19,no=20,missing=19
				19:leaf=-0.157157838
				20:leaf=0.420145363
			10:[f132522<0.5] yes=21,no=22,missing=21
				21:leaf=0.370109737
				22:leaf=0.0688955933
	2:[f78327<0.400000006] yes=5,no=6,missing=5
		5:[f134791<0.100000001] yes=11,no=12,missing=11
			11:[f114696<0.100000001] yes=23,no=24,missing=23
				23:leaf=0.281697154
				24:leaf=0.600954711
			12:[f129235<0.100000001] yes=25,no=26,missing=25
				25:leaf=0.466375381
				26:leaf=0.0360660553
		6:[f136554<0.700000048] yes=13,no=14,missing=13
			13:[f129990<0.700000048] yes=27,no=28,missing=27
				27:leaf=0.250586569
				28:leaf=0.46694085
			14:[f131386<0.100000001] yes=29,no=30,missing=29
				29:leaf=0.182184517
				30:leaf=0.566923261
booster[28]:
0:[f169239<0.100000001] yes=1,no=2,missing=1
	1:[f56751<0.600000024] yes=3,no=4,missing=3
		3:[f130471<0.700000048] yes=7,no=8,missing=7
			7:[f19362<0.400000006] yes=15,no=16,missing=15
				15:leaf=0.585024059
				16:leaf=-0.168241799
			8:[f17119<0.300000012] yes=17,no=18,missing=17
				17:leaf=0.296645731
				18:leaf=0.516722023
		4:[f21285<0.400000006] yes=9,no=10,missing=9
			9:leaf=0.326220632
			10:[f24<0.400000006] yes=19,no=20,missing=19
				19:leaf=-0.184676036
				20:leaf=0.120592833
	2:[f169281<0.5] yes=5,no=6,missing=5
		5:[f89157<0.100000001] yes=11,no=12,missing=11
			11:[f136554<0.700000048] yes=21,no=22,missing=21
				21:leaf=0.241057083
				22:leaf=0.158408105
			12:[f129999<0.100000001] yes=23,no=24,missing=23
				23:leaf=0.301802665
				24:leaf=0.15442577
		6:[f10314<0.100000001] yes=13,no=14,missing=13
			13:[f31099<0.5] yes=25,no=26,missing=25
				25:leaf=0.109891415
				26:leaf=0.520481944
			14:leaf=-0.229819596
booster[29]:
0:[f177468<0.200000003] yes=1,no=2,missing=1
	1:[f129991<0.100000001] yes=3,no=4,missing=3
		3:[f61332<0.5] yes=7,no=8,missing=7
			7:[f1665<0.400000006] yes=15,no=16,missing=15
				15:leaf=-0.163993359
				16:leaf=-0.0435109138
			8:[f72354<0.100000001] yes=17,no=18,missing=17
				17:leaf=0.275471747
				18:leaf=0.440822124
		4:[f171146<0.5] yes=9,no=10,missing=9
			9:[f67127<0.300000012] yes=19,no=20,missing=19
				19:leaf=0.164001182
				20:leaf=0.503674388
			10:[f67173<0.100000001] yes=21,no=22,missing=21
				21:leaf=0.0829734206
				22:leaf=-0.235401779
	2:[f67173<0.700000048] yes=5,no=6,missing=5
		5:[f67173<0.300000012] yes=11,no=12,missing=11
			11:[f67122<0.100000001] yes=23,no=24,missing=23
				23:leaf=0.376755267
				24:leaf=0.238667697
			12:[f136554<0.700000048] yes=25,no=26,missing=25
				25:leaf=0.214022517
				26:leaf=0.139754727
		6:[f67142<0.100000001] yes=13,no=14,missing=13
			13:[f6576<0.400000006] yes=27,no=28,missing=27
				27:leaf=-0.164531946
				28:leaf=0.537000418
			14:[f8<0.400000006] yes=29,no=30,missing=29
				29:leaf=0.350547642
				30:leaf=0.220582873
booster[30]:
0:[f67137<0.200000003] yes=1,no=2,missing=1
	1:[f74060<0.400000006] yes=3,no=4,missing=3
		3:[f129991<0.100000001] yes=7,no=8,missing=7
			7:[f65515<0.400000006] yes=13,no=14,missing=13
				13:leaf=0.0228196383
				14:leaf=0.404983819
			8:[f10980<0.400000006] yes=15,no=16,missing=15
				15:leaf=-0.252367944
				16:leaf=0.270670682
		4:leaf=-0.242096975
	2:[f89154<0.700000048] yes=5,no=6,missing=5
		5:[f159661<0.400000006] yes=9,no=10,missing=9
			9:[f27163<0.400000006] yes=17,no=18,missing=17
				17:leaf=0.538058341
				18:leaf=0.279080898
			10:leaf=0.589505076
		6:[f134503<0.700000048] yes=11,no=12,missing=11
			11:[f100717<0.600000024] yes=19,no=20,missing=19
				19:leaf=0.109615125
				20:leaf=0.431617677
			12:[f129240<0.5] yes=21,no=22,missing=21
				21:leaf=0.181465536
				22:leaf=0.441579074
booster[31]:
0:[f67122<0.100000001] yes=1,no=2,missing=1
	1:[f169280<0.700000048] yes=3,no=4,missing=3
		3:[f67129<0.700000048] yes=7,no=8,missing=7
			7:[f39104<0.700000048] yes=15,no=16,missing=15
				15:leaf=-0.112569451
				16:leaf=0.349039793
			8:[f8<0.400000006] yes=17,no=18,missing=17
				17:leaf=0.333316773
				18:leaf=0.194689751
		4:[f67125<0.700000048] yes=9,no=10,missing=9
			9:[f77258<0.400000006] yes=19,no=20,missing=19
				19:leaf=0.493134767
				20:leaf=0.0148605825
			10:[f169274<0.100000001] yes=21,no=22,missing=21
				21:leaf=0.168336004
				22:leaf=0.543516576
	2:[f25785<0.600000024] yes=5,no=6,missing=5
		5:[f25802<0.400000006] yes=11,no=12,missing=11
			11:[f131394<0.100000001] yes=23,no=24,missing=23
				23:leaf=0.562355101
				24:leaf=0.242605239
			12:leaf=0.178559899
		6:[f76789<0.700000048] yes=13,no=14,missing=13
			13:[f169280<0.300000012] yes=25,no=26,missing=25
				25:leaf=0.391834706
				26:leaf=0.212392196
			14:[f89154<0.700000048] yes=27,no=28,missing=27
				27:leaf=0.252027303
				28:leaf=0.139265731
booster[32]:
0:[f129198<0.5] yes=1,no=2,missing=1
	1:[f75372<0.100000001] yes=3,no=4,missing=3
		3:[f47982<0.400000006] yes=7,no=8,missing=7
			7:leaf=-0.185488701
			8:[f32760<0.400000006] yes=15,no=16,missing=15
				15:leaf=0.380625904
				16:leaf=-0.119252324
		4:[f1824<0.600000024] yes=9,no=10,missing=9
			9:leaf=-0.208950877
			10:leaf=0.0323697329
	2:[f129240<0.5] yes=5,no=6,missing=5
		5:[f75225<0.100000001] yes=11,no=12,missing=11
			11:[f160832<0.400000006] yes=17,no=18,missing=17
				17:leaf=0.488934398
				18:leaf=0.173137084
			12:[f169275<0.100000001] yes=19,no=20,missing=19
				19:leaf=0.524592578
				20:leaf=0.0112434328
		6:[f89451<0.100000001] yes=13,no=14,missing=13
			13:[f14067<0.100000001] yes=21,no=22,missing=21
				21:leaf=-0.0177339911
				22:leaf=-0.0812470913
			14:[f9157<0.200000003] yes=23,no=24,missing=23
				23:leaf=0.157116473
				24:leaf=0.460827947
booster[33]:
0:[f76803<0.100000001] yes=1,no=2,missing=1
	1:[f169281<0.300000012] yes=3,no=4,missing=3
		3:[f169241<0.300000012] yes=7,no=8,missing=7
			7:[f25587<0.400000006] yes=15,no=16,missing=15
				15:leaf=-0.299451232
				16:leaf=0.220585734
			8:[f1826<0.700000048] yes=17,no=18,missing=17
				17:leaf=0.464024335
				18:leaf=-0.0203441978
		4:[f169286<0.300000012] yes=9,no=10,missing=9
			9:[f78384<0.400000006] yes=19,no=20,missing=19
				19:leaf=-0.0656854212
				20:leaf=0.223452479
			10:[f67133<0.100000001] yes=21,no=22,missing=21
				21:leaf=0.352948695
				22:leaf=0.743889272
	2:[f161016<0.700000048] yes=5,no=6,missing=5
		5:[f131321<0.300000012] yes=11,no=12,missing=11
			11:[f1826<0.400000006] yes=23,no=24,missing=23
				23:leaf=0.669916391
				24:leaf=0.0998955965
			12:[f169239<0.5] yes=25,no=26,missing=25
				25:leaf=-0.144953728
				26:leaf=0.146658301
		6:[f25878<0.700000048] yes=13,no=14,missing=13
			13:[f27177<0.400000006] yes=27,no=28,missing=27
				27:leaf=0.206307232
				28:leaf=0.529717982
			14:[f89157<0.100000001] yes=29,no=30,missing=29
				29:leaf=0.142542511
				30:leaf=0.241034657
booster[34]:
0:[f30499<0.700000048] yes=1,no=2,missing=1
	1:[f67386<0.700000048] yes=3,no=4,missing=3
		3:[f5143<0.5] yes=7,no=8,missing=7
			7:leaf=-0.164022624
			8:[f43755<0.100000001] yes=15,no=16,missing=15
				15:leaf=0.659204364
				16:leaf=0.280852497
		4:[f58741<0.100000001] yes=9,no=10,missing=9
			9:[f3504<0.600000024] yes=17,no=18,missing=17
				17:leaf=0.181558251
				18:leaf=-0.231982782
			10:leaf=0.255338371
	2:[f177468<0.200000003] yes=5,no=6,missing=5
		5:[f137388<0.200000003] yes=11,no=12,missing=11
			11:[f77178<0.400000006] yes=19,no=20,missing=19
				19:leaf=-0.162910953
				20:leaf=0.126191556
			12:[f67139<0.300000012] yes=21,no=22,missing=21
				21:leaf=0.294461846
				22:leaf=-0.059633594
		6:[f135237<0.700000048] yes=13,no=14,missing=13
			13:[f131321<0.300000012] yes=23,no=24,missing=23
				23:leaf=0.337412387
				24:leaf=0.130516067
			14:[f78745<0.700000048] yes=25,no=26,missing=25
				25:leaf=0.240698457
				26:leaf=0.135800853
booster[35]:
0:[f30501<0.100000001] yes=1,no=2,missing=1
	1:[f67125<0.100000001] yes=3,no=4,missing=3
		3:[f39111<0.600000024] yes=7,no=8,missing=7
			7:[f1826<0.600000024] yes=15,no=16,missing=15
				15:leaf=-0.216077566
				16:leaf=0.0185035467
			8:[f78068<0.400000006] yes=17,no=18,missing=17
				17:leaf=0.311530709
				18:leaf=-0.0916023627
		4:[f114696<0.100000001] yes=9,no=10,missing=9
			9:[f67127<0.300000012] yes=19,no=20,missing=19
				19:leaf=0.143875405
				20:leaf=0.366185099
			10:[f67127<0.300000012] yes=21,no=22,missing=21
				21:leaf=0.476881742
				22:leaf=0.0814638734
	2:[f66600<0.700000048] yes=5,no=6,missing=5
		5:[f177486<0.100000001] yes=11,no=12,missing=11
			11:[f168552<0.300000012] yes=23,no=24,missing=23
				23:leaf=0.782209933
				24:leaf=0.286433935
			12:leaf=0.396721363
		6:[f77511<0.400000006] yes=13,no=14,missing=13
			13:[f89154<0.400000006] yes=25,no=26,missing=25
				25:leaf=0.267792314
				26:leaf=0.104187965
			14:[f3561<0.400000006] yes=27,no=28,missing=27
				27:leaf=0.175884545
				28:leaf=-0.293625593
booster[36]:
0:[f169239<0.100000001] yes=1,no=2,missing=1
	1:[f169268<0.200000003] yes=3,no=4,missing=3
		3:[f26574<0.5] yes=7,no=8,missing=7
			7:[f26551<0.200000003] yes=15,no=16,missing=15
				15:leaf=0.351248085
				16:leaf=-0.0675903857
			8:[f3325<0.100000001] yes=17,no=18,missing=17
				17:leaf=-0.303791404
				18:leaf=-0.00593137741
		4:[f68479<0.100000001] yes=9,no=10,missing=9
			9:[f10699<0.400000006] yes=19,no=20,missing=19
				19:leaf=0.230677783
				20:leaf=-0.254617065
			10:[f58741<0.700000048] yes=21,no=22,missing=21
				21:leaf=0.530255497
				22:leaf=0.173180908
	2:[f27415<0.600000024] yes=5,no=6,missing=5
		5:[f129229<0.400000006] yes=11,no=12,missing=11
			11:leaf=0.609895051
			12:leaf=0.284665436
		6:[f75207<0.700000048] yes=13,no=14,missing=13
			13:[f129205<0.200000003] yes=23,no=24,missing=23
				23:leaf=0.587821782
				24:leaf=0.229978293
			14:[f169281<0.5] yes=25,no=26,missing=25
				25:leaf=0.122894935
				26:leaf=0.277996063
booster[37]:
0:[f67122<0.100000001] yes=1,no=2,missing=1
	1:[f67172<0.5] yes=3,no=4,missing=3
		3:[f67142<0.100000001] yes=7,no=8,missing=7
			7:[f67139<0.100000001] yes=15,no=16,missing=15
				15:leaf=0.273784637
				16:leaf=-0.0676739886
			8:[f27290<0.700000048] yes=17,no=18,missing=17
				17:leaf=0.607231617
				18:leaf=0.128823221
		4:[f18042<0.400000006] yes=9,no=10,missing=9
			9:leaf=-0.241960377
			10:[f67139<0.100000001] yes=19,no=20,missing=19
				19:leaf=0.348015785
				20:leaf=-0.0187833551
	2:[f76608<0.700000048] yes=5,no=6,missing=5
		5:[f76434<0.400000006] yes=11,no=12,missing=11
			11:leaf=0.200623989
			12:leaf=0.618177176
		6:[f89154<0.700000048] yes=13,no=14,missing=13
			13:[f129197<0.100000001] yes=21,no=22,missing=21
				21:leaf=0.189889327
				22:leaf=-0.0561842062
			14:[f177461<0.300000012] yes=23,no=24,missing=23
				23:leaf=0.0224469099
				24:leaf=0.114824243
booster[38]:
0:[f67140<0.100000001] yes=1,no=2,missing=1
	1:[f152439<0.700000048] yes=3,no=4,missing=3
		3:[f68130<0.200000003] yes=7,no=8,missing=7
			7:[f22446<0.400000006] yes=15,no=16,missing=15
				15:leaf=0.0666057467
				16:leaf=-0.292867094
			8:[f12944<0.200000003] yes=17,no=18,missing=17
				17:leaf=-0.230132923
				18:leaf=0.238676369
		4:[f8<0.400000006] yes=9,no=10,missing=9
			9:[f38953<0.600000024] yes=19,no=20,missing=19
				19:leaf=-0.213356256
				20:leaf=0.189983189
			10:[f367<0.400000006] yes=21,no=22,missing=21
				21:leaf=0.681918085
				22:leaf=-0.180366203
	2:[f67173<0.300000012] yes=5,no=6,missing=5
		5:[f129240<0.300000012] yes=11,no=12,missing=11
			11:[f169281<0.300000012] yes=23,no=24,missing=23
				23:leaf=0.114759155
				24:leaf=0.361661732
			12:[f129995<0.100000001] yes=25,no=26,missing=25
				25:leaf=0.354345024
				26:leaf=0.178940803
		6:[f169281<0.100000001] yes=13,no=14,missing=13
			13:[f38474<0.100000001] yes=27,no=28,missing=27
				27:leaf=0.497908503
				28:leaf=0.132671475
			14:[f78180<0.300000012] yes=29,no=30,missing=29
				29:leaf=0.158163115
				30:leaf=0.0456552841
booster[39]:
0:[f129240<0.5] yes=1,no=2,missing=1
	1:[f114696<0.100000001] yes=3,no=4,missing=3
		3:[f30499<0.700000048] yes=7,no=8,missing=7
			7:[f67386<0.700000048] yes=15,no=16,missing=15
				15:leaf=0.4592278
				16:leaf=0.0236581657
			8:[f129198<0.5] yes=17,no=18,missing=17
				17:leaf=0.239821807
				18:leaf=0.101215087
		4:[f76884<0.600000024] yes=9,no=10,missing=9
			9:[f67125<0.300000012] yes=19,no=20,missing=19
				19:leaf=0.280897826
				20:leaf=0.525112092
			10:[f67125<0.300000012] yes=21,no=22,missing=21
				21:leaf=-0.0219588876
				22:leaf=0.194819137
	2:[f177609<0.200000003] yes=5,no=6,missing=5
		5:[f77088<0.700000048] yes=11,no=12,missing=11
			11:[f67172<0.300000012] yes=23,no=24,missing=23
				23:leaf=0.150046751
				24:leaf=-0.135010764
			12:[f177476<0.400000006] yes=25,no=26,missing=25
				25:leaf=0.299903035
				26:leaf=0.682957649
		6:[f129995<0.100000001] yes=13,no=14,missing=13
			13:leaf=0.237240762
			14:[f7957<0.400000006] yes=27,no=28,missing=27
				27:leaf=0.0994647145
				28:leaf=-0.119141757
booster[40]:
0:[f75225<0.300000012] yes=1,no=2,missing=1
	1:[f25725<0.700000048] yes=3,no=4,missing=3
		3:[f25971<0.100000001] yes=7,no=8,missing=7
			7:[f177464<0.100000001] yes=11,no=12,missing=11
				11:leaf=0.249658957
				12:leaf=0.445067227
			8:[f3878<0.600000024] yes=13,no=14,missing=13
				13:leaf=-0.0540027022
				14:leaf=0.0691357255
		4:[f81612<0.600000024] yes=9,no=10,missing=9
			9:leaf=0.743340075
			10:[f67142<0.100000001] yes=15,no=16,missing=15
				15:leaf=0.15915668
				16:leaf=0.0975708961
	2:[f171146<0.600000024] yes=5,no=6,missing=5
		5:leaf=0.290745467
		6:leaf=0.590094328
booster[41]:
0:[f129240<0.5] yes=1,no=2,missing=1
	1:[f129193<0.5] yes=3,no=4,missing=3
		3:[f14215<0.200000003] yes=7,no=8,missing=7
			7:[f67125<0.700000048] yes=15,no=16,missing=15
				15:leaf=0.21615164
				16:leaf=-0.199650109
			8:[f131331<0.100000001] yes=17,no=18,missing=17
				17:leaf=0.172684461
				18:leaf=-0.233752519
		4:[f169280<0.700000048] yes=9,no=10,missing=9
			9:[f79566<0.400000006] yes=19,no=20,missing=19
				19:leaf=0.171982005
				20:leaf=0.0551440157
			10:[f137388<0.200000003] yes=21,no=22,missing=21
				21:leaf=-0.00781145599
				22:leaf=0.187898815
	2:[f169271<0.300000012] yes=5,no=6,missing=5
		5:[f77430<0.400000006] yes=11,no=12,missing=11
			11:[f129995<0.300000012] yes=23,no=24,missing=23
				23:leaf=0.310440361
				24:leaf=0.0207838248
			12:leaf=-0.130486369
		6:[f9157<0.400000006] yes=13,no=14,missing=13
			13:leaf=0.00996649265
			14:leaf=-0.134733751
booster[42]:
0:[f177465<0.100000001] yes=1,no=2,missing=1
	1:[f162978<0.400000006] yes=3,no=4,missing=3
		3:[f56751<0.700000048] yes=7,no=8,missing=7
			7:[f14215<0.200000003] yes=15,no=16,missing=15
				15:leaf=-0.0710315704
				16:leaf=0.161302298
			8:[f21283<0.400000006] yes=17,no=18,missing=17
				17:leaf=-0.205802441
				18:leaf=0.250268638
		4:[f131337<0.700000048] yes=9,no=10,missing=9
			9:leaf=0.156973526
			10:leaf=0.519527435
	2:[f26426<0.700000048] yes=5,no=6,missing=5
		5:[f78045<0.400000006] yes=11,no=12,missing=11
			11:[f129229<0.400000006] yes=19,no=20,missing=19
				19:leaf=0.481695831
				20:leaf=0.168210819
			12:leaf=0.107338466
		6:[f173368<0.100000001] yes=13,no=14,missing=13
			13:[f78327<0.400000006] yes=21,no=22,missing=21
				21:leaf=0.146203727
				22:leaf=0.0719637275
			14:leaf=0.530024469
booster[43]:
0:[f129240<0.5] yes=1,no=2,missing=1
	1:[f30501<0.100000001] yes=3,no=4,missing=3
		3:[f114697<0.700000048] yes=7,no=8,missing=7
			7:[f169281<0.5] yes=15,no=16,missing=15
				15:leaf=0.330421597
				16:leaf=-0.0295743346
			8:[f75225<0.300000012] yes=17,no=18,missing=17
				17:leaf=0.0839477032
				18:leaf=0.465400845
		4:[f67386<0.700000048] yes=9,no=10,missing=9
			9:[f5143<0.5] yes=19,no=20,missing=19
				19:leaf=-0.228074253
				20:leaf=0.460427076
			10:[f44563<0.400000006] yes=21,no=22,missing=21
				21:leaf=-0.266644478
				22:leaf=0.0620912425
	2:[f169247<0.100000001] yes=5,no=6,missing=5
		5:[f67140<0.700000048] yes=11,no=12,missing=11
			11:[f32760<0.400000006] yes=23,no=24,missing=23
				23:leaf=0.307364494
				24:leaf=-0.166125834
			12:[f76771<0.400000006] yes=25,no=26,missing=25
				25:leaf=0.125702843
				26:leaf=-0.137087271
		6:[f9157<0.400000006] yes=13,no=14,missing=13
			13:leaf=-0.005245924
			14:leaf=-0.0847001448
booster[44]:
0:[f133268<0.5] yes=1,no=2,missing=1
	1:[f9001<0.400000006] yes=3,no=4,missing=3
		3:leaf=0.613582253
		4:[f2456<0.5] yes=7,no=8,missing=7
			7:leaf=0.572169244
			8:[f13399<0.400000006] yes=13,no=14,missing=13
				13:leaf=0.496054173
				14:leaf=0.009425289
	2:[f130014<0.100000001] yes=5,no=6,missing=5
		5:[f137258<0.100000001] yes=9,no=10,missing=9
			9:[f131343<0.700000048] yes=15,no=16,missing=15
				15:leaf=0.370396584
				16:leaf=0.0992085487
			10:[f67148<0.700000048] yes=17,no=18,missing=17
				17:leaf=0.112415038
				18:leaf=0.269699454
		6:[f25785<0.700000048] yes=11,no=12,missing=11
			11:[f2436<0.700000048] yes=19,no=20,missing=19
				19:leaf=0.00644958019
				20:leaf=0.416387618
			12:[f158929<0.5] yes=21,no=22,missing=21
				21:leaf=0.384033412
				22:leaf=0.0653311163
booster[45]:
0:[f30499<0.700000048] yes=1,no=2,missing=1
	1:[f67386<0.100000001] yes=3,no=4,missing=3
		3:leaf=0.540504754
		4:[f174259<0.400000006] yes=7,no=8,missing=7
			7:[f65839<0.400000006] yes=13,no=14,missing=13
				13:leaf=-0.0657532215
				14:leaf=-0.259185135
			8:[f10386<0.700000048] yes=15,no=16,missing=15
				15:leaf=-0.0411880016
				16:leaf=0.243950114
	2:[f129205<0.100000001] yes=5,no=6,missing=5
		5:[f129243<0.100000001] yes=9,no=10,missing=9
			9:[f136650<0.600000024] yes=17,no=18,missing=17
				17:leaf=0.206598625
				18:leaf=-0.226898298
			10:[f75205<0.100000001] yes=19,no=20,missing=19
				19:leaf=0.0837176219
				20:leaf=0.44306168
		6:[f131343<0.700000048] yes=11,no=12,missing=11
			11:[f130014<0.100000001] yes=21,no=22,missing=21
				21:leaf=0.355079979
				22:leaf=0.107489124
			12:[f136819<0.700000048] yes=23,no=24,missing=23
				23:leaf=0.298584431
				24:leaf=0.0586899482
booster[46]:
0:[f162927<0.400000006] yes=1,no=2,missing=1
	1:[f131318<0.300000012] yes=3,no=4,missing=3
		3:[f136562<0.400000006] yes=7,no=8,missing=7
			7:leaf=0.242633939
			8:[f14215<0.700000048] yes=13,no=14,missing=13
				13:leaf=0.15768522
				14:leaf=0.567081392
		4:[f38477<0.300000012] yes=9,no=10,missing=9
			9:leaf=0.167963386
			10:leaf=-4.76837158e-05
	2:[f81612<0.600000024] yes=5,no=6,missing=5
		5:leaf=0.674803436
		6:[f101004<0.100000001] yes=11,no=12,missing=11
			11:[f78393<0.400000006] yes=15,no=16,missing=15
				15:leaf=0.0556686036
				16:leaf=0.42987901
			12:[f17119<0.700000048] yes=17,no=18,missing=17
				17:leaf=0.232277751
				18:leaf=0.0869290754
booster[47]:
0:[f133268<0.5] yes=1,no=2,missing=1
	1:[f173631<0.400000006] yes=3,no=4,missing=3
		3:[f67172<0.5] yes=7,no=8,missing=7
			7:[f13399<0.400000006] yes=15,no=16,missing=15
				15:leaf=0.476978838
				16:leaf=-0.0272095166
			8:[f4585<0.400000006] yes=17,no=18,missing=17
				17:leaf=-0.117435277
				18:leaf=0.141733125
		4:[f60619<0.400000006] yes=9,no=10,missing=9
			9:[f45765<0.400000006] yes=19,no=20,missing=19
				19:leaf=0.0587584972
				20:leaf=-0.0714784265
			10:leaf=0.505456269
	2:[f129990<0.5] yes=5,no=6,missing=5
		5:[f155191<0.400000006] yes=11,no=12,missing=11
			11:[f9157<0.400000006] yes=21,no=22,missing=21
				21:leaf=0.0735109448
				22:leaf=0.596244335
			12:[f163363<0.100000001] yes=23,no=24,missing=23
				23:leaf=0.04389368
				24:leaf=0.201225281
		6:[f134792<0.700000048] yes=13,no=14,missing=13
			13:[f67172<0.5] yes=25,no=26,missing=25
				25:leaf=0.133821279
				26:leaf=0.242881313
			14:[f169280<0.5] yes=27,no=28,missing=27
				27:leaf=0.131999031
				28:leaf=0.0112039708
booster[48]:
0:[f8<0.400000006] yes=1,no=2,missing=1
	1:[f172346<0.100000001] yes=3,no=4,missing=3
		3:[f4873<0.700000048] yes=7,no=8,missing=7
			7:[f20376<0.400000006] yes=15,no=16,missing=15
				15:leaf=0.210693568
				16:leaf=-0.0752632022
			8:[f11893<0.400000006] yes=17,no=18,missing=17
				17:leaf=0.0112250801
				18:leaf=-0.248181343
		4:[f11413<0.400000006] yes=9,no=10,missing=9
			9:leaf=-0.230650187
			10:[f91050<0.100000001] yes=19,no=20,missing=19
				19:leaf=0.251311094
				20:leaf=-0.0676505566
	2:[f136554<0.700000048] yes=5,no=6,missing=5
		5:[f130016<0.100000001] yes=11,no=12,missing=11
			11:[f9774<0.100000001] yes=21,no=22,missing=21
				21:leaf=0.0590030029
				22:leaf=0.589543164
			12:[f67140<0.300000012] yes=23,no=24,missing=23
				23:leaf=0.101805322
				24:leaf=0.230409786
		6:[f89154<0.700000048] yes=13,no=14,missing=13
			13:[f136076<0.400000006] yes=25,no=26,missing=25
				25:leaf=0.0932720378
				26:leaf=0.339846343
			14:[f78354<0.400000006] yes=27,no=28,missing=27
				27:leaf=0.0270068292
				28:leaf=0.370102584
booster[49]:
0:[f169274<0.5] yes=1,no=2,missing=1
	1:[f75225<0.100000001] yes=3,no=4,missing=3
		3:[f169239<0.100000001] yes=7,no=8,missing=7
			7:[f5751<0.700000048] yes=15,no=16,missing=15
				15:leaf=0.133309975
				16:leaf=-0.0151197268
			8:[f169281<0.5] yes=17,no=18,missing=17
				17:leaf=0.0467048772
				18:leaf=0.199837983
		4:[f169229<0.300000012] yes=9,no=10,missing=9
			9:leaf=-0.140024662
			10:[f129995<0.300000012] yes=19,no=20,missing=19
				19:leaf=0.365013152
				20:leaf=0.0408371389
	2:[f67142<0.100000001] yes=5,no=6,missing=5
		5:[f67122<0.300000012] yes=11,no=12,missing=11
			11:[f17119<0.300000012] yes=21,no=22,missing=21
				21:leaf=-0.152721062
				22:leaf=0.0493365824
			12:leaf=0.106733918
		6:[f130015<0.5] yes=13,no=14,missing=13
			13:[f38474<0.100000001] yes=23,no=24,missing=23
				23:leaf=0.0564702153
				24:leaf=-0.240680233
			14:[f9157<0.400000006] yes=25,no=26,missing=25
				25:leaf=0.070699513
				26:leaf=0.0170366168
booster[50]:
0:[f67142<0.100000001] yes=1,no=2,missing=1
	1:[f177583<0.600000024] yes=3,no=4,missing=3
		3:[f169351<0.400000006] yes=7,no=8,missing=7
			7:[f101628<0.5] yes=15,no=16,missing=15
				15:leaf=0.154096186
				16:leaf=0.0600246862
			8:leaf=0.546304107
		4:[f6578<0.400000006] yes=9,no=10,missing=9
			9:[f58591<0.100000001] yes=17,no=18,missing=17
				17:leaf=-0.0993049741
				18:leaf=0.360178262
			10:leaf=-0.233171344
	2:[f161973<0.700000048] yes=5,no=6,missing=5
		5:[f131321<0.300000012] yes=11,no=12,missing=11
			11:[f2532<0.100000001] yes=19,no=20,missing=19
				19:leaf=0.398980081
				20:leaf=0.0206136703
			12:[f67118<0.5] yes=21,no=22,missing=21
				21:leaf=0.0892704427
				22:leaf=-0.151002765
		6:[f134335<0.700000048] yes=13,no=14,missing=13
			13:[f168582<0.700000048] yes=23,no=24,missing=23
				23:leaf=-0.148747653
				24:leaf=0.235702053
			14:[f81612<0.600000024] yes=25,no=26,missing=25
				25:leaf=0.634001017
				26:leaf=0.0356849954
booster[51]:
0:[f76748<0.5] yes=1,no=2,missing=1
	1:[f27254<0.700000048] yes=3,no=4,missing=3
		3:[f14707<0.200000003] yes=7,no=8,missing=7
			7:leaf=-0.0480740853
			8:leaf=-0.145040333
		4:[f3451<0.600000024] yes=9,no=10,missing=9
			9:leaf=-0.0734232664
			10:[f76296<0.400000006] yes=13,no=14,missing=13
				13:leaf=0.317607731
				14:leaf=0.0858925283
	2:[f9774<0.100000001] yes=5,no=6,missing=5
		5:[f81612<0.600000024] yes=11,no=12,missing=11
			11:leaf=0.607584298
			12:[f131352<0.300000012] yes=15,no=16,missing=15
				15:leaf=0.22565344
				16:leaf=0.0493872911
		6:leaf=0.554921031
booster[52]:
0:[f169239<0.100000001] yes=1,no=2,missing=1
	1:[f61334<0.5] yes=3,no=4,missing=3
		3:[f68130<0.200000003] yes=7,no=8,missing=7
			7:[f131568<0.100000001] yes=15,no=16,missing=15
				15:leaf=0.0472521782
				16:leaf=-0.316630334
			8:[f105877<0.300000012] yes=17,no=18,missing=17
				17:leaf=0.562983632
				18:leaf=0.120435767
		4:[f8<0.400000006] yes=9,no=10,missing=9
			9:leaf=0.106718265
			10:[f32712<0.400000006] yes=19,no=20,missing=19
				19:leaf=-0.0276806355
				20:leaf=-0.29864803
	2:[f26522<0.700000048] yes=5,no=6,missing=5
		5:[f27188<0.400000006] yes=11,no=12,missing=11
			11:leaf=0.164961055
			12:leaf=0.4668957
		6:[f155191<0.400000006] yes=13,no=14,missing=13
			13:leaf=0.558936715
			14:[f89157<0.300000012] yes=21,no=22,missing=21
				21:leaf=0.0313615091
				22:leaf=0.126128495
booster[53]:
0:[f160821<0.700000048] yes=1,no=2,missing=1
	1:[f136004<0.700000048] yes=3,no=4,missing=3
		3:leaf=0.175972492
		4:leaf=0.453229845
	2:[f155193<0.400000006] yes=5,no=6,missing=5
		5:[f129997<0.100000001] yes=7,no=8,missing=7
			7:[f67141<0.100000001] yes=9,no=10,missing=9
				9:leaf=0.151685372
				10:leaf=0.602560461
			8:[f89157<0.300000012] yes=11,no=12,missing=11
				11:leaf=0.0297193918
				12:leaf=0.115984492
		6:leaf=0.53273654
booster[54]:
0:[f169280<0.700000048] yes=1,no=2,missing=1
	1:[f76789<0.700000048] yes=3,no=4,missing=3
		3:[f89449<0.100000001] yes=7,no=8,missing=7
			7:[f129234<0.100000001] yes=15,no=16,missing=15
				15:leaf=0.132636264
				16:leaf=0.0317399651
			8:[f58591<0.700000048] yes=17,no=18,missing=17
				17:leaf=-0.194525734
				18:leaf=0.129724815
		4:[f30501<0.100000001] yes=9,no=10,missing=9
			9:[f78476<0.400000006] yes=19,no=20,missing=19
				19:leaf=0.0161346979
				20:leaf=0.49493283
			10:[f67386<0.700000048] yes=21,no=22,missing=21
				21:leaf=0.346518964
				22:leaf=-0.0890479311
	2:[f134791<0.100000001] yes=5,no=6,missing=5
		5:[f67119<0.5] yes=11,no=12,missing=11
			11:[f69313<0.400000006] yes=23,no=24,missing=23
				23:leaf=0.605767131
				24:leaf=0.0209139548
			12:leaf=0.583882868
		6:[f129234<0.100000001] yes=13,no=14,missing=13
			13:[f174099<0.400000006] yes=25,no=26,missing=25
				25:leaf=-0.0254734419
				26:leaf=0.224313095
			14:[f169239<0.5] yes=27,no=28,missing=27
				27:leaf=0.161670238
				28:leaf=0.00761783728
booster[55]:
0:[f5773<0.200000003] yes=1,no=2,missing=1
	1:leaf=0.696151376
	2:[f133268<0.5] yes=3,no=4,missing=3
		3:[f9001<0.400000006] yes=5,no=6,missing=5
			5:leaf=0.584309518
			6:[f2456<0.5] yes=9,no=10,missing=9
				9:leaf=0.527544856
				10:leaf=-0.0170386862
		4:[f129990<0.5] yes=7,no=8,missing=7
			7:[f132527<0.300000012] yes=11,no=12,missing=11
				11:leaf=0.0183646195
				12:leaf=0.145394966
			8:[f137259<0.700000048] yes=13,no=14,missing=13
				13:leaf=0.120952435
				14:leaf=0.0549536273
booster[56]:
0:[f27150<0.200000003] yes=1,no=2,missing=1
	1:[f81612<0.600000024] yes=3,no=4,missing=3
		3:leaf=0.56802243
		4:[f87145<0.700000048] yes=5,no=6,missing=5
			5:leaf=0.481536627
			6:[f129240<0.5] yes=7,no=8,missing=7
				7:leaf=0.0348770283
				8:leaf=0.136064202
	2:leaf=0.504509807
booster[57]:
0:[f129193<0.5] yes=1,no=2,missing=1
	1:[f131321<0.300000012] yes=3,no=4,missing=3
		3:[f160974<0.400000006] yes=7,no=8,missing=7
			7:[f67129<0.700000048] yes=15,no=16,missing=15
				15:leaf=0.0974923074
				16:leaf=0.40299049
			8:[f68130<0.200000003] yes=17,no=18,missing=17
				17:leaf=-0.187614426
				18:leaf=0.0915989056
		4:[f132527<0.300000012] yes=9,no=10,missing=9
			9:[f67125<0.700000048] yes=19,no=20,missing=19
				19:leaf=0.0790156946
				20:leaf=-0.190285102
			10:[f160998<0.400000006] yes=21,no=22,missing=21
				21:leaf=-0.236252785
				22:leaf=0.118353575
	2:[f78327<0.400000006] yes=5,no=6,missing=5
		5:[f75945<0.100000001] yes=11,no=12,missing=11
			11:[f177613<0.100000001] yes=23,no=24,missing=23
				23:leaf=0.0729646906
				24:leaf=0.291046381
			12:leaf=0.496311873
		6:[f169280<0.700000048] yes=13,no=14,missing=13
			13:[f163950<0.400000006] yes=25,no=26,missing=25
				25:leaf=-0.00498531945
				26:leaf=0.479480982
			14:[f67122<0.100000001] yes=27,no=28,missing=27
				27:leaf=0.21306242
				28:leaf=0.0391535312
booster[58]:
0:[f129205<0.100000001] yes=1,no=2,missing=1
	1:[f72354<0.100000001] yes=3,no=4,missing=3
		3:[f78213<0.400000006] yes=7,no=8,missing=7
			7:[f67172<0.5] yes=13,no=14,missing=13
				13:leaf=-0.0533565804
				14:leaf=0.051571656
			8:leaf=0.508691907
		4:[f67133<0.100000001] yes=9,no=10,missing=9
			9:[f137259<0.300000012] yes=15,no=16,missing=15
				15:leaf=0.0843427628
				16:leaf=0.350038767
			10:[f67127<0.100000001] yes=17,no=18,missing=17
				17:leaf=0.0128591415
				18:leaf=0.401642144
	2:[f129079<0.700000048] yes=5,no=6,missing=5
		5:leaf=0.454303116
		6:[f31039<0.700000048] yes=11,no=12,missing=11
			11:[f656<0.400000006] yes=19,no=20,missing=19
				19:leaf=0.172160566
				20:leaf=0.67346251
			12:[f81612<0.600000024] yes=21,no=22,missing=21
				21:leaf=0.542550385
				22:leaf=0.0182876009
booster[59]:
0:[f56751<0.700000048] yes=1,no=2,missing=1
	1:[f129193<0.5] yes=3,no=4,missing=3
		3:[f102128<0.700000048] yes=7,no=8,missing=7
			7:[f76677<0.400000006] yes=13,no=14,missing=13
				13:leaf=0.395371765
				14:leaf=-0.0421998501
			8:[f130777<0.100000001] yes=15,no=16,missing=15
				15:leaf=-0.221341744
				16:leaf=0.0767706782
		4:[f169280<0.700000048] yes=9,no=10,missing=9
			9:[f5773<0.400000006] yes=17,no=18,missing=17
				17:leaf=0.652416825
				18:leaf=0.00544146867
			10:[f177612<0.5] yes=19,no=20,missing=19
				19:leaf=-0.0603124611
				20:leaf=0.106321543
	2:[f21283<0.400000006] yes=5,no=6,missing=5
		5:[f8<0.400000006] yes=11,no=12,missing=11
			11:leaf=0.0170692801
			12:[f132900<0.100000001] yes=21,no=22,missing=21
				21:leaf=-0.33658722
				22:leaf=-0.0237390399
		6:leaf=0.209919274
booster[60]:
0:[f27879<0.700000048] yes=1,no=2,missing=1
	1:[f25795<0.400000006] yes=3,no=4,missing=3
		3:[f28422<0.400000006] yes=7,no=8,missing=7
			7:[f67148<0.300000012] yes=15,no=16,missing=15
				15:leaf=-0.0262792911
				16:leaf=0.0265658703
			8:leaf=0.124970734
		4:[f67140<0.5] yes=9,no=10,missing=9
			9:leaf=0.42109102
			10:[f4285<0.400000006] yes=17,no=18,missing=17
				17:leaf=0.0833751559
				18:leaf=-0.0109866261
	2:[f173365<0.700000048] yes=5,no=6,missing=5
		5:[f169280<0.300000012] yes=11,no=12,missing=11
			11:[f8<0.400000006] yes=19,no=20,missing=19
				19:leaf=0.127567843
				20:leaf=-0.00862145424
			12:leaf=0.425599337
		6:[f155036<0.600000024] yes=13,no=14,missing=13
			13:[f10980<0.400000006] yes=21,no=22,missing=21
				21:leaf=0.459156513
				22:leaf=0.0647149682
			14:[f12584<0.400000006] yes=23,no=24,missing=23
				23:leaf=0.599840283
				24:leaf=0.0285686888
booster[61]:
0:[f75225<0.300000012] yes=1,no=2,missing=1
	1:[f169038<0.300000012] yes=3,no=4,missing=3
		3:[f135949<0.400000006] yes=7,no=8,missing=7
			7:leaf=0.465477973
			8:[f25888<0.100000001] yes=13,no=14,missing=13
				13:leaf=-0.0465092063
				14:leaf=0.326114506
		4:[f134793<0.100000001] yes=9,no=10,missing=9
			9:[f5773<0.200000003] yes=15,no=16,missing=15
				15:leaf=0.63113606
				16:leaf=0.0317587741
			10:leaf=0.4943735
	2:[f171147<0.200000003] yes=5,no=6,missing=5
		5:leaf=0.404719293
		6:[f16413<0.400000006] yes=11,no=12,missing=11
			11:leaf=0.18633844
			12:leaf=0.0508560538
booster[62]:
0:[f129192<0.100000001] yes=1,no=2,missing=1
	1:[f136554<0.700000048] yes=3,no=4,missing=3
		3:[f130016<0.100000001] yes=5,no=6,missing=5
			5:[f177461<0.300000012] yes=9,no=10,missing=9
				9:leaf=-0.0848560631
				10:leaf=0.0547017492
			6:[f67140<0.300000012] yes=11,no=12,missing=11
				11:leaf=0.0413601138
				12:leaf=0.20237197
		4:[f84937<0.300000012] yes=7,no=8,missing=7
			7:[f31041<0.100000001] yes=13,no=14,missing=13
				13:leaf=0.0101058725
				14:leaf=0.515939534
			8:[f171146<0.300000012] yes=15,no=16,missing=15
				15:leaf=-0.0331240483
				16:leaf=0.403127164
	2:leaf=0.366788179
booster[63]:
0:[f160975<0.5] yes=1,no=2,missing=1
	1:[f67903<0.700000048] yes=3,no=4,missing=3
		3:[f58741<0.700000048] yes=5,no=6,missing=5
			5:[f134666<0.400000006] yes=9,no=10,missing=9
				9:leaf=0.00642100954
				10:leaf=0.3578116
			6:[f52825<0.700000048] yes=11,no=12,missing=11
				11:leaf=0.350360274
				12:leaf=0.0231190193
		4:[f131568<0.300000012] yes=7,no=8,missing=7
			7:leaf=-0.138928607
			8:leaf=-0.401292652
	2:leaf=0.440529764
booster[64]:
0:[f177600<0.300000012] yes=1,no=2,missing=1
	1:[f126002<0.700000048] yes=3,no=4,missing=3
		3:[f169261<0.200000003] yes=7,no=8,missing=7
			7:[f24189<0.700000048] yes=15,no=16,missing=15
				15:leaf=0.0252743959
				16:leaf=0.0979215503
			8:leaf=0.384243667
		4:[f168248<0.700000048] yes=9,no=10,missing=9
			9:[f67140<0.5] yes=17,no=18,missing=17
				17:leaf=0.134026587
				18:leaf=0.495552033
			10:[f49189<0.700000048] yes=19,no=20,missing=19
				19:leaf=0.337022603
				20:leaf=0.0242047515
	2:[f169280<0.5] yes=5,no=6,missing=5
		5:[f129229<0.400000006] yes=11,no=12,missing=11
			11:[f129234<0.100000001] yes=21,no=22,missing=21
				21:leaf=-0.0551636666
				22:leaf=-0.178032294
			12:[f109<0.400000006] yes=23,no=24,missing=23
				23:leaf=-0.061686039
				24:leaf=-0.319735795
		6:[f92100<0.300000012] yes=13,no=14,missing=13
			13:[f41431<0.400000006] yes=25,no=26,missing=25
				25:leaf=0.0947978497
				26:leaf=-0.0981791019
			14:leaf=0.0696448982
booster[65]:
0:[f9157<0.100000001] yes=1,no=2,missing=1
	1:[f168931<0.700000048] yes=3,no=4,missing=3
		3:leaf=0.280754983
		4:[f25888<0.100000001] yes=7,no=8,missing=7
			7:[f129192<0.100000001] yes=13,no=14,missing=13
				13:leaf=-0.0566090457
				14:leaf=0.296078295
			8:leaf=0.309204459
	2:[f161288<0.5] yes=5,no=6,missing=5
		5:[f67127<0.300000012] yes=9,no=10,missing=9
			9:[f88225<0.100000001] yes=15,no=16,missing=15
				15:leaf=-0.243981317
				16:leaf=0.0342137292
			10:[f129242<0.5] yes=17,no=18,missing=17
				17:leaf=0.125218242
				18:leaf=0.432990342
		6:[f129239<0.100000001] yes=11,no=12,missing=11
			11:[f26007<0.5] yes=19,no=20,missing=19
				19:leaf=0.0860857144
				20:leaf=0.409066141
			12:[f3504<0.600000024] yes=21,no=22,missing=21
				21:leaf=0.0080858469
				22:leaf=-0.124271989
booster[66]:
0:[f172273<0.700000048] yes=1,no=2,missing=1
	1:[f127219<0.100000001] yes=3,no=4,missing=3
		3:[f367<0.400000006] yes=7,no=8,missing=7
			7:leaf=0.577238977
			8:[f28783<0.400000006] yes=13,no=14,missing=13
				13:leaf=0.522483468
				14:leaf=-0.0918038562
		4:[f131337<0.700000048] yes=9,no=10,missing=9
			9:[f5751<0.300000012] yes=15,no=16,missing=15
				15:leaf=0.0715669021
				16:leaf=-0.0416892357
			10:[f3423<0.400000006] yes=17,no=18,missing=17
				17:leaf=0.0933477283
				18:leaf=0.390776306
	2:[f81612<0.600000024] yes=5,no=6,missing=5
		5:leaf=0.504926562
		6:[f87145<0.700000048] yes=11,no=12,missing=11
			11:leaf=0.387990415
			12:[f5773<0.200000003] yes=19,no=20,missing=19
				19:leaf=0.592741907
				20:leaf=0.0179525372
booster[67]:
0:[f161385<0.400000006] yes=1,no=2,missing=1
	1:[f161352<0.400000006] yes=3,no=4,missing=3
		3:[f161779<0.400000006] yes=7,no=8,missing=7
			7:[f162828<0.400000006] yes=15,no=16,missing=15
				15:leaf=0.42661047
				16:leaf=0.196230918
			8:leaf=0.134457558
		4:[f38477<0.200000003] yes=9,no=10,missing=9
			9:leaf=-0.210148811
			10:leaf=-0.0209636688
	2:[f67119<0.100000001] yes=5,no=6,missing=5
		5:[f135235<0.100000001] yes=11,no=12,missing=11
			11:[f173365<0.700000048] yes=17,no=18,missing=17
				17:leaf=0.286265701
				18:leaf=0.0211312138
			12:[f136580<0.5] yes=19,no=20,missing=19
				19:leaf=0.0967508182
				20:leaf=0.449309826
		6:[f38474<0.5] yes=13,no=14,missing=13
			13:[f131352<0.5] yes=21,no=22,missing=21
				21:leaf=0.000686181942
				22:leaf=-0.214171126
			14:[f14215<0.400000006] yes=23,no=24,missing=23
				23:leaf=0.307407737
				24:leaf=0.0499067903
booster[68]:
0:[f129242<0.100000001] yes=1,no=2,missing=1
	1:[f5773<0.400000006] yes=3,no=4,missing=3
		3:leaf=0.57355839
		4:[f147835<0.400000006] yes=7,no=8,missing=7
			7:[f137388<0.200000003] yes=11,no=12,missing=11
				11:leaf=-0.0698369741
				12:leaf=0.055076953
			8:leaf=0.572941661
	2:[f81612<0.600000024] yes=5,no=6,missing=5
		5:leaf=0.48300755
		6:[f72789<0.700000048] yes=9,no=10,missing=9
			9:leaf=0.311758995
			10:[f168248<0.700000048] yes=13,no=14,missing=13
				13:leaf=0.471849948
				14:leaf=-0.000896737911
booster[69]:
0:[f129218<0.100000001] yes=1,no=2,missing=1
	1:[f155701<0.100000001] yes=3,no=4,missing=3
		3:[f136554<0.700000048] yes=7,no=8,missing=7
			7:[f17119<0.700000048] yes=13,no=14,missing=13
				13:leaf=0.125321001
				14:leaf=0.0346302614
			8:[f8<0.400000006] yes=15,no=16,missing=15
				15:leaf=0.0950186849
				16:leaf=0.00203301152
		4:[f131571<0.5] yes=9,no=10,missing=9
			9:[f8426<0.400000006] yes=17,no=18,missing=17
				17:leaf=-0.0805614591
				18:leaf=0.369446307
			10:[f155701<0.700000048] yes=19,no=20,missing=19
				19:leaf=0.203758031
				20:leaf=-0.218577936
	2:[f67172<0.700000048] yes=5,no=6,missing=5
		5:[f177487<0.400000006] yes=11,no=12,missing=11
			11:[f169248<0.700000048] yes=21,no=22,missing=21
				21:leaf=-0.30310899
				22:leaf=-0.100107096
			12:[f1599<0.400000006] yes=23,no=24,missing=23
				23:leaf=-0.0647049546
				24:leaf=0.00713890791
		6:leaf=0.0809701085
booster[70]:
0:[f131343<0.700000048] yes=1,no=2,missing=1
	1:[f131337<0.700000048] yes=3,no=4,missing=3
		3:[f153256<0.100000001] yes=7,no=8,missing=7
			7:[f169244<0.700000048] yes=13,no=14,missing=13
				13:leaf=0.0059977374
				14:leaf=0.27780354
			8:[f17442<0.700000048] yes=15,no=16,missing=15
				15:leaf=0.026747942
				16:leaf=-0.148486197
		4:[f131340<0.600000024] yes=9,no=10,missing=9
			9:[f38629<0.400000006] yes=17,no=18,missing=17
				17:leaf=-0.23964116
				18:leaf=-0.0709794164
			10:leaf=0.101821221
	2:[f160975<0.5] yes=5,no=6,missing=5
		5:[f129240<0.5] yes=11,no=12,missing=11
			11:[f139548<0.400000006] yes=19,no=20,missing=19
				19:leaf=0.0118474038
				20:leaf=0.47725603
			12:[f177609<0.200000003] yes=21,no=22,missing=21
				21:leaf=0.143651396
				22:leaf=-0.0748284534
		6:leaf=0.398053199
booster[71]:
0:[f9774<0.100000001] yes=1,no=2,missing=1
	1:[f134793<0.100000001] yes=3,no=4,missing=3
		3:[f75225<0.100000001] yes=5,no=6,missing=5
			5:[f133268<0.100000001] yes=7,no=8,missing=7
				7:leaf=-0.0502806455
				8:leaf=0.0218926053
			6:[f169232<0.400000006] yes=9,no=10,missing=9
				9:leaf=-0.146845579
				10:leaf=0.191845566
		4:leaf=0.435069948
	2:leaf=0.473818153
booster[72]:
0:[f155193<0.400000006] yes=1,no=2,missing=1
	1:[f129215<0.300000012] yes=3,no=4,missing=3
		3:[f62437<0.5] yes=5,no=6,missing=5
			5:[f129223<0.400000006] yes=9,no=10,missing=9
				9:leaf=0.536765754
				10:leaf=0.0551995747
			6:[f78747<0.100000001] yes=11,no=12,missing=11
				11:leaf=0.0153554156
				12:leaf=0.146437243
		4:[f169280<0.5] yes=7,no=8,missing=7
			7:[f77198<0.100000001] yes=13,no=14,missing=13
				13:leaf=-0.197279751
				14:leaf=0.0282696337
			8:[f67125<0.5] yes=15,no=16,missing=15
				15:leaf=-0.052197881
				16:leaf=0.18589586
	2:leaf=0.424774051
booster[73]:
0:[f163950<0.400000006] yes=1,no=2,missing=1
	1:[f129192<0.100000001] yes=3,no=4,missing=3
		3:[f5163<0.400000006] yes=5,no=6,missing=5
			5:[f70339<0.400000006] yes=7,no=8,missing=7
				7:leaf=0.455818295
				8:leaf=0.150740042
			6:[f8<0.400000006] yes=9,no=10,missing=9
				9:leaf=0.0921172649
				10:leaf=3.70823036e-05
		4:leaf=0.338195086
	2:leaf=0.59330523
booster[74]:
0:[f9774<0.100000001] yes=1,no=2,missing=1
	1:[f11767<0.700000048] yes=3,no=4,missing=3
		3:[f169241<0.100000001] yes=5,no=6,missing=5
			5:[f3535<0.700000048] yes=9,no=10,missing=9
				9:leaf=0.0455086827
				10:leaf=0.4604415
			6:[f5161<0.400000006] yes=11,no=12,missing=11
				11:leaf=-0.056958992
				12:leaf=0.0628305674
		4:[f151172<0.300000012] yes=7,no=8,missing=7
			7:[f77317<0.400000006] yes=13,no=14,missing=13
				13:leaf=0.327271968
				14:leaf=-0.106186807
			8:[f162195<0.400000006] yes=15,no=16,missing=15
				15:leaf=0.202355072
				16:leaf=0.0114384117
	2:leaf=0.450886399
booster[75]:
0:[f8479<0.600000024] yes=1,no=2,missing=1
	1:[f129209<0.100000001] yes=3,no=4,missing=3
		3:leaf=0.553555965
		4:leaf=-0.111752689
	2:[f135830<0.700000048] yes=5,no=6,missing=5
		5:[f8<0.400000006] yes=7,no=8,missing=7
			7:leaf=0.0860933065
			8:leaf=0.371965945
		6:[f155036<0.600000024] yes=9,no=10,missing=9
			9:[f10981<0.400000006] yes=11,no=12,missing=11
				11:leaf=0.0532743931
				12:leaf=0.422195673
			10:[f9001<0.400000006] yes=13,no=14,missing=13
				13:leaf=0.5587309
				14:leaf=0.011349286
booster[76]:
0:[f177258<0.300000012] yes=1,no=2,missing=1
	1:[f70926<0.400000006] yes=3,no=4,missing=3
		3:leaf=0.0671865344
		4:[f14965<0.700000048] yes=7,no=8,missing=7
			7:leaf=0.0348860621
			8:[f11683<0.400000006] yes=13,no=14,missing=13
				13:leaf=0.0171380639
				14:leaf=-0.286973804
	2:[f41119<0.100000001] yes=5,no=6,missing=5
		5:[f151172<0.300000012] yes=9,no=10,missing=9
			9:[f32551<0.400000006] yes=15,no=16,missing=15
				15:leaf=-0.103223145
				16:leaf=0.312374026
			10:[f65965<0.700000048] yes=17,no=18,missing=17
				17:leaf=0.329166055
				18:leaf=0.00497417338
		6:[f513<0.400000006] yes=11,no=12,missing=11
			11:[f66049<0.400000006] yes=19,no=20,missing=19
				19:leaf=-0.0355882645
				20:leaf=0.263706625
			12:leaf=-0.2637133
booster[77]:
0:[f56751<0.700000048] yes=1,no=2,missing=1
	1:[f102128<0.700000048] yes=3,no=4,missing=3
		3:[f168685<0.400000006] yes=7,no=8,missing=7
			7:[f8<0.400000006] yes=13,no=14,missing=13
				13:leaf=0.0428155661
				14:leaf=0.359331071
			8:leaf=-0.0401290245
		4:[f172273<0.700000048] yes=9,no=10,missing=9
			9:[f166845<0.700000048] yes=15,no=16,missing=15
				15:leaf=0.294576794
				16:leaf=0.0414235964
			10:[f67127<0.300000012] yes=17,no=18,missing=17
				17:leaf=0.00911377277
				18:leaf=0.13292554
	2:[f21283<0.400000006] yes=5,no=6,missing=5
		5:[f130471<0.300000012] yes=11,no=12,missing=11
			11:[f40771<0.400000006] yes=19,no=20,missing=19
				19:leaf=-0.031406045
				20:leaf=-0.384707928
			12:[f1824<0.400000006] yes=21,no=22,missing=21
				21:leaf=-0.159866229
				22:leaf=0.0446488857
		6:leaf=0.194950461
booster[78]:
0:[f69854<0.400000006] yes=1,no=2,missing=1
	1:leaf=0.466416538
	2:[f169353<0.300000012] yes=3,no=4,missing=3
		3:[f481<0.400000006] yes=5,no=6,missing=5
			5:leaf=0.438130647
			6:leaf=0.0152745843
		4:[f126002<0.700000048] yes=7,no=8,missing=7
			7:[f169261<0.200000003] yes=9,no=10,missing=9
				9:leaf=0.0889155641
				10:leaf=0.325899899
			8:[f131330<0.100000001] yes=11,no=12,missing=11
				11:leaf=0.110776015
				12:leaf=-0.00128738617
booster[79]:
0:[f9774<0.100000001] yes=1,no=2,missing=1
	1:[f47892<0.5] yes=3,no=4,missing=3
		3:[f131352<0.300000012] yes=5,no=6,missing=5
			5:[f132527<0.300000012] yes=9,no=10,missing=9
				9:leaf=-0.0354681276
				10:leaf=0.2724576
			6:[f12582<0.400000006] yes=11,no=12,missing=11
				11:leaf=0.00591148762
				12:leaf=0.55484724
		4:[f5749<0.200000003] yes=7,no=8,missing=7
			7:leaf=-0.411803007
			8:leaf=-0.0566949844
	2:leaf=0.421572268
booster[80]:
0:[f78393<0.400000006] yes=1,no=2,missing=1
	1:[f169253<0.100000001] yes=3,no=4,missing=3
		3:[f68479<0.700000048] yes=7,no=8,missing=7
			7:[f129995<0.300000012] yes=13,no=14,missing=13
				13:leaf=0.223970756
				14:leaf=-0.0568498373
			8:[f168248<0.700000048] yes=15,no=16,missing=15
				15:leaf=0.400461257
				16:leaf=0.0113683548
		4:[f78767<0.200000003] yes=9,no=10,missing=9
			9:[f145645<0.700000048] yes=17,no=18,missing=17
				17:leaf=0.431908965
				18:leaf=-0.0777983144
			10:leaf=0.358373672
	2:[f171405<0.400000006] yes=5,no=6,missing=5
		5:leaf=0.388480276
		6:[f10980<0.400000006] yes=11,no=12,missing=11
			11:leaf=0.021848321
			12:leaf=-0.0129211545
booster[81]:
0:[f169247<0.100000001] yes=1,no=2,missing=1
	1:[f169351<0.5] yes=3,no=4,missing=3
		3:[f11767<0.700000048] yes=7,no=8,missing=7
			7:[f131337<0.600000024] yes=15,no=16,missing=15
				15:leaf=0.0114209056
				16:leaf=0.346335024
			8:[f114697<0.700000048] yes=17,no=18,missing=17
				17:leaf=0.150646806
				18:leaf=0.010819993
		4:[f481<0.400000006] yes=9,no=10,missing=9
			9:leaf=0.415360153
			10:leaf=0.0142573118
	2:[f67125<0.100000001] yes=5,no=6,missing=5
		5:[f77127<0.400000006] yes=11,no=12,missing=11
			11:leaf=0.131162703
			12:leaf=0.0289212074
		6:[f7268<0.700000048] yes=13,no=14,missing=13
			13:leaf=0.239431143
			14:[f129193<0.700000048] yes=19,no=20,missing=19
				19:leaf=-0.260743618
				20:leaf=-0.108815372
booster[82]:
0:[f114696<0.100000001] yes=1,no=2,missing=1
	1:[f177611<0.100000001] yes=3,no=4,missing=3
		3:[f76129<0.700000048] yes=7,no=8,missing=7
			7:[f129242<0.300000012] yes=13,no=14,missing=13
				13:leaf=0.0933035687
				14:leaf=0.270743757
			8:[f129192<0.100000001] yes=15,no=16,missing=15
				15:leaf=-0.00123662734
				16:leaf=0.301377505
		4:[f1801<0.400000006] yes=9,no=10,missing=9
			9:leaf=-0.0827795267
			10:leaf=-0.319423527
	2:[f76908<0.400000006] yes=5,no=6,missing=5
		5:[f22171<0.700000048] yes=11,no=12,missing=11
			11:[f590<0.700000048] yes=17,no=18,missing=17
				17:leaf=0.020486474
				18:leaf=-0.0809844732
			12:[f137258<0.5] yes=19,no=20,missing=19
				19:leaf=0.300073355
				20:leaf=0.1470377
		6:leaf=-0.174994916
booster[83]:
0:[f38484<0.300000012] yes=1,no=2,missing=1
	1:[f155702<0.700000048] yes=3,no=4,missing=3
		3:[f23082<0.200000003] yes=7,no=8,missing=7
			7:[f9499<0.700000048] yes=15,no=16,missing=15
				15:leaf=0.0680835247
				16:leaf=-0.344459176
			8:[f130779<0.700000048] yes=17,no=18,missing=17
				17:leaf=0.298160017
				18:leaf=-0.132455468
		4:[f131352<0.300000012] yes=9,no=10,missing=9
			9:[f67140<0.5] yes=19,no=20,missing=19
				19:leaf=0.098692894
				20:leaf=0.434596539
			10:[f75225<0.300000012] yes=21,no=22,missing=21
				21:leaf=0.00186504843
				22:leaf=0.236015394
	2:[f136490<0.700000048] yes=5,no=6,missing=5
		5:[f67118<0.700000048] yes=11,no=12,missing=11
			11:[f161901<0.400000006] yes=23,no=24,missing=23
				23:leaf=0.0749264136
				24:leaf=-0.0542850196
			12:leaf=-0.207104146
		6:[f67118<0.100000001] yes=13,no=14,missing=13
			13:[f4628<0.700000048] yes=25,no=26,missing=25
				25:leaf=0.0333002806
				26:leaf=-0.0705898181
			14:[f129996<0.200000003] yes=27,no=28,missing=27
				27:leaf=-0.352126569
				28:leaf=0.00562083721
booster[84]:
0:[f158931<0.100000001] yes=1,no=2,missing=1
	1:[f5775<0.600000024] yes=3,no=4,missing=3
		3:[f9001<0.400000006] yes=7,no=8,missing=7
			7:leaf=0.539972782
			8:[f369<0.400000006] yes=11,no=12,missing=11
				11:leaf=0.00670902804
				12:leaf=0.536795199
		4:leaf=0.552025914
	2:[f160281<0.700000048] yes=5,no=6,missing=5
		5:leaf=0.117719442
		6:[f94922<0.400000006] yes=9,no=10,missing=9
			9:leaf=0.100786448
			10:leaf=0.370806485
booster[85]:
0:[f69854<0.400000006] yes=1,no=2,missing=1
	1:[f67125<0.5] yes=3,no=4,missing=3
		3:leaf=0.442892134
		4:leaf=0.0814127922
	2:[f67142<0.100000001] yes=5,no=6,missing=5
		5:[f53341<0.400000006] yes=7,no=8,missing=7
			7:leaf=0.471276492
			8:[f177476<0.700000048] yes=11,no=12,missing=11
				11:leaf=0.0316643268
				12:leaf=0.136345148
		6:[f77166<0.400000006] yes=9,no=10,missing=9
			9:[f140582<0.700000048] yes=13,no=14,missing=13
				13:leaf=0.326990157
				14:leaf=-0.00378964026
			10:[f67122<0.300000012] yes=15,no=16,missing=15
				15:leaf=0.446156949
				16:leaf=0.153257966
booster[86]:
0:[f30501<0.100000001] yes=1,no=2,missing=1
	1:[f77001<0.700000048] yes=3,no=4,missing=3
		3:[f141099<0.700000048] yes=7,no=8,missing=7
			7:[f141099<0.300000012] yes=15,no=16,missing=15
				15:leaf=0.0489362404
				16:leaf=0.415965796
			8:[f169273<0.300000012] yes=17,no=18,missing=17
				17:leaf=-0.240180746
				18:leaf=0.0480931439
		4:[f76449<0.700000048] yes=9,no=10,missing=9
			9:[f67125<0.700000048] yes=19,no=20,missing=19
				19:leaf=0.25872618
				20:leaf=-0.0442508049
			10:[f161288<0.700000048] yes=21,no=22,missing=21
				21:leaf=-0.00506290048
				22:leaf=-0.120985515
	2:[f67386<0.100000001] yes=5,no=6,missing=5
		5:[f131571<0.600000024] yes=11,no=12,missing=11
			11:leaf=0.373640329
			12:leaf=0.149932548
		6:[f32551<0.400000006] yes=13,no=14,missing=13
			13:leaf=-0.107874751
			14:[f32898<0.5] yes=23,no=24,missing=23
				23:leaf=0.23891519
				24:leaf=0.0688040182
booster[87]:
0:[f68132<0.600000024] yes=1,no=2,missing=1
	1:[f2450<0.700000048] yes=3,no=4,missing=3
		3:[f2456<0.700000048] yes=7,no=8,missing=7
			7:leaf=-0.204881012
			8:[f76771<0.400000006] yes=13,no=14,missing=13
				13:leaf=0.0554454923
				14:leaf=0.506821215
		4:[f31039<0.700000048] yes=9,no=10,missing=9
			9:[f1686<0.400000006] yes=15,no=16,missing=15
				15:leaf=0.12747246
				16:leaf=0.535051703
			10:[f26311<0.100000001] yes=17,no=18,missing=17
				17:leaf=0.00528219435
				18:leaf=0.29050532
	2:[f93715<0.400000006] yes=5,no=6,missing=5
		5:leaf=-0.0629192591
		6:[f128845<0.400000006] yes=11,no=12,missing=11
			11:leaf=-0.0899155736
			12:leaf=-0.358976692
booster[88]:
0:[f129215<0.300000012] yes=1,no=2,missing=1
	1:[f169247<0.100000001] yes=3,no=4,missing=3
		3:[f169274<0.5] yes=7,no=8,missing=7
			7:[f2450<0.5] yes=15,no=16,missing=15
				15:leaf=-0.26416859
				16:leaf=0.0224309321
			8:[f67140<0.700000048] yes=17,no=18,missing=17
				17:leaf=-0.17588982
				18:leaf=0.118873179
		4:[f129205<0.5] yes=9,no=10,missing=9
			9:[f169265<0.100000001] yes=19,no=20,missing=19
				19:leaf=-0.038899336
				20:leaf=0.15798071
			10:[f177476<0.600000024] yes=21,no=22,missing=21
				21:leaf=-0.260782748
				22:leaf=-0.0164183863
	2:[f129217<0.200000003] yes=5,no=6,missing=5
		5:[f67173<0.5] yes=11,no=12,missing=11
			11:[f67122<0.300000012] yes=23,no=24,missing=23
				23:leaf=0.0476017706
				24:leaf=-0.140429378
			12:[f67139<0.100000001] yes=25,no=26,missing=25
				25:leaf=-0.0466233753
				26:leaf=-0.227230862
		6:[f76909<0.400000006] yes=13,no=14,missing=13
			13:[f9157<0.300000012] yes=27,no=28,missing=27
				27:leaf=0.0789067149
				28:leaf=-0.047732234
			14:[f177476<0.600000024] yes=29,no=30,missing=29
				29:leaf=-0.296735495
				30:leaf=0.0152466297
booster[89]:
0:[f164100<0.700000048] yes=1,no=2,missing=1
	1:[f131571<0.5] yes=3,no=4,missing=3
		3:[f130779<0.600000024] yes=7,no=8,missing=7
			7:[f24482<0.100000001] yes=15,no=16,missing=15
				15:leaf=0.391903937
				16:leaf=0.0522061996
			8:[f55<0.400000006] yes=17,no=18,missing=17
				17:leaf=0.155386806
				18:leaf=-0.0985361338
		4:[f114715<0.300000012] yes=9,no=10,missing=9
			9:[f58939<0.400000006] yes=19,no=20,missing=19
				19:leaf=-0.164502561
				20:leaf=-0.0243853927
			10:leaf=0.141132623
	2:[f129997<0.100000001] yes=5,no=6,missing=5
		5:[f89154<0.300000012] yes=11,no=12,missing=11
			11:[f131337<0.700000048] yes=21,no=22,missing=21
				21:leaf=-0.0116011379
				22:leaf=-0.259510189
			12:[f67129<0.700000048] yes=23,no=24,missing=23
				23:leaf=0.0468869396
				24:leaf=0.221312419
		6:[f26868<0.100000001] yes=13,no=14,missing=13
			13:[f5054<0.700000048] yes=25,no=26,missing=25
				25:leaf=0.428709954
				26:leaf=-0.00634110905
			14:[f134791<0.5] yes=27,no=28,missing=27
				27:leaf=0.0920508057
				28:leaf=0.293892384
booster[90]:
0:[f76129<0.5] yes=1,no=2,missing=1
	1:[f67129<0.300000012] yes=3,no=4,missing=3
		3:[f92100<0.400000006] yes=7,no=8,missing=7
			7:[f25736<0.400000006] yes=15,no=16,missing=15
				15:leaf=-0.0400708504
				16:leaf=0.149409011
			8:leaf=-0.0874067172
		4:[f33714<0.400000006] yes=9,no=10,missing=9
			9:[f75207<0.400000006] yes=17,no=18,missing=17
				17:leaf=0.0512905121
				18:leaf=0.307891816
			10:[f8041<0.400000006] yes=19,no=20,missing=19
				19:leaf=-0.00501149893
				20:leaf=0.062400043
	2:[f127219<0.700000048] yes=5,no=6,missing=5
		5:[f174223<0.100000001] yes=11,no=12,missing=11
			11:[f168582<0.700000048] yes=21,no=22,missing=21
				21:leaf=-0.244147733
				22:leaf=0.167859271
			12:[f1698<0.100000001] yes=23,no=24,missing=23
				23:leaf=-0.217307642
				24:leaf=-0.035174489
		6:[f27079<0.400000006] yes=13,no=14,missing=13
			13:[f11767<0.400000006] yes=25,no=26,missing=25
				25:leaf=0.311192751
				26:leaf=-0.00782727543
			14:[f26252<0.400000006] yes=27,no=28,missing=27
				27:leaf=0.371747762
				28:leaf=0.130544975
booster[91]:
0:[f160807<0.600000024] yes=1,no=2,missing=1
	1:[f169236<0.100000001] yes=3,no=4,missing=3
		3:[f132541<0.100000001] yes=7,no=8,missing=7
			7:[f1824<0.400000006] yes=15,no=16,missing=15
				15:leaf=-0.00680500269
				16:leaf=-0.100820422
			8:[f11617<0.700000048] yes=17,no=18,missing=17
				17:leaf=0.0244907141
				18:leaf=0.108336367
		4:[f161095<0.400000006] yes=9,no=10,missing=9
			9:[f38484<0.5] yes=19,no=20,missing=19
				19:leaf=0.363917708
				20:leaf=0.0962686539
			10:leaf=0.0946739912
	2:[f169277<0.300000012] yes=5,no=6,missing=5
		5:[f169274<0.5] yes=11,no=12,missing=11
			11:[f147835<0.400000006] yes=21,no=22,missing=21
				21:leaf=0.00170227641
				22:leaf=0.536226451
			12:[f177476<0.400000006] yes=23,no=24,missing=23
				23:leaf=-0.107293271
				24:leaf=-0.276208997
		6:[f140406<0.400000006] yes=13,no=14,missing=13
			13:leaf=0.451418579
			14:[f14451<0.400000006] yes=25,no=26,missing=25
				25:leaf=0.0963204429
				26:leaf=-0.25320977
booster[92]:
0:[f169353<0.300000012] yes=1,no=2,missing=1
	1:leaf=0.401249021
	2:[f155036<0.600000024] yes=3,no=4,missing=3
		3:[f10980<0.400000006] yes=5,no=6,missing=5
			5:leaf=0.394536465
			6:leaf=0.0499024391
		4:[f129192<0.100000001] yes=7,no=8,missing=7
			7:[f169705<0.300000012] yes=9,no=10,missing=9
				9:leaf=0.51946938
				10:leaf=-0.000928580586
			8:leaf=0.279389292
booster[93]:
0:[f8479<0.600000024] yes=1,no=2,missing=1
	1:[f2527<0.300000012] yes=3,no=4,missing=3
		3:leaf=0.518210053
		4:leaf=0.00680553913
	2:[f91050<0.700000048] yes=5,no=6,missing=5
		5:[f133398<0.400000006] yes=7,no=8,missing=7
			7:[f2172<0.100000001] yes=11,no=12,missing=11
				11:leaf=0.154632419
				12:leaf=-0.310591817
			8:[f169277<0.300000012] yes=13,no=14,missing=13
				13:leaf=-0.00120968174
				14:leaf=0.102457486
		6:[f5749<0.300000012] yes=9,no=10,missing=9
			9:[f32712<0.400000006] yes=15,no=16,missing=15
				15:leaf=-0.0468203425
				16:leaf=-0.339153886
			10:leaf=-0.0332938433
booster[94]:
0:[f49189<0.700000048] yes=1,no=2,missing=1
	1:[f133269<0.5] yes=3,no=4,missing=3
		3:[f67137<0.700000048] yes=7,no=8,missing=7
			7:leaf=0.164875597
			8:leaf=0.423857391
		4:leaf=-0.0955606699
	2:[f127221<0.100000001] yes=5,no=6,missing=5
		5:[f131331<0.200000003] yes=9,no=10,missing=9
			9:[f134790<0.600000024] yes=13,no=14,missing=13
				13:leaf=0.00548367575
				14:leaf=-0.202943921
			10:[f3205<0.5] yes=15,no=16,missing=15
				15:leaf=0.101268709
				16:leaf=0.482129067
		6:[f127221<0.700000048] yes=11,no=12,missing=11
			11:[f140682<0.100000001] yes=17,no=18,missing=17
				17:leaf=0.295411348
				18:leaf=-0.0132898092
			12:[f367<0.400000006] yes=19,no=20,missing=19
				19:leaf=0.514397204
				20:leaf=-0.026512811
booster[95]:
0:[f49189<0.700000048] yes=1,no=2,missing=1
	1:[f169274<0.200000003] yes=3,no=4,missing=3
		3:[f2695<0.400000006] yes=7,no=8,missing=7
			7:[f72356<0.100000001] yes=11,no=12,missing=11
				11:leaf=0.154131293
				12:leaf=0.402664542
			8:leaf=0.0830972195
		4:leaf=-0.102743685
	2:[f163950<0.400000006] yes=5,no=6,missing=5
		5:[f129240<0.5] yes=9,no=10,missing=9
			9:[f5773<0.700000048] yes=13,no=14,missing=13
				13:leaf=0.373059273
				14:leaf=0.00154509535
			10:[f177476<0.400000006] yes=15,no=16,missing=15
				15:leaf=0.0696711987
				16:leaf=0.404476285
		6:leaf=0.539064825
booster[96]:
0:[f81612<0.600000024] yes=1,no=2,missing=1
	1:leaf=0.429813653
	2:[f38226<0.400000006] yes=3,no=4,missing=3
		3:[f129240<0.5] yes=5,no=6,missing=5
			5:[f78169<0.100000001] yes=7,no=8,missing=7
				7:leaf=0.00201037992
				8:leaf=0.159030467
			6:[f77598<0.400000006] yes=9,no=10,missing=9
				9:leaf=0.105057016
				10:leaf=-0.202539474
		4:leaf=0.522746086
booster[97]:
0:[f114697<0.700000048] yes=1,no=2,missing=1
	1:[f114654<0.700000048] yes=3,no=4,missing=3
		3:[f101004<0.300000012] yes=7,no=8,missing=7
			7:[f169281<0.100000001] yes=15,no=16,missing=15
				15:leaf=0.0351611227
				16:leaf=0.217588946
			8:[f67161<0.400000006] yes=17,no=18,missing=17
				17:leaf=-0.15864104
				18:leaf=0.0546293855
		4:[f9157<0.400000006] yes=9,no=10,missing=9
			9:leaf=0.0977809429
			10:leaf=0.392546088
	2:[f76748<0.5] yes=5,no=6,missing=5
		5:[f27111<0.400000006] yes=11,no=12,missing=11
			11:leaf=-0.153980374
			12:[f77184<0.400000006] yes=19,no=20,missing=19
				19:leaf=0.169376582
				20:leaf=-0.0196902752
		6:[f26871<0.700000048] yes=13,no=14,missing=13
			13:[f26112<0.600000024] yes=21,no=22,missing=21
				21:leaf=-0.0446477383
				22:leaf=0.186304063
			14:[f25800<0.400000006] yes=23,no=24,missing=23
				23:leaf=-0.0104346536
				24:leaf=0.320060045
booster[98]:
0:[f169280<0.700000048] yes=1,no=2,missing=1
	1:[f129997<0.100000001] yes=3,no=4,missing=3
		3:[f129991<0.100000001] yes=7,no=8,missing=7
			7:[f41270<0.400000006] yes=15,no=16,missing=15
				15:leaf=0.20496133
				16:leaf=-0.114412069
			8:leaf=-0.161576688
		4:[f69854<0.400000006] yes=9,no=10,missing=9
			9:[f67139<0.100000001] yes=17,no=18,missing=17
				17:leaf=0.0786609054
				18:leaf=0.421819985
			10:[f134335<0.700000048] yes=19,no=20,missing=19
				19:leaf=0.103051633
				20:leaf=-0.00896598399
	2:[f169236<0.300000012] yes=5,no=6,missing=5
		5:[f136803<0.300000012] yes=11,no=12,missing=11
			11:[f129234<0.100000001] yes=21,no=22,missing=21
				21:leaf=0.124255687
				22:leaf=0.00720408373
			12:[f147837<0.400000006] yes=23,no=24,missing=23
				23:leaf=0.503317356
				24:leaf=-0.0243884064
		6:[f135324<0.5] yes=13,no=14,missing=13
			13:[f177464<0.100000001] yes=25,no=26,missing=25
				25:leaf=0.0535968952
				26:leaf=0.390789986
			14:[f38475<0.200000003] yes=27,no=28,missing=27
				27:leaf=0.0337368026
				28:leaf=-0.200931072
booster[99]:
0:[f173629<0.400000006] yes=1,no=2,missing=1
	1:[f45765<0.5] yes=3,no=4,missing=3
		3:[f25741<0.700000048] yes=7,no=8,missing=7
			7:leaf=0.0632008314
			8:leaf=0.494198591
		4:leaf=-0.0873327851
	2:[f136554<0.300000012] yes=5,no=6,missing=5
		5:[f177461<0.300000012] yes=9,no=10,missing=9
			9:[f177468<0.200000003] yes=13,no=14,missing=13
				13:leaf=0.140198901
				14:leaf=-0.0903428048
			10:[f169280<0.700000048] yes=15,no=16,missing=15
				15:leaf=0.0307560358
				16:leaf=0.132363692
		6:[f43213<0.300000012] yes=11,no=12,missing=11
			11:leaf=0.451312453
			12:[f169249<0.600000024] yes=17,no=18,missing=17
				17:leaf=-0.0129593378
				18:leaf=0.376379073
booster[100]:
0:[f38484<0.300000012] yes=1,no=2,missing=1
	1:[f161006<0.700000048] yes=3,no=4,missing=3
		3:[f169274<0.100000001] yes=7,no=8,missing=7
			7:[f131366<0.100000001] yes=15,no=16,missing=15
				15:leaf=0.322865933
				16:leaf=0.108271122
			8:leaf=-0.0293097496
		4:[f134792<0.700000048] yes=9,no=10,missing=9
			9:[f133268<0.100000001] yes=17,no=18,missing=17
				17:leaf=-0.0695126504
				18:leaf=0.0279542617
			10:[f62437<0.5] yes=19,no=20,missing=19
				19:leaf=0.244401172
				20:leaf=-0.0269256104
	2:[f85002<0.100000001] yes=5,no=6,missing=5
		5:[f67140<0.300000012] yes=11,no=12,missing=11
			11:[f130002<0.300000012] yes=21,no=22,missing=21
				21:leaf=-0.264460683
				22:leaf=0.0306308977
			12:[f29545<0.400000006] yes=23,no=24,missing=23
				23:leaf=-0.100319922
				24:leaf=0.105332471
		6:[f14215<0.700000048] yes=13,no=14,missing=13
			13:leaf=0.0355006456
			14:leaf=0.280897439
booster[101]:
0:[f155701<0.100000001] yes=1,no=2,missing=1
	1:[f12055<0.700000048] yes=3,no=4,missing=3
		3:[f67122<0.100000001] yes=7,no=8,missing=7
			7:[f12055<0.100000001] yes=15,no=16,missing=15
				15:leaf=-0.0892919302
				16:leaf=0.170760453
			8:[f8<0.400000006] yes=17,no=18,missing=17
				17:leaf=0.0388160534
				18:leaf=0.456894606
		4:[f177258<0.700000048] yes=9,no=10,missing=9
			9:[f32197<0.400000006] yes=19,no=20,missing=19
				19:leaf=0.0846623778
				20:leaf=-0.254344702
			10:[f168248<0.700000048] yes=21,no=22,missing=21
				21:leaf=0.36676535
				22:leaf=0.00328601128
	2:[f130777<0.100000001] yes=5,no=6,missing=5
		5:[f55<0.400000006] yes=11,no=12,missing=11
			11:leaf=0.152359128
			12:[f152160<0.400000006] yes=23,no=24,missing=23
				23:leaf=-0.135246515
				24:leaf=0.00952941179
		6:[f23082<0.200000003] yes=13,no=14,missing=13
			13:[f97653<0.400000006] yes=25,no=26,missing=25
				25:leaf=0.0180756245
				26:leaf=-0.327624977
			14:[f131571<0.5] yes=27,no=28,missing=27
				27:leaf=0.397164673
				28:leaf=0.150262609
booster[102]:
0:[f61309<0.100000001] yes=1,no=2,missing=1
	1:[f1686<0.400000006] yes=3,no=4,missing=3
		3:leaf=0.306237578
		4:[f7401<0.700000048] yes=7,no=8,missing=7
			7:leaf=0.23123765
			8:[f5751<0.700000048] yes=13,no=14,missing=13
				13:leaf=-0.0682911798
				14:leaf=-0.299375921
	2:[f127219<0.700000048] yes=5,no=6,missing=5
		5:[f168583<0.100000001] yes=9,no=10,missing=9
			9:[f152438<0.5] yes=15,no=16,missing=15
				15:leaf=0.249039948
				16:leaf=0.0571534894
			10:[f2172<0.100000001] yes=17,no=18,missing=17
				17:leaf=-0.0580593348
				18:leaf=-0.303633988
		6:[f85002<0.5] yes=11,no=12,missing=11
			11:[f87145<0.700000048] yes=19,no=20,missing=19
				19:leaf=0.365000159
				20:leaf=-0.00322873681
			12:[f11803<0.300000012] yes=21,no=22,missing=21
				21:leaf=0.308461696
				22:leaf=-0.192328334
booster[103]:
0:[f67172<0.5] yes=1,no=2,missing=1
	1:[f68479<0.700000048] yes=3,no=4,missing=3
		3:[f12073<0.300000012] yes=7,no=8,missing=7
			7:leaf=-0.302448928
			8:[f9157<0.400000006] yes=15,no=16,missing=15
				15:leaf=-0.157049
				16:leaf=0.254038274
		4:[f8<0.400000006] yes=9,no=10,missing=9
			9:[f172185<0.100000001] yes=17,no=18,missing=17
				17:leaf=0.0296172723
				18:leaf=0.295855284
			10:[f67142<0.300000012] yes=19,no=20,missing=19
				19:leaf=-0.00315227103
				20:leaf=-0.0618115403
	2:[f129242<0.300000012] yes=5,no=6,missing=5
		5:[f129243<0.100000001] yes=11,no=12,missing=11
			11:[f177612<0.700000048] yes=21,no=22,missing=21
				21:leaf=0.0675382838
				22:leaf=0.282917708
			12:[f69313<0.700000048] yes=23,no=24,missing=23
				23:leaf=0.505827546
				24:leaf=0.0299730953
		6:[f67133<0.100000001] yes=13,no=14,missing=13
			13:[f2450<0.600000024] yes=25,no=26,missing=25
				25:leaf=0.365562677
				26:leaf=-0.140358284
			14:[f12087<0.600000024] yes=27,no=28,missing=27
				27:leaf=0.040140748
				28:leaf=0.233593389
booster[104]:
0:[f113283<0.300000012] yes=1,no=2,missing=1
	1:[f85002<0.5] yes=3,no=4,missing=3
		3:[f67141<0.300000012] yes=7,no=8,missing=7
			7:[f151172<0.300000012] yes=13,no=14,missing=13
				13:leaf=0.241062716
				14:leaf=-0.00317207933
			8:[f35832<0.700000048] yes=15,no=16,missing=15
				15:leaf=-0.0715276599
				16:leaf=-0.384011507
		4:[f89154<0.700000048] yes=9,no=10,missing=9
			9:[f1826<0.400000006] yes=17,no=18,missing=17
				17:leaf=0.102725774
				18:leaf=-0.120505929
			10:[f14215<0.700000048] yes=19,no=20,missing=19
				19:leaf=0.156577945
				20:leaf=0.437549025
	2:[f129237<0.700000048] yes=5,no=6,missing=5
		5:[f177487<0.400000006] yes=11,no=12,missing=11
			11:[f9159<0.400000006] yes=21,no=22,missing=21
				21:leaf=0.170512944
				22:leaf=-0.0158562064
			12:leaf=-0.0902192965
		6:leaf=0.432314098
booster[105]:
0:[f60564<0.200000003] yes=1,no=2,missing=1
	1:[f8<0.400000006] yes=3,no=4,missing=3
		3:[f101636<0.400000006] yes=7,no=8,missing=7
			7:[f1818<0.700000048] yes=11,no=12,missing=11
				11:leaf=0.105360389
				12:leaf=0.0259190202
			8:leaf=-0.0367341638
		4:leaf=0.52729398
	2:[f38226<0.400000006] yes=5,no=6,missing=5
		5:[f31039<0.700000048] yes=9,no=10,missing=9
			9:[f656<0.400000006] yes=13,no=14,missing=13
				13:leaf=0.114534914
				14:leaf=0.506528139
			10:[f12582<0.400000006] yes=15,no=16,missing=15
				15:leaf=-0.000240259847
				16:leaf=0.496838927
		6:leaf=0.509789646
booster[106]:
0:[f67905<0.100000001] yes=1,no=2,missing=1
	1:[f553<0.400000006] yes=3,no=4,missing=3
		3:leaf=-0.0384123325
		4:leaf=-0.361707062
	2:[f85002<0.5] yes=5,no=6,missing=5
		5:[f68481<0.100000001] yes=7,no=8,missing=7
			7:[f169651<0.100000001] yes=11,no=12,missing=11
				11:leaf=-0.25362283
				12:leaf=0.00159976643
			8:[f166303<0.300000012] yes=13,no=14,missing=13
				13:leaf=-0.0221268889
				14:leaf=0.259172976
		6:[f131325<0.400000006] yes=9,no=10,missing=9
			9:leaf=0.118850514
			10:leaf=0.38316533
booster[107]:
0:[f78747<0.100000001] yes=1,no=2,missing=1
	1:[f26712<0.700000048] yes=3,no=4,missing=3
		3:[f26382<0.400000006] yes=7,no=8,missing=7
			7:[f169241<0.300000012] yes=15,no=16,missing=15
				15:leaf=0.0959389433
				16:leaf=-0.0991883278
			8:[f26593<0.400000006] yes=17,no=18,missing=17
				17:leaf=0.329113781
				18:leaf=0.120101213
		4:[f89157<0.300000012] yes=9,no=10,missing=9
			9:[f67173<0.300000012] yes=19,no=20,missing=19
				19:leaf=0.0231329463
				20:leaf=-0.0225378238
			10:[f77443<0.400000006] yes=21,no=22,missing=21
				21:leaf=-0.0047324351
				22:leaf=0.095474042
	2:[f77330<0.400000006] yes=5,no=6,missing=5
		5:[f10980<0.700000048] yes=11,no=12,missing=11
			11:[f177465<0.300000012] yes=23,no=24,missing=23
				23:leaf=0.0531756468
				24:leaf=-0.0811124742
			12:[f67127<0.100000001] yes=25,no=26,missing=25
				25:leaf=0.111999713
				26:leaf=0.350441575
		6:[f78204<0.400000006] yes=13,no=14,missing=13
			13:[f9157<0.200000003] yes=27,no=28,missing=27
				27:leaf=0.00627565384
				28:leaf=0.116088927
			14:[f67129<0.700000048] yes=29,no=30,missing=29
				29:leaf=0.0554265566
				30:leaf=0.351410627
booster[108]:
0:[f177609<0.300000012] yes=1,no=2,missing=1
	1:[f177517<0.200000003] yes=3,no=4,missing=3
		3:[f133268<0.5] yes=7,no=8,missing=7
			7:[f169280<0.5] yes=15,no=16,missing=15
				15:leaf=-0.110861681
				16:leaf=-0.0163093116
			8:[f1826<0.100000001] yes=17,no=18,missing=17
				17:leaf=0.0107623953
				18:leaf=0.0833648294
		4:[f11377<0.400000006] yes=9,no=10,missing=9
			9:leaf=-0.139247715
			10:[f10873<0.400000006] yes=19,no=20,missing=19
				19:leaf=0.0819813609
				20:leaf=0.393779188
	2:[f131352<0.300000012] yes=5,no=6,missing=5
		5:[f67140<0.5] yes=11,no=12,missing=11
			11:[f38475<0.100000001] yes=21,no=22,missing=21
				21:leaf=0.198138177
				22:leaf=-0.0488045663
			12:[f38485<0.400000006] yes=23,no=24,missing=23
				23:leaf=0.133536935
				24:leaf=0.426725328
		6:[f140869<0.5] yes=13,no=14,missing=13
			13:leaf=0.306797773
			14:[f35887<0.400000006] yes=25,no=26,missing=25
				25:leaf=-0.0446564406
				26:leaf=0.495526791
booster[109]:
0:[f140618<0.700000048] yes=1,no=2,missing=1
	1:leaf=0.286753088
	2:[f69854<0.400000006] yes=3,no=4,missing=3
		3:[f67125<0.5] yes=5,no=6,missing=5
			5:leaf=0.385154486
			6:leaf=0.0767224431
		4:[f165861<0.200000003] yes=7,no=8,missing=7
			7:[f38226<0.400000006] yes=9,no=10,missing=9
				9:leaf=-0.00082895346
				10:leaf=0.497977376
			8:[f1278<0.700000048] yes=11,no=12,missing=11
				11:leaf=0.0553093553
				12:leaf=0.371907473
booster[110]:
0:[f173629<0.400000006] yes=1,no=2,missing=1
	1:[f129211<0.700000048] yes=3,no=4,missing=3
		3:[f67125<0.5] yes=7,no=8,missing=7
			7:leaf=0.480190665
			8:leaf=0.130512714
		4:[f61332<0.400000006] yes=9,no=10,missing=9
			9:leaf=0.208656311
			10:leaf=-0.158266857
	2:[f169274<0.5] yes=5,no=6,missing=5
		5:[f61332<0.300000012] yes=11,no=12,missing=11
			11:[f109940<0.200000003] yes=15,no=16,missing=15
				15:leaf=-0.215989515
				16:leaf=0.073132664
			12:[f11718<0.5] yes=17,no=18,missing=17
				17:leaf=0.00770764705
				18:leaf=-0.403153509
		6:[f38474<0.100000001] yes=13,no=14,missing=13
			13:leaf=0.182385325
			14:[f129234<0.300000012] yes=19,no=20,missing=19
				19:leaf=-0.196871072
				20:leaf=0.00989216566
booster[111]:
0:[f161919<0.400000006] yes=1,no=2,missing=1
	1:[f17420<0.700000048] yes=3,no=4,missing=3
		3:leaf=-0.348396778
		4:[f88225<0.100000001] yes=5,no=6,missing=5
			5:[f169273<0.700000048] yes=7,no=8,missing=7
				7:leaf=0.0108999014
				8:leaf=-0.349032402
			6:[f118681<0.600000024] yes=9,no=10,missing=9
				9:leaf=0.282981813
				10:leaf=0.00225055777
	2:leaf=-0.362380028
booster[112]:
0:[f67127<0.300000012] yes=1,no=2,missing=1
	1:[f133251<0.100000001] yes=3,no=4,missing=3
		3:[f131568<0.100000001] yes=7,no=8,missing=7
			7:[f130777<0.100000001] yes=15,no=16,missing=15
				15:leaf=-0.187808663
				16:leaf=0.172498658
			8:[f56751<0.600000024] yes=17,no=18,missing=17
				17:leaf=-0.000411031302
				18:leaf=-0.258275837
		4:[f169273<0.5] yes=9,no=10,missing=9
			9:leaf=-0.394934773
			10:[f21019<0.400000006] yes=19,no=20,missing=19
				19:leaf=-0.131930515
				20:leaf=0.0356141329
	2:[f67140<0.300000012] yes=5,no=6,missing=5
		5:[f77054<0.400000006] yes=11,no=12,missing=11
			11:[f67173<0.100000001] yes=21,no=22,missing=21
				21:leaf=-0.00630621891
				22:leaf=0.16268675
			12:[f129229<0.200000003] yes=23,no=24,missing=23
				23:leaf=-0.129203632
				24:leaf=0.0611951947
		6:[f115350<0.100000001] yes=13,no=14,missing=13
			13:[f67172<0.5] yes=25,no=26,missing=25
				25:leaf=-0.119279824
				26:leaf=0.0257795248
			14:[f67172<0.700000048] yes=27,no=28,missing=27
				27:leaf=0.325881362
				28:leaf=0.035499651
